{"weights": [[[-0.08154039084911346, -0.004169106483459473, -0.08196936547756195, -0.08243608474731445, -0.062438540160655975, -0.05333935469388962, -0.0030049756169319153, 0.08231645077466965, -0.08283127099275589, 0.04723193496465683, 0.03177725523710251, -0.03218226134777069, 0.09975561499595642, -0.005321549251675606, 0.0671260803937912, 0.0742168128490448, 0.03414510190486908, -0.0779980942606926, 0.0654553696513176, 0.05054888874292374, -0.08505579084157944, 0.056927911937236786, 0.0413522943854332, 0.07422805577516556, -0.01375339925289154, -0.009370163083076477, -0.07306122034788132, 0.02041366696357727, 0.04802720993757248, -0.00021371990442276, -0.07515674829483032, 0.07119376212358475, 0.0231556985527277, 0.05074848607182503, -0.19576050341129303, -0.3629174530506134, -0.3205377161502838, -0.356563925743103, -0.28337275981903076, 0.33276060223579407, 0.3328956663608551, 0.10547672212123871, -0.4525030553340912, 0.24608710408210754, 0.3044765889644623, -0.0909498855471611, -0.33421480655670166, -0.03809686750173569, -0.10647857934236526, -0.16326649487018585, -0.1245749220252037, -0.04653855040669441, -0.043039146810770035, 0.03960859030485153, 0.07959627360105515, -0.012480206787586212, -0.03667664900422096, -0.07231259346008301, 0.06764635443687439, 0.5075635313987732, 0.501675009727478, -0.4827767610549927, -0.6407580375671387, -0.01189442165195942, -0.523219645023346, -0.7202235460281372, -1.366636037826538, -0.838719367980957, -0.8220173716545105, -0.5211189389228821, -1.0026836395263672, -1.0626380443572998, -0.3088954985141754, -0.8283870220184326, -1.135176420211792, -0.8410341143608093, -0.7596986293792725, -0.8160989880561829, -0.8637974858283997, -0.578195333480835, 0.41777169704437256, 0.12526139616966248, -0.024506837129592896, 0.007878988981246948, -0.05878251791000366, 0.03942113369703293, 0.026227524504065514, 0.4649607837200165, 0.4788782298564911, -0.6898674964904785, -0.7633947134017944, -1.1488401889801025, -0.9079012274742126, -0.7114503383636475, -0.6003100872039795, -0.6792569756507874, -0.20027397572994232, 0.25544482469558716, 0.09561286121606827, 0.04011380299925804, 0.3975975215435028, -0.19303952157497406, -0.6491585373878479, -0.26977524161338806, -0.5659399628639221, -0.04817361384630203, -0.8068198561668396, -0.49809062480926514, -0.5121637582778931, -0.016370227560400963, -0.2966907322406769, 0.04994901269674301, 0.03636152297258377, -0.1538315713405609, -0.31769829988479614, -0.054189227521419525, -0.6752995848655701, -0.9570509791374207, -0.7161742448806763, -0.38836246728897095, -1.1669437885284424, -0.6612352728843689, -0.5635600686073303, -0.372167706489563, -0.29046180844306946, 0.2604462504386902, 0.3018038272857666, 0.13531915843486786, 0.019489292055368423, 0.0829399824142456, 0.049620434641838074, 0.3990982174873352, 0.3669881224632263, -0.15666420757770538, -0.09301061183214188, -0.22917971014976501, -0.826224148273468, -0.6802474856376648, -0.43777722120285034, -0.3998669981956482, 0.05766984075307846, -0.04447617754340172, -0.4337210953235626, 0.08553510904312134, -0.2583814263343811, -0.020027073100209236, -0.23704570531845093, -0.44280534982681274, -0.20383165776729584, -0.24558444321155548, -0.537453293800354, -0.4653572142124176, -0.28937816619873047, 0.13869796693325043, -0.1429489105939865, -0.35679200291633606, -0.3606385588645935, -0.10409993678331375, 0.0267045758664608, 0.1542653739452362, 0.08198031038045883, -0.1738719344139099, -0.037423890084028244, 0.01796928606927395, -0.06521746516227722, -0.6421088576316833, -0.6903088092803955, -0.09855207055807114, 0.02637118101119995, -0.3080027997493744, -0.15127132833003998, 0.06791102886199951, -0.5041191577911377, 0.21602948009967804, 0.09032033383846283, 0.35957637429237366, 0.29611650109291077, -0.21235673129558563, 0.16211916506290436, 0.07585659623146057, 0.42049744725227356, 0.24346712231636047, -0.17086583375930786, -0.42715638875961304, -0.33205267786979675, -0.32647305727005005, -0.28603866696357727, 0.22715549170970917, -0.0768093392252922, 0.365863561630249, 0.3971397280693054, -0.003180157858878374, 0.0169302336871624, -0.26333487033843994, -0.28822916746139526, -0.2253042459487915, 0.1275254189968109, 0.555563747882843, -0.09642813354730606, 0.10086753964424133, -0.4335251748561859, 0.015216399915516376, 0.007273152470588684, 0.2967964708805084, 0.2902417480945587, 0.5925846099853516, 0.33138105273246765, 0.3321807384490967, 0.5352717041969299, 0.30783140659332275, -0.14923818409442902, -0.2410823106765747, 0.17196521162986755, 0.2268206924200058, 0.33014628291130066, 0.4266817271709442, 0.20489566028118134, 0.2958177328109741, 0.3222712576389313, 0.32910582423210144, 0.0005983610171824694, 0.24327297508716583, -0.3392955958843231, 0.20590680837631226, 0.6061676144599915, 0.4297275245189667, 0.5075323581695557, 0.423045814037323, -0.24861064553260803, 0.120897077023983, -0.4134422540664673, 0.10617104917764664, 0.1279270350933075, 0.19317792356014252, 0.11051835864782333, 0.347213476896286, 0.1531873494386673, -0.014627418480813503, 0.2617323696613312, 0.12985831499099731, 0.08201434463262558, 0.14661988615989685, 0.3146534264087677, 0.24367684125900269, 0.41488224267959595, -0.06109064072370529, 0.24658076465129852, 0.25877901911735535, -0.12319529056549072, 0.14326517283916473, -0.282993882894516, -0.43031394481658936, 0.4541756808757782, 0.7253502607345581, 0.6978051662445068, 0.12149444967508316, -0.07873478531837463, -0.08519357442855835, 0.1187581717967987, 0.19720794260501862, -0.006486212369054556, 0.27524489164352417, 0.020450295880436897, 0.23979933559894562, 0.09110993891954422, 0.3575739562511444, 0.26470687985420227, -0.06942935287952423, 0.003531515132635832, 0.2167292833328247, 0.6799150705337524, 0.2519717812538147, 0.23880717158317566, 0.009709548205137253, 0.6872348189353943, 0.3635898530483246, 0.13999991118907928, -0.16894084215164185, -0.8645195960998535, -0.14531998336315155, 0.47971996665000916, 0.8978114724159241, 1.0723375082015991, 0.6298701167106628, 0.20626795291900635, -0.01787416823208332, 0.19282303750514984, -0.07242096960544586, 0.1041010320186615, 0.14874903857707977, 0.12311474233865738, 0.5258921384811401, 0.31738582253456116, 0.3216705024242401, -0.3155418634414673, -0.13880003988742828, -0.054523859173059464, 0.2913590967655182, 0.4132007956504822, 0.3163403272628784, 0.4960026741027832, 0.6535362005233765, 0.15431001782417297, 0.11337097734212875, 0.17265526950359344, -0.5496736168861389, 0.11938565224409103, 0.33224156498908997, 0.46671175956726074, 0.7364470362663269, 0.28291767835617065, -0.22399035096168518, -0.19054599106311798, -0.15349210798740387, 0.22914810478687286, -0.04781930521130562, -2.9474816983565688e-05, 0.2833803594112396, 0.27945950627326965, 0.27909812331199646, -0.23334850370883942, -0.8436272740364075, -1.386122465133667, -1.203296184539795, -0.6740484833717346, -0.12711994349956512, -0.17299704253673553, -0.033872004598379135, 0.219657301902771, 0.16015750169754028, 0.2101425975561142, 0.019726281985640526, 0.28499600291252136, -0.7022609114646912, 0.5934558510780334, -0.07563156634569168, 0.5066543817520142, 1.2177996635437012, -0.06887403875589371, -0.22160857915878296, -0.00020008650608360767, -0.022669252008199692, 0.27815526723861694, 0.16464929282665253, 0.20359507203102112, 0.4617587625980377, 0.3689616918563843, -0.12435679882764816, -0.27078625559806824, -1.315678358078003, -1.9775826930999756, -1.1262928247451782, -0.2990485727787018, -0.33916476368904114, -0.1430484801530838, -0.511404275894165, -0.172129824757576, -0.12712086737155914, 0.4527145326137543, 0.09941790997982025, 0.36431884765625, -0.03972712904214859, 0.49965450167655945, -0.4946247339248657, -0.1270095407962799, 0.9121379852294922, 0.708440363407135, -0.3360888361930847, -0.6283233761787415, 0.02782132849097252, 0.33464717864990234, 0.002752662869170308, -0.05524194985628128, 0.3476630747318268, 0.2577836215496063, -0.1558210402727127, -0.8421632051467896, -1.6117768287658691, -1.2633942365646362, -0.728091835975647, -0.2727011442184448, -0.14994670450687408, -0.37217414379119873, -0.8050121665000916, -0.5856097936630249, -0.20014894008636475, -0.04392451420426369, 0.16310539841651917, -0.17756707966327667, -0.5407009720802307, -0.1165914386510849, -0.4272118806838989, -0.12909111380577087, 0.26242250204086304, 0.7142465710639954, -0.431601345539093, -0.7333142757415771, -0.253307580947876, -0.10775935649871826, -0.098492830991745, -0.16313546895980835, 0.06846809387207031, 0.06846272945404053, -0.4598309397697449, -1.5858880281448364, -1.5845096111297607, -0.6643576622009277, -0.286898136138916, -0.4390603005886078, -0.4284965991973877, -0.7017323970794678, -0.7940002083778381, -0.38781818747520447, -0.3770262897014618, -0.15757866203784943, -0.1317211538553238, -0.2015894204378128, -0.8251261711120605, 0.7695992588996887, 0.3159591853618622, 0.3121243119239807, 0.014505351893603802, 0.27711111307144165, -0.8111977577209473, -0.07534579187631607, -0.1564817577600479, -0.3977050483226776, 0.09766886383295059, -0.13257727026939392, -0.13462033867835999, -0.377178430557251, -1.4743422269821167, -2.0281081199645996, -1.099020004272461, -0.42682376503944397, -0.15146280825138092, -0.2494320124387741, -0.5758488178253174, -0.5067847967147827, -0.8117840886116028, -0.2638849914073944, -0.03175538778305054, -0.20770224928855896, -0.2731323540210724, -0.6221614480018616, -0.5661075711250305, 0.06901655346155167, 0.2787320911884308, 0.43675360083580017, -0.18767526745796204, -0.0014628153294324875, -0.7675886750221252, -0.11016853898763657, -0.27950841188430786, 0.15564441680908203, 0.26532360911369324, -0.19685299694538116, -0.18332615494728088, -0.5203100442886353, -1.089590311050415, -1.0038355588912964, -0.6229137182235718, -0.16733820736408234, -0.14858518540859222, -0.37551262974739075, -0.23576629161834717, -0.4018861651420593, -0.36726945638656616, -0.3672032952308655, -0.07245039939880371, -0.124397411942482, 0.0690893828868866, -0.5352718234062195, -0.5125706195831299, 0.12639927864074707, 0.3948056399822235, -0.08530248701572418, -0.04859715700149536, 0.06887009739875793, -0.5320985913276672, -0.18061476945877075, -0.25962820649147034, -0.40592890977859497, -0.3680005967617035, -0.26598629355430603, -0.40548163652420044, -0.2072470784187317, -0.284374475479126, -0.4533002972602844, -0.2847006022930145, -0.19310788810253143, -0.18359315395355225, -0.35572102665901184, -0.22388415038585663, -0.07458165287971497, -0.0873739942908287, 0.12448111176490784, -0.02982245199382305, 0.031655989587306976, 0.48095887899398804, -0.09293285757303238, -0.1655799150466919, -0.10704366117715836, -0.3253427743911743, 0.3914228677749634, -0.2846102714538574, -0.3418010175228119, -0.5942307710647583, -0.5671352744102478, -0.23032881319522858, -0.13742010295391083, 0.2732727825641632, 0.06929709017276764, -0.20933620631694794, -0.0034943995997309685, -0.47406330704689026, -0.5554022789001465, -0.4106021523475647, -0.2824753224849701, -0.34956908226013184, -0.1409376561641693, -0.007776445243507624, 0.2610199749469757, 0.4103426933288574, 0.4303636848926544, 0.34559541940689087, 0.14082001149654388, 0.3058076500892639, -0.1010909304022789, -0.19610339403152466, -0.13059404492378235, -0.44168907403945923, -0.1383112668991089, 0.4536440670490265, 0.04499315097928047, -0.8116593956947327, -0.49436742067337036, -0.5295603275299072, 0.4792904853820801, 0.38212844729423523, 0.17872874438762665, 0.14534887671470642, -0.06445784121751785, -0.24199903011322021, -0.46172067523002625, -0.5011265277862549, -0.3293243944644928, -0.19964328408241272, -0.0938117504119873, 0.1486278474330902, 0.15393340587615967, 0.3535366952419281, 0.5423933863639832, 0.35476523637771606, 0.31227633357048035, 0.06640538573265076, 0.2106662392616272, 0.3085961639881134, -0.19277115166187286, -0.22744189202785492, -0.07765127718448639, -0.33589479327201843, 0.09000340104103088, -0.3161468505859375, -0.31017956137657166, 0.06846870481967926, 0.012622217647731304, 0.09231503307819366, 0.1599801778793335, 0.15753184258937836, 0.3474256098270416, 0.4240952432155609, 0.3811396658420563, 0.06495749950408936, 0.07358092069625854, 0.13443920016288757, -0.10907268524169922, -0.024476854130625725, 0.15083250403404236, 0.4379454255104065, 0.4520339071750641, 0.3857661783695221, 0.4747883379459381, 0.25054723024368286, -0.15345735847949982, -0.24865469336509705, -0.3843238055706024, -0.19038096070289612, 0.092164047062397, -0.425197035074234, 0.08237931877374649, -0.1440180540084839, 0.1652074009180069, 0.21984252333641052, 0.04228009283542633, 0.027439968660473824, 0.007966896519064903, 0.4650692045688629, 0.37161552906036377, 0.5317387580871582, 0.37430399656295776, 0.4050019383430481, 0.18390540778636932, 0.1672191321849823, 0.08873259276151657, 0.1879105120897293, 0.11656063050031662, 0.06652026623487473, 0.4489753544330597, 0.7652050852775574, 0.46955177187919617, 0.11498786509037018, 0.6749817728996277, 0.3183850347995758, 0.6507856249809265, 0.14705072343349457, 0.062008582055568695, -0.08421855419874191, 0.0444234274327755, 0.02835233137011528, -0.2068174183368683, 0.11392935365438461, 0.18312272429466248, 0.26121020317077637, 0.12568016350269318, 0.41696906089782715, 0.2536178231239319, 0.30724984407424927, 0.4051908850669861, 0.4992205500602722, 0.12397775053977966, 0.1702188104391098, 0.07057585567235947, 0.258052796125412, 0.06450583785772324, -0.21872715651988983, 0.03732888773083687, 0.5866641998291016, 0.6258640885353088, -0.018384559080004692, 0.05849851667881012, 0.38858041167259216, 0.6274337768554688, 0.08454383909702301, -0.05119248852133751, -0.022742748260498047, -0.9029420018196106, -0.1470450907945633, 0.34561410546302795, 0.2814199924468994, 0.3988490700721741, -0.015569435432553291, -0.08415042608976364, 0.37665635347366333, 0.07298965752124786, 0.22893443703651428, 0.1433056741952896, 0.13273067772388458, 0.4181622862815857, 0.07235606759786606, -0.16268137097358704, -0.06396035104990005, -0.045673687011003494, -0.40213626623153687, -0.26644450426101685, 0.00840242300182581, 0.1843176782131195, 0.08104845136404037, -0.7820835709571838, -0.03156502544879913, 0.5134013295173645, 0.07538115233182907, -0.007240287959575653, -0.0388648584485054, 0.07987241446971893, -0.0038982401601970196, 0.4612325429916382, 0.421507865190506, 0.3770311176776886, 0.20023003220558167, 0.1859465390443802, -0.07575137913227081, 0.06995122879743576, 0.15938545763492584, 0.05152556672692299, 0.09252551943063736, 0.1711699515581131, 0.14902381598949432, -0.11985501646995544, 0.3505820333957672, 0.3053681552410126, -0.2973000407218933, -0.8171548843383789, 0.02379034273326397, -0.316007524728775, -0.44296401739120483, -0.4275260865688324, 0.7510205507278442, 0.4059290885925293, -0.021223925054073334, 0.004660248756408691, 0.023783162236213684, -0.9109988808631897, 0.28535187244415283, 0.8739942312240601, 0.39251986145973206, 0.21856476366519928, 0.17861901223659515, 0.28720730543136597, 0.3103058636188507, -0.2871614694595337, 0.22642244398593903, 0.2875928282737732, 0.16516254842281342, 0.47282418608665466, 0.5620285868644714, 0.11484012752771378, -0.2512890100479126, -0.04766629636287689, -0.16967830061912537, 0.1345968395471573, -0.315229594707489, -0.22939781844615936, -0.02638162299990654, -0.09497778862714767, 0.30915260314941406, 0.23664848506450653, -0.06129197031259537, 0.06249474734067917, 0.025740623474121094, -0.0028749778866767883, -0.48932111263275146, -0.6008421182632446, 0.019325660541653633, -0.2507433295249939, 0.23826684057712555, 0.10886837542057037, -0.19868189096450806, -0.22841256856918335, -0.22316819429397583, -0.16673262417316437, -0.190028116106987, -0.06552749872207642, 0.27834415435791016, 0.18101082742214203, 0.0431879498064518, 0.7324142456054688, 0.7655109763145447, 0.0866033136844635, -0.9768743515014648, 0.15832266211509705, 0.10500229895114899, -0.2045031636953354, 0.27402937412261963, 0.059110574424266815, 0.006245903670787811, -0.03798431158065796, -0.08389546722173691, -0.03043532744050026, -0.06917714327573776, 0.6573682427406311, 1.0379197597503662, 0.2834497392177582, 0.9657533764839172, 0.9100216031074524, 0.6266336441040039, 0.5437343716621399, -0.16341157257556915, 0.13675345480442047, 1.2378816604614258, 0.49673500657081604, -0.0379568412899971, 1.0588107109069824, 1.2286456823349, 0.1356857717037201, 0.5907586812973022, -0.4498678743839264, -0.4805251955986023, -0.39076870679855347, 0.47723081707954407, -0.04232114553451538, -0.026963748037815094, -0.0681457370519638, -0.04116164147853851], [0.05575602501630783, 0.060665570199489594, 0.01717822253704071, -0.017857626080513, 0.006741508841514587, 0.0013711750507354736, -0.08222054690122604, -0.02699899673461914, -0.016756579279899597, -0.058585986495018005, -0.008737556636333466, 0.032337866723537445, -0.15223944187164307, 0.0008816426852717996, 0.18000659346580505, -0.025242948904633522, -0.001232825219631195, 0.07501404732465744, 0.007835082709789276, -0.06556698679924011, -0.050140347331762314, -0.08033309131860733, 0.06618655472993851, 0.004103630781173706, -0.01449265331029892, -0.017072275280952454, -0.05025790259242058, 0.0799688771367073, -0.07413434237241745, 0.054273106157779694, 0.05597389489412308, 0.04588451236486435, 0.021085891872644424, 0.15815956890583038, 0.19267138838768005, 0.032732315361499786, -0.15944479405879974, -0.6066848039627075, -0.8884128928184509, -0.5574953556060791, -0.30368608236312866, -0.5374499559402466, -0.17292016744613647, 0.4732474088668823, 0.7311409711837769, 0.4311595559120178, -0.39121362566947937, -0.08592553436756134, 0.11667124927043915, -0.6661996841430664, 0.1926298290491104, 0.15180175006389618, -0.027940627187490463, -0.04934562370181084, 0.0007039010524749756, -0.019308999180793762, 0.05697611719369888, -0.03593049943447113, 0.15638217329978943, 0.454211562871933, 0.37668928503990173, -0.568067193031311, -0.18160191178321838, -0.4839547872543335, -0.28086018562316895, 0.3734282851219177, 0.24648739397525787, 0.04983188956975937, 0.321048378944397, 0.21352887153625488, -0.10073941946029663, 0.05004122480750084, -0.035125743597745895, -0.26297950744628906, -0.1701437085866928, -0.16520041227340698, -0.17884165048599243, -0.11700418591499329, -0.5127612352371216, -0.18415549397468567, 0.4661869406700134, 0.5347167253494263, 0.023425213992595673, -0.07986362278461456, 0.03005506843328476, -0.02884410321712494, 0.30147042870521545, 0.417234867811203, -0.5405469536781311, -0.22869090735912323, 0.9022454619407654, 0.32131338119506836, 0.7375847697257996, 1.0079479217529297, 0.5794121026992798, 0.4007418155670166, 0.4919813871383667, 0.2890659272670746, -0.31583666801452637, -0.3306153118610382, -0.16015611588954926, -0.1895337700843811, -0.1563674956560135, -0.2507264316082001, -0.16624298691749573, -0.1301141381263733, -0.38970232009887695, -1.0173755884170532, -0.38817229866981506, 0.19661609828472137, 0.18029552698135376, -0.06461846083402634, 0.03311998397111893, -0.0032333459239453077, 0.5554118156433105, 0.5548263788223267, 0.3552352488040924, 0.18697546422481537, 0.16187559068202972, 0.011140475049614906, 0.825410783290863, 0.6410078406333923, 0.2951582968235016, 0.0672922432422638, 0.021197322756052017, 0.042259227484464645, 0.0031103137880563736, -0.1750788688659668, -0.09953085333108902, -0.33542928099632263, -0.07620372623205185, -0.021113889291882515, -0.01253789197653532, -0.27744942903518677, 0.1088629737496376, -0.48209148645401, -0.6171530485153198, -0.6448835730552673, -0.16461420059204102, -0.47743603587150574, -0.06086205691099167, 0.06410185247659683, 0.4162578284740448, 0.1012352705001831, 0.6163161993026733, -0.026665668934583664, 0.4248828887939453, 0.4775018095970154, 0.45774391293525696, 0.24411045014858246, 0.18037252128124237, 0.10588052123785019, -0.16993828117847443, -0.0004951697774231434, -0.17516323924064636, 0.1088080108165741, 0.0035633863881230354, -0.12562966346740723, -0.4284246861934662, -0.11976968497037888, 0.06186186522245407, 0.34590768814086914, -0.2419106662273407, 0.008080238476395607, -0.20471255481243134, -0.9936752319335938, -0.43863269686698914, -0.4462495446205139, 0.008375599980354309, 0.412813663482666, 0.16039158403873444, 0.3721020221710205, 0.5248468518257141, 0.15169574320316315, 0.5731086730957031, 0.18738999962806702, 0.3641543984413147, 0.31881195306777954, 0.42951977252960205, 0.5370108485221863, 0.399427205324173, 0.561874270439148, 0.2876501977443695, 0.10077553987503052, -0.0968819409608841, -0.2682829201221466, -0.12651784718036652, -0.018230918794870377, 0.023852184414863586, -0.3334781229496002, -0.3033037781715393, -0.0840902179479599, -0.11767728626728058, -0.5099512338638306, 0.12494969367980957, -0.13611334562301636, 0.0316866859793663, 0.8276562690734863, 0.18259505927562714, 0.40028300881385803, 0.39065372943878174, 0.1046755313873291, 0.48472675681114197, 0.46031126379966736, 0.4877030849456787, 0.4820518493652344, 0.4271649718284607, 0.5703609585762024, 0.6260399222373962, 0.14062756299972534, 0.43383944034576416, 0.07478255033493042, -0.12157861143350601, -0.23797746002674103, 0.0061051445081830025, 0.10075027495622635, 0.10313341021537781, -0.2498655468225479, -0.38490530848503113, 0.014113177545368671, 0.043015047907829285, 0.014094242826104164, 0.24410270154476166, 0.046977922320365906, 0.3166891038417816, 0.7621183395385742, -0.49254268407821655, 0.3098437190055847, 0.3310113549232483, 0.2600148916244507, 0.18279625475406647, 0.2867191433906555, 0.05716946721076965, 0.2539558410644531, 0.06817564368247986, -0.306975394487381, 0.10105599462985992, 0.03045446239411831, -0.21038974821567535, -0.16685599088668823, 0.024969831109046936, -0.10492554306983948, 0.1483772099018097, -0.03178868070244789, -0.08353500068187714, -0.19264574348926544, -0.022008033469319344, -0.33909642696380615, -0.5007150173187256, -1.0777099132537842, -0.1468018740415573, 0.4379245340824127, 0.06317740678787231, 0.755420982837677, -0.12801547348499298, -0.13292065262794495, 0.25618842244148254, -0.1338321417570114, -0.46962007880210876, -0.6189855337142944, -0.48989546298980713, -1.1136506795883179, -1.787837028503418, -1.9583563804626465, -1.9840372800827026, -1.585797667503357, -1.0987160205841064, -0.08145537972450256, 0.2972525358200073, 0.11733443289995193, 0.05779172107577324, -0.15821969509124756, -0.23334461450576782, 0.1499541699886322, 0.02669135108590126, 0.040489472448825836, -1.2773287296295166, 0.3879493474960327, 0.12309185415506363, 0.19742247462272644, 0.12998026609420776, 0.5229284167289734, -0.05897028371691704, -0.9486042261123657, -0.641255795955658, -1.1335762739181519, -1.634520173072815, -2.249593496322632, -3.045745611190796, -3.598762035369873, -2.9717979431152344, -2.089155912399292, -1.6690231561660767, -1.2196753025054932, -0.7066213488578796, -0.41660428047180176, 0.181285098195076, 0.3277435302734375, -0.1315704733133316, -0.22098933160305023, -0.19853821396827698, 0.02527688443660736, 0.010619213804602623, 0.048647817224264145, -1.412864089012146, 0.2582693099975586, 0.4362384080886841, 0.45430323481559753, 0.009801984764635563, -0.008993182331323624, -0.6322682499885559, -1.1329777240753174, -1.3314940929412842, -2.19091534614563, -2.0445384979248047, -1.9840551614761353, -2.1628429889678955, -1.5278589725494385, -0.7823387384414673, -0.4519951343536377, -0.5067110657691956, -0.38335534930229187, -0.36056435108184814, -0.04980004206299782, -0.04105721786618233, 0.18093308806419373, -0.049320146441459656, 0.15839843451976776, 0.059954676777124405, -0.10144782066345215, -0.6485816836357117, -0.34017837047576904, -0.4249967932701111, 0.2263340950012207, -0.3801690340042114, -0.04385393112897873, 0.07549896836280823, -0.3774929344654083, -0.6662463545799255, -0.5635172128677368, -0.8229451775550842, -1.0936309099197388, -0.7818961143493652, -0.004623029381036758, 0.07648363709449768, 0.5060850381851196, 0.5433582663536072, 0.7016509771347046, 0.5100088119506836, 0.27681243419647217, 0.476824551820755, 0.15837974846363068, -0.059862568974494934, 0.035089991986751556, 0.15492567420005798, 0.13921847939491272, -0.14312808215618134, -0.38724756240844727, -0.6896783113479614, -1.0671054124832153, -0.6245399713516235, 0.9872804284095764, -0.0785885900259018, -0.28949058055877686, -0.08732135593891144, -0.3811708092689514, -0.5013939142227173, -0.2695065438747406, 0.16291582584381104, 0.018778540194034576, 0.48292505741119385, 0.5913764834403992, 0.5046387910842896, 0.7735311985015869, 0.35045960545539856, 0.4180298447608948, 0.43428006768226624, 0.1590251326560974, 0.357181191444397, -0.057185277342796326, 0.024115392938256264, 0.1806037724018097, -0.05902964621782303, 0.03144432231783867, 0.027638256549835205, -0.08599383383989334, -0.2763902246952057, -0.4359499514102936, -0.416675329208374, 0.35652774572372437, 0.09206030517816544, -0.3955407738685608, -0.23775246739387512, -0.4742956757545471, -0.29654553532600403, 0.4194994270801544, 0.64561927318573, 0.37583932280540466, 0.4495411813259125, 0.5304093360900879, 0.3099718987941742, 0.2531687319278717, -0.05570854991674423, -0.10258539021015167, -0.08297375589609146, 0.03822602704167366, 0.3413410484790802, 0.09768166393041611, 0.026456842198967934, -0.14140425622463226, -0.034220751374959946, -0.03345007076859474, -0.1678418666124344, 0.266234427690506, -0.16175317764282227, -0.38514113426208496, 0.04262518137693405, 0.26603758335113525, 0.5583474636077881, -0.46878618001937866, -0.28431135416030884, -0.32209932804107666, 0.09032227098941803, 0.3060925304889679, 0.240644171833992, 0.41506585478782654, 0.19907207787036896, -0.4582063555717468, -0.21354210376739502, -0.1853153258562088, -0.3917202651500702, -0.4193703234195709, -0.3897928297519684, -0.034261226654052734, 0.1135672926902771, 0.3162544071674347, 0.36851754784584045, 0.010886519216001034, -0.25055378675460815, 0.03315962478518486, -0.019896250218153, -0.22762581706047058, -0.1930411458015442, -0.15380609035491943, -0.12710508704185486, 0.3502013683319092, 0.3490847051143646, 0.10346204787492752, 0.01700398698449135, 0.5196933150291443, 0.12768851220607758, 0.399397075176239, 0.019792724400758743, 0.1904461681842804, -0.2650405466556549, -0.3860449194908142, -0.17981287837028503, -0.21746259927749634, -0.5943823456764221, -0.53626948595047, -0.3999861776828766, 0.0056036077439785, 0.28469401597976685, 0.11615634709596634, 0.11497073620557785, 0.37900760769844055, -0.038665253669023514, 0.09018893539905548, -0.050615448504686356, -0.0493166409432888, -0.007255799137055874, 0.03794088959693909, 0.3627585768699646, -0.047926902770996094, 0.267545223236084, 0.5429163575172424, 0.030197083950042725, 0.6916772127151489, -0.0518568716943264, 0.15580613911151886, -0.17367279529571533, 0.2875522971153259, 0.059268783777952194, -0.2925124168395996, -0.04314536601305008, -0.14532513916492462, -0.35306912660598755, -0.47040751576423645, -0.24490004777908325, 0.1261255443096161, 0.1432994306087494, -0.12268275767564774, -0.1153600737452507, 0.061331603676080704, 0.020758479833602905, 0.1899237483739853, -0.1978175938129425, 0.09318612515926361, 0.3792433440685272, -0.38676533102989197, -0.17664369940757751, -0.6826807260513306, -0.31732437014579773, 0.5794329047203064, 0.30628377199172974, 0.4138055145740509, -0.1584063619375229, 0.219674751162529, 0.0011401524534448981, -0.1420784443616867, 0.15728777647018433, -0.15308339893817902, 0.42204540967941284, 0.6010381579399109, -0.13799922168254852, -0.32502031326293945, -0.3807508051395416, -0.03523387014865875, 0.2626487910747528, 0.24598082900047302, 0.2403600662946701, 0.14113262295722961, 0.020162109285593033, 0.009724859148263931, -0.09062045067548752, 0.3981260061264038, 0.2102135419845581, -0.3506969213485718, -0.5027456283569336, 0.07034016400575638, -0.31841111183166504, 0.6341475248336792, -0.021201010793447495, 0.47041648626327515, -0.034342486411333084, 0.18353119492530823, 0.037794772535562515, -0.11668507754802704, 0.3193151652812958, 0.18758317828178406, -0.37234875559806824, 0.04246082901954651, -0.1554318219423294, -0.3998073935508728, -0.2660317122936249, 0.20066574215888977, 0.2687830924987793, 0.4350969195365906, 0.37630802392959595, 0.20627042651176453, 0.09141945838928223, 0.19734793901443481, -0.021397804841399193, 0.15640920400619507, -0.2637835443019867, -0.10039335489273071, -0.2549135684967041, -0.24139726161956787, -0.22785483300685883, 0.0786878690123558, -0.06973284482955933, 0.13938218355178833, -0.007821164093911648, 0.4707496762275696, 0.25326600670814514, -0.12422128021717072, 0.10218636691570282, 0.10182240605354309, -0.07134562730789185, 0.03835885599255562, 0.05699284002184868, -0.013408857397735119, -0.42243948578834534, -0.11935874819755554, 0.25195473432540894, 0.16240181028842926, 0.01760432869195938, 0.015402152203023434, 0.17181174457073212, 0.019854942336678505, 0.2759113907814026, 0.0748080238699913, -0.010795915499329567, -0.523108959197998, -0.030685659497976303, -0.09906822443008423, 0.2026517540216446, -0.30328088998794556, 0.16009989380836487, 0.4553917646408081, 1.1140398979187012, 0.381085067987442, -0.030481567606329918, 0.007651571184396744, 0.11244416236877441, 0.20326176285743713, 0.037293691188097, 0.10637395083904266, -0.0024112812243402004, -0.348976731300354, -0.26439425349235535, 0.041577573865652084, 0.08289435505867004, 0.08310185372829437, 0.10475242882966995, 0.3296658992767334, 0.08852025866508484, -0.1582261025905609, 0.008269432932138443, -0.293082594871521, -0.4229874908924103, 0.05379730090498924, -0.06185898184776306, -0.33047810196876526, 0.32990074157714844, -0.11879191547632217, 0.22633221745491028, 0.20672591030597687, 0.9445341229438782, 0.2737390100955963, 0.08264525979757309, -0.08124129474163055, 0.423349529504776, -0.007256610319018364, -0.10315490514039993, 0.14820308983325958, -0.10744043439626694, -0.15261399745941162, -0.1857404112815857, -0.07548031210899353, 0.14432211220264435, 0.33940041065216064, 0.07930455356836319, -0.02987700141966343, 0.12147843837738037, 0.1767684370279312, 0.13892732560634613, -0.27601730823516846, -0.41330668330192566, 0.05531507357954979, -0.14815276861190796, -0.019536562263965607, -0.0561387874186039, -0.1565627008676529, -0.01811905950307846, 0.013806886970996857, 1.015588402748108, 0.12292224168777466, -0.024160487577319145, 0.15047337114810944, 0.21040096879005432, 0.3076336681842804, 0.10015839338302612, 0.12235695123672485, -0.13558022677898407, -0.16728921234607697, -0.06372606009244919, 0.17574840784072876, 0.005682728718966246, 0.004002506844699383, -0.14106601476669312, -0.32498863339424133, 0.14886900782585144, 0.08561784029006958, 0.3697229325771332, 0.048377543687820435, -0.2197003960609436, 0.09673168510198593, -0.16943486034870148, -0.15659652650356293, 0.23989614844322205, 0.008242174983024597, -0.043197132647037506, -0.01700402796268463, 0.042963504791259766, 0.21294647455215454, -0.20857736468315125, -0.22765442728996277, 0.11850272119045258, 0.36604633927345276, 0.34203627705574036, -0.14034046232700348, 0.014751214534044266, -0.2445959597826004, -0.27959224581718445, 0.10207533091306686, -0.19005973637104034, -0.48953643441200256, -0.3367668092250824, 0.09640420973300934, -0.0601637102663517, -0.3527924716472626, 0.3089793622493744, -0.11710262298583984, -0.24150270223617554, -0.026309853419661522, 0.04137734696269035, 0.5663105845451355, 0.40631601214408875, 0.03568001836538315, -0.0011018440127372742, 0.051351286470890045, 0.4210595488548279, 0.253307580947876, 0.7607073783874512, 0.03870023414492607, 0.055930133908987045, 0.20357480645179749, -0.13116002082824707, 0.23090098798274994, -0.04484615474939346, -0.46402427554130554, -0.03746582195162773, 0.03293880075216293, -0.5305455327033997, -0.8621295094490051, -0.8613483309745789, -0.5447396636009216, -0.27204352617263794, -0.3340270519256592, -0.062085364013910294, -0.27984073758125305, -0.24277997016906738, -0.6792351007461548, -0.44964301586151123, 0.07196901738643646, 0.02047058194875717, -0.07723749428987503, -0.04487049952149391, -0.04590735211968422, -0.021232396364212036, 0.18118980526924133, -0.6592493653297424, -0.22982202470302582, -0.3770012855529785, -0.49845629930496216, 0.03621244058012962, -0.35358431935310364, -0.05177053436636925, -0.2708868682384491, -0.0832400918006897, 0.33748915791511536, 0.3642656207084656, -0.10700175911188126, -0.20357391238212585, -0.4801108241081238, -0.11310377717018127, -0.3881606161594391, 0.14585095643997192, 0.07732284814119339, -0.10414104908704758, 0.21466583013534546, -8.676216384628788e-05, 0.05158507451415062, 0.06458006054162979, -0.00752769410610199, -0.00440698117017746, 0.04710157960653305, -0.04009862616658211, 0.023794814944267273, -0.009128631092607975, 0.08195596933364868, -0.20887157320976257, -0.19359536468982697, -0.4190402925014496, -0.44097086787223816, 0.4477577805519104, 0.43875476717948914, -0.1438373178243637, 0.053235359489917755, 0.24764378368854523, 0.3678891062736511, 0.5726410746574402, 0.24803538620471954, -0.33808812499046326, -0.2883675694465637, -0.08476300537586212, 0.051232434809207916, 0.0857461616396904, 0.0735863670706749, -0.02394292876124382, 0.004761494696140289, 0.07866739481687546, 0.038123175501823425], [-0.016937896609306335, -0.01599474996328354, -0.03462165221571922, -0.056504443287849426, 0.023105427622795105, -0.06208978593349457, -0.02315690368413925, 0.04070871323347092, -0.003653101623058319, 0.0739750936627388, -0.017377838492393494, 0.0850181058049202, 0.13651752471923828, -0.14601121842861176, -0.13528917729854584, 0.02245379611849785, -0.06414861232042313, 0.04237452894449234, 0.005439989268779755, -0.06638973206281662, 0.019468538463115692, -0.03503328934311867, -0.03243931382894516, -0.0245450921356678, 0.06196027249097824, -0.06768937408924103, 0.02035152167081833, 0.05553325265645981, -0.024117980152368546, -0.03227736055850983, -0.08574104309082031, 0.056808166205883026, 0.12477688491344452, 0.031544990837574005, -0.2274443507194519, 0.10411065071821213, 0.19769680500030518, 0.7795366048812866, 0.762783408164978, 0.7495285272598267, 0.9502126574516296, 1.028045415878296, 0.15864145755767822, -0.40128397941589355, -0.5018211603164673, 0.19867616891860962, 0.3223413825035095, 0.3045407831668854, 0.023908868432044983, 0.44268375635147095, -0.28044185042381287, -0.2552414834499359, 0.0004597008228302002, 0.018460892140865326, 0.04809451848268509, -0.011665016412734985, 0.07990709692239761, 0.0525948628783226, -0.021337997168302536, -0.3375855088233948, -0.16389742493629456, 0.5479403734207153, 0.32777777314186096, 0.9006252288818359, -0.1497192680835724, -0.5688116550445557, -0.27927255630493164, 0.09786967188119888, -0.29705074429512024, -0.368398517370224, -0.26969099044799805, -0.36095890402793884, -0.21415531635284424, 0.26240450143814087, 0.17159682512283325, 0.010900336317718029, 0.010904503054916859, 0.2286427915096283, 0.8356966972351074, 0.1420685350894928, -0.5320934653282166, -0.5955766439437866, 0.06924154609441757, -0.04306068271398544, -0.052064381539821625, 0.03164663910865784, -0.2997497022151947, -0.3472605049610138, 0.6621959209442139, 0.6240853667259216, -0.1212739422917366, 0.28621917963027954, -0.4884919226169586, -0.9113754630088806, -0.6937305927276611, -0.6685484647750854, -0.45920413732528687, -0.7741498947143555, -0.31927821040153503, -0.1602720320224762, -0.16127799451351166, -0.26418164372444153, 0.10813918709754944, 0.33183008432388306, 0.23479129374027252, 0.0007309948559850454, -0.06573090702295303, -0.180606871843338, -0.5004692673683167, -0.8809753060340881, -0.49330389499664307, -0.07836932688951492, 0.06736987084150314, 0.19921958446502686, -0.2708417773246765, 0.2013043612241745, 0.19514039158821106, 0.05912519618868828, 0.008559206500649452, -0.1273697167634964, -0.5785644054412842, -0.7933694124221802, -1.0908054113388062, -0.6008647084236145, -0.4496850371360779, -0.30996328592300415, -0.22450882196426392, -0.2854711413383484, -0.5499550104141235, -0.15081548690795898, 0.05232497304677963, -0.0785432755947113, -0.18152856826782227, 0.15170326828956604, -0.4378158450126648, 0.06822694838047028, 0.4275134801864624, -0.00897244643419981, 0.1083419993519783, 0.31545940041542053, -0.04819111526012421, 0.005683474242687225, -0.025837091729044914, -0.3213716149330139, 0.0978815108537674, 0.0696466937661171, 0.0947466790676117, -0.21821627020835876, 0.025984665378928185, 0.020151104778051376, -0.01143020112067461, -0.24351170659065247, -0.2644345164299011, -0.319880872964859, -0.22163818776607513, -0.26449906826019287, -0.27263644337654114, 0.04928907752037048, 0.2297355830669403, 0.20910155773162842, -0.31524595618247986, -0.46811649203300476, 0.06246824190020561, -0.30728504061698914, -0.3375019431114197, -0.03627072274684906, 0.18403708934783936, 0.39038655161857605, 0.06695350259542465, -0.28805527091026306, 0.297985315322876, 0.2485789805650711, 0.2239917665719986, 0.4600970447063446, 0.027821142226457596, 0.4535594880580902, 0.29364213347435, 0.34298762679100037, 0.09284751862287521, -0.06169375032186508, -0.13800127804279327, -0.22232447564601898, 0.10826408863067627, 0.38122060894966125, 0.32766276597976685, 0.155037522315979, -0.19077984988689423, -0.0024023314472287893, 0.000710885738953948, 0.47774091362953186, 0.16487713158130646, -0.5351437926292419, -0.3052240312099457, -0.02380337007343769, -0.2687000632286072, -0.45566606521606445, 0.04731716215610504, -0.49538055062294006, 0.3721559941768646, 0.6960650086402893, 0.575731098651886, 0.24767832458019257, 0.18218082189559937, 0.27563080191612244, 0.13514648377895355, 0.11964478343725204, 0.06844156235456467, -0.13353660702705383, 0.17833082377910614, 0.25189924240112305, 0.2069641649723053, 0.4479852020740509, 0.5666566491127014, 0.2790254056453705, -0.08399558067321777, -0.16036640107631683, 0.19208718836307526, 0.13258545100688934, -0.07776734977960587, -0.3287549912929535, 0.21234248578548431, 0.076253741979599, -0.3598833978176117, -0.46126869320869446, -0.1936085969209671, -0.3905352056026459, 0.7468011379241943, 0.5751343965530396, 0.3380718231201172, 0.19806373119354248, -0.11886334419250488, -0.07216282933950424, -0.08681502193212509, -0.3654960095882416, -0.6356678009033203, -0.44301116466522217, -0.4518565535545349, -0.07889600098133087, 0.25823384523391724, 0.1444345861673355, 0.26101672649383545, -0.10648825019598007, -0.3406238555908203, -0.17236824333667755, 0.31231293082237244, 0.16224899888038635, -0.30636849999427795, 0.38665449619293213, 0.5573526620864868, 0.3754793107509613, -0.31065842509269714, -0.024974530562758446, 0.03359666094183922, -0.44032570719718933, 0.3635583519935608, 0.990865170955658, 0.15588831901550293, -0.244315966963768, -0.14221608638763428, -0.42324480414390564, -0.43160852789878845, -0.42429736256599426, -0.08133397251367569, -0.20971420407295227, 0.14670713245868683, 0.9347103834152222, 0.7863465547561646, 0.06061101704835892, -0.08573469519615173, 0.07735982537269592, -0.29562196135520935, 0.0008449703454971313, 0.22497323155403137, 0.1560986489057541, 0.0027989824302494526, 0.14841173589229584, 0.9517832398414612, 0.000161730291438289, -0.2766728401184082, 0.356607049703598, -0.02573045901954174, -0.39390701055526733, 0.40074583888053894, 1.2713682651519775, 0.10426946729421616, 0.5666206479072571, 0.8499425649642944, 0.4669327437877655, 0.24106921255588531, 1.2612954378128052, 1.290850043296814, 1.1110429763793945, 1.6777628660202026, 2.3682498931884766, 1.5045216083526611, 0.7060933113098145, 0.06953684985637665, -0.057816389948129654, 0.05087818577885628, 0.28494423627853394, 0.08962598443031311, 0.1244063675403595, 0.09886375814676285, 0.5537987351417542, 1.281906247138977, 0.1721019297838211, -0.4402000606060028, -0.5782414674758911, -0.060587842017412186, -0.4961875081062317, 0.6576722860336304, 1.262028694152832, 0.8781008124351501, 1.5582083463668823, 2.3098056316375732, 2.542330265045166, 3.290501356124878, 3.513275146484375, 3.7777116298675537, 2.8524413108825684, 2.192375421524048, 1.6461178064346313, 1.179905652999878, 0.1942310333251953, 0.13596123456954956, 0.21455630660057068, 0.3148496150970459, 0.13959556818008423, 0.05198640003800392, 0.09336604923009872, 0.1043446734547615, -0.0648893490433693, 0.3157559335231781, -0.4801892936229706, 0.4779090881347656, 0.3202359080314636, 0.0803554505109787, 0.5648311376571655, 0.49029067158699036, 1.354506254196167, 1.746686339378357, 2.7243285179138184, 3.2367336750030518, 3.061640739440918, 2.489339828491211, 2.0939712524414062, 1.6309101581573486, 0.7391846776008606, 0.17594721913337708, 0.5731372833251953, 0.30371469259262085, 0.10886965692043304, 0.1835670918226242, 0.6374040246009827, 0.5420516133308411, 0.08337579667568207, 0.0868975967168808, 0.16366279125213623, 0.029184792190790176, 0.5381634831428528, -0.16915924847126007, -0.985203206539154, -0.4045141339302063, 0.6637006998062134, 0.00124989147298038, 0.47299617528915405, 0.09929736703634262, 0.33471909165382385, 0.40181466937065125, 0.9280911684036255, 1.0164124965667725, 0.35704731941223145, 0.1448121964931488, -0.10500452667474747, -0.35722753405570984, -0.6018449068069458, -0.6453883051872253, -0.361136257648468, -0.09150553494691849, 0.31573286652565, 0.2499939650297165, 0.26086676120758057, 0.340425044298172, 0.2549922466278076, -0.1314578503370285, -0.2711380124092102, -0.017664605751633644, -0.019095351919531822, -0.06821329891681671, -0.6881642937660217, -0.3077383041381836, 0.23724308609962463, 0.10121297091245651, 0.45974376797676086, 0.27384018898010254, -0.5296100378036499, -0.7203923463821411, 0.019502483308315277, -0.21596357226371765, -0.7675852179527283, -0.7726934552192688, -1.226523518562317, -0.7511866688728333, -0.5757290720939636, -0.5120739340782166, -0.5753524899482727, -0.4734952747821808, -0.09882423281669617, -0.13242179155349731, 0.3613452613353729, 0.23107559978961945, 0.14467403292655945, -0.11531323939561844, -0.4965350329875946, -0.15470479428768158, 0.6173313856124878, 0.04207884520292282, -0.23290635645389557, 0.04462779685854912, -0.6867284178733826, 0.053475119173526764, -0.27538031339645386, -0.25040900707244873, -0.6552447080612183, -0.49331873655319214, -0.4391025900840759, -0.37171560525894165, -0.3137364685535431, -0.634008526802063, -0.6900750994682312, -0.2784034013748169, -0.16679340600967407, 0.021833734586834908, -0.6397464275360107, -0.24833980202674866, 0.026561612263321877, 0.1842915117740631, 0.4542286992073059, 0.5091414451599121, 0.133455291390419, -0.014472155831754208, -0.2085416316986084, 0.08367116749286652, -0.06942091137170792, -0.3933280110359192, -0.490356981754303, -0.33913716673851013, -0.7540940046310425, 0.03179129958152771, -0.5052275061607361, -0.5942004919052124, -0.6480354070663452, -0.08643613755702972, 0.030716855078935623, -0.19743159413337708, -0.21669429540634155, -0.23610642552375793, -0.2754574120044708, -0.22806189954280853, -0.07539278268814087, 0.05366293713450432, -0.4852939546108246, -0.4066421687602997, -0.1499696522951126, 0.06332186609506607, -0.0013253549113869667, 0.06473720818758011, -0.1625537872314453, -0.10751187056303024, -0.09398851543664932, -0.40929579734802246, -0.4972337782382965, -0.4555302858352661, -0.3988942503929138, -0.1708688884973526, -0.9101585149765015, 0.02328270673751831, -0.1259344220161438, -0.716382622718811, 0.03154062107205391, 0.08883897960186005, -0.274935245513916, -0.3081316649913788, 0.05626601353287697, -0.038247112184762955, 0.21713820099830627, 0.03353387862443924, 0.04907071962952614, -0.10614556819200516, -0.20986679196357727, -0.12083926796913147, -0.005878562107682228, 0.05237901583313942, 0.04798567295074463, -0.017714083194732666, -0.1708327978849411, -0.2573198080062866, -0.3001523017883301, -0.40298977494239807, -0.39453309774398804, -0.49421608448028564, 0.300831139087677, 0.18340447545051575, -1.0595375299453735, -0.1850346326828003, 0.04963706433773041, -0.21076065301895142, 0.006050405092537403, 0.21192824840545654, -0.008620736189186573, -0.14169275760650635, 0.18734684586524963, -0.21111851930618286, -0.0484379306435585, 0.03675718605518341, 0.15896184742450714, -0.032349709421396255, 0.19701720774173737, -0.1450476348400116, 0.20063765347003937, 0.11199994385242462, 0.5040687918663025, 0.30122309923171997, 0.04279881715774536, -0.2970006763935089, -0.28414660692214966, -0.40228766202926636, -0.01848440431058407, -0.32019972801208496, -0.31368255615234375, 0.29675009846687317, -0.8490585684776306, -0.004188207909464836, 0.1455306112766266, 0.4824526607990265, 0.2669820189476013, 0.1965603530406952, 0.569793164730072, 0.11516537517309189, 0.08342766761779785, 0.01590067520737648, 0.026586532592773438, 0.24915465712547302, 0.35322484374046326, 0.2774488925933838, -0.04296436905860901, 0.0834798514842987, -0.0879744291305542, -0.05118626356124878, 0.05781497806310654, 0.04250122234225273, 0.07710450142621994, -0.35791826248168945, -0.32301536202430725, -0.28259363770484924, -0.4948677718639374, 0.03359786421060562, -0.2621628940105438, -1.125084400177002, 0.2879997789859772, -0.06979325413703918, 0.12259722501039505, 0.47119298577308655, -0.21377307176589966, -0.13498209416866302, 0.26509222388267517, -0.3631919324398041, 0.007938994094729424, -0.4479033946990967, -0.15961651504039764, -0.1312226951122284, -0.148010715842247, 0.1712244302034378, 0.21757489442825317, -0.2533777952194214, -0.10790780186653137, 0.0815056711435318, 0.41465434432029724, -0.28995364904403687, -0.1752043068408966, 0.004631503950804472, 0.020014632493257523, -0.3739291727542877, -0.25950998067855835, -0.19453135132789612, -0.21883371472358704, -0.6037710905075073, 0.4648841619491577, -0.18886511027812958, 0.2586217224597931, 0.046992234885692596, -0.08984673768281937, 0.18058368563652039, 0.07115228474140167, 0.04312194138765335, -0.23316703736782074, -0.33028462529182434, -0.31049272418022156, -0.23021158576011658, 0.19000555574893951, 0.31915223598480225, 0.026801949366927147, 0.11210742592811584, 0.22367487847805023, 0.3275042176246643, 0.2080765664577484, -0.3514818251132965, -0.4135056436061859, -0.05555256828665733, 0.11731353402137756, -0.4786946475505829, -0.6552209854125977, -0.11051955819129944, -0.02489175833761692, -0.14509183168411255, 0.11101019382476807, -0.1519538015127182, 0.027390772476792336, -0.18762771785259247, 0.09742587059736252, 0.6153279542922974, -0.08737699687480927, -0.004298496060073376, -0.135573148727417, -0.48655420541763306, -0.23670922219753265, 0.04147840663790703, 0.44100844860076904, 0.4281560778617859, 0.20247285068035126, 0.06665946543216705, 0.1696769893169403, -0.06609790027141571, -0.3237284719944, -0.2319522351026535, -0.22291406989097595, -0.2727474868297577, -0.09393714368343353, -0.45751169323921204, 0.03240055963397026, -0.2506682574748993, -0.1611706018447876, 0.22329241037368774, 0.1692669540643692, -0.0020119324326515198, 0.012820899486541748, 0.39059191942214966, 0.14737142622470856, 0.30728504061698914, -0.6734999418258667, 0.013852064497768879, -0.3864518702030182, -0.44048744440078735, -0.1976151168346405, 0.16230328381061554, 0.6190858483314514, 0.4301305115222931, 0.5223721861839294, 0.5527138113975525, 0.3605780601501465, -0.23013605177402496, -0.2885366678237915, -0.17398285865783691, -0.0368257500231266, 0.06747213006019592, 0.052722226828336716, -0.49787840247154236, 0.018759749829769135, -0.16614633798599243, -0.016597803682088852, 0.0661325454711914, 0.04849236458539963, 0.02795027196407318, 0.03707923740148544, 0.3509005904197693, 0.6245197653770447, 0.4343529939651489, 0.12129935622215271, 0.17513225972652435, -0.2910144031047821, -0.6309891939163208, -0.4770844876766205, -0.38158923387527466, -0.02206537500023842, -0.06202299892902374, 0.514443039894104, 0.5588799118995667, 0.4179442822933197, 0.25524184107780457, -0.37229809165000916, -0.21022246778011322, -0.23390477895736694, -0.38419854640960693, 0.13221247494220734, -0.22769129276275635, 0.20000508427619934, 0.07584870606660843, -0.3646128475666046, -0.3264012634754181, -0.03773001953959465, -0.06108269467949867, -0.029436834156513214, 0.2374124377965927, 0.6796795129776001, -0.07676827907562256, -0.13837669789791107, -0.004666074179112911, 0.3515072166919708, 0.5762336254119873, -0.15794552862644196, -0.5783349275588989, -0.6640703082084656, 0.05861273407936096, 0.5899383425712585, 0.7663622498512268, 0.5929393768310547, 0.8931229114532471, 0.33558470010757446, 0.09621672332286835, 0.3623935878276825, -0.1109638586640358, -0.5752525329589844, -0.4554124176502228, 0.8214612007141113, 0.6246886849403381, -0.20281583070755005, -0.18065454065799713, 0.032105952501297, 0.06329024583101273, -0.04374716058373451, 0.06863337010145187, -0.06710536777973175, 0.5889347195625305, 0.3934982717037201, 0.36822575330734253, -0.12346011400222778, -0.16997751593589783, -0.12936928868293762, -0.3932238817214966, -0.15182384848594666, 0.3946087658405304, 0.37915974855422974, 0.6831310987472534, 0.19963757693767548, -0.10101639479398727, -0.1892729550600052, -0.3926233947277069, 0.11470908671617508, 0.26721900701522827, 0.28953686356544495, 0.5503475666046143, 0.24041813611984253, 0.09830191731452942, 0.04790124669671059, -0.007425859570503235, 0.06752044707536697, 0.0712115541100502, 0.06467727571725845, 0.05240412801504135, 0.010105647146701813, -0.06304056942462921, -0.023849835619330406, 0.08732733875513077, 0.018362080678343773, 0.11095527559518814, 0.03898611292243004, -0.43260490894317627, -0.27908098697662354, 0.14138838648796082, 0.2786976397037506, 0.21162725985050201, 0.28365468978881836, 0.16600680351257324, 0.08446349948644638, -0.07890795171260834, 0.2550775408744812, 0.22310230135917664, 0.3138836622238159, 0.5239535570144653, 0.025434251874685287, 0.06460245698690414, 0.05041656643152237, -0.05571316182613373, -0.04308559373021126], [0.054620034992694855, -0.007982626557350159, 0.07577338069677353, 0.04340875893831253, 0.028399795293807983, 0.03416084498167038, 0.04820621758699417, 0.021447554230690002, 0.07434960454702377, -0.034382160753011703, 0.05407630652189255, -0.037691518664360046, -0.055401407182216644, -0.11578083038330078, 0.04451754689216614, 0.04753497987985611, -0.00798632949590683, 0.031619295477867126, 0.023702681064605713, -0.03964410722255707, -0.006375312805175781, -0.0005364194512367249, 0.042726628482341766, 0.03356068581342697, 0.03419879823923111, -0.03380588814616203, -0.06830774992704391, 0.08353876322507858, -0.05925208330154419, 0.04464072734117508, 0.04021746665239334, 0.03339555859565735, 0.01618480682373047, -0.23410621285438538, -0.7549881935119629, -1.0582847595214844, -0.9159592986106873, -1.2682702541351318, -1.7567331790924072, 0.1115914061665535, 0.11989767849445343, 0.17471405863761902, -0.7409920692443848, 0.12522602081298828, 0.19789157807826996, 0.03895632550120354, -1.0993707180023193, -0.854616105556488, -0.7016481161117554, -0.7536231875419617, -0.5687260031700134, -0.1372944712638855, -0.02332843840122223, -0.028199687600135803, -0.008718110620975494, -0.0030101388692855835, -0.013764388859272003, -0.08019676804542542, -0.3024524450302124, 0.4487813711166382, 0.42414548993110657, -1.2183685302734375, -0.915698230266571, -0.280360609292984, -0.9134765863418579, -1.164359450340271, -2.053593873977661, -1.3590552806854248, -1.044527292251587, -1.6076472997665405, -1.906239628791809, -2.033252477645874, -1.101973056793213, -1.3700201511383057, -1.9390169382095337, -2.1878979206085205, -1.618727684020996, -2.063941478729248, -1.6886216402053833, -0.729165256023407, 0.09245945513248444, 0.4079115390777588, -0.02852480113506317, 0.005322761833667755, 0.03025370091199875, -0.02112170308828354, 0.022107413038611412, 0.4304376542568207, 0.4603762626647949, -0.6165196299552917, -1.0119500160217285, -1.011072039604187, -0.25274497270584106, -0.6061446070671082, -0.7602388858795166, -0.726948082447052, -0.6645393371582031, -0.5990259647369385, -0.5198849439620972, -0.6734672784805298, -0.21798108518123627, -0.1757756471633911, -0.31283900141716003, -0.6187964677810669, -0.581964373588562, -0.09080769121646881, -1.1228989362716675, -0.797457754611969, 0.23042739927768707, 0.4757283926010132, 0.43034228682518005, 0.016988925635814667, -0.08295959234237671, 0.042204391211271286, -0.007109542842954397, -0.020705606788396835, -0.8125959634780884, -0.4717424213886261, -0.351626992225647, -0.3140398859977722, -1.0814281702041626, -0.35310110449790955, -0.059656158089637756, 0.5487087368965149, 0.08074301481246948, -0.07958092540502548, -0.18337097764015198, 0.1796925812959671, -0.053622711449861526, 0.1225624606013298, -0.16261744499206543, -0.04096398875117302, -0.5906434059143066, -0.5815447568893433, -0.5373902320861816, -0.4459734559059143, 0.05510564520955086, 0.2363261580467224, 0.17108164727687836, -0.5266256928443909, 0.02747718244791031, -0.042625196278095245, -0.7052057981491089, 0.1763366311788559, -0.37403666973114014, 0.7360190749168396, -0.17328321933746338, -0.24882756173610687, -0.060300055891275406, -0.09435621649026871, 0.25366637110710144, 0.18601319193840027, -0.11084482073783875, 0.26743045449256897, -0.1158130019903183, 0.06893221288919449, -0.007343946490436792, 0.4266780614852905, 0.44467878341674805, 0.23464074730873108, 0.035377003252506256, -0.387392520904541, -0.18068556487560272, -0.2404005080461502, -0.28833016753196716, -0.564568817615509, 0.19545838236808777, -0.2987666726112366, -0.015601880848407745, -0.45995500683784485, -0.14359191060066223, 0.6854439377784729, -0.11118412017822266, 0.7069914937019348, 0.05387750267982483, -0.14370372891426086, 0.22100770473480225, 0.14543560147285461, 0.30644896626472473, -0.19186313450336456, -0.15021276473999023, -0.13216690719127655, -0.09363842755556107, -0.049178596585989, 0.16272717714309692, 0.2220226228237152, 0.26555588841438293, -0.08736275136470795, -0.26387935876846313, -0.08125214278697968, 0.10571712255477905, -0.20452453196048737, -0.5712501406669617, -0.40520229935646057, -0.22241321206092834, -0.4283329248428345, 0.15427322685718536, -0.5048462152481079, 0.15222753584384918, 0.44815465807914734, 0.00479779252782464, 0.1270424723625183, 0.38573911786079407, -0.07013872265815735, 0.283124715089798, 0.16733036935329437, -0.030231120064854622, 0.12377635389566422, 0.08803807199001312, 0.031699590384960175, 0.0037127661053091288, 0.05132529139518738, 0.1492903083562851, 0.1428736299276352, -0.04809620603919029, -0.015674402937293053, -0.05728018283843994, -0.259758859872818, -0.3284544050693512, -0.4397869110107422, 0.14445267617702484, -0.07286369055509567, -0.2785819172859192, 0.052821069955825806, 0.5106881260871887, 0.3828936219215393, 0.2922409772872925, -0.2069045901298523, -0.14857156574726105, -0.11685746163129807, -0.02235710248351097, 0.12405998259782791, 0.31798237562179565, 0.25762805342674255, 0.011111916974186897, 0.041815001517534256, -0.15968330204486847, -0.33369165658950806, 0.08426663279533386, 0.18294015526771545, 0.13005708158016205, -0.045978643000125885, -0.3170150816440582, -0.396635502576828, -0.29558637738227844, -0.3068807125091553, -0.3652130365371704, -0.013639462180435658, -0.14130455255508423, -0.17242717742919922, -0.5481492877006531, -0.06710658967494965, 0.2600148022174835, 0.974287748336792, -0.08819379657506943, -0.6930650472640991, -0.15124472975730896, -0.11277318745851517, 0.029125969856977463, 0.16455639898777008, 0.20146657526493073, 0.04122939705848694, 0.10449059307575226, 0.0598820298910141, -0.09381644427776337, 0.08163739740848541, 0.2158302217721939, 0.015904368832707405, -0.3412894606590271, -0.00472919549793005, 0.07425343245267868, -0.08939234912395477, -0.3850386440753937, -0.2071302831172943, 0.094014011323452, -0.20609338581562042, 0.26832315325737, -0.40187716484069824, -0.0991254672408104, 0.21454352140426636, 0.27120429277420044, 0.9295714497566223, 0.4446769654750824, -0.40082821249961853, -0.24940936267375946, 0.12311795353889465, 0.1415315568447113, 0.1496695727109909, -0.18536041676998138, -0.03002413921058178, -0.24866345524787903, 0.21034939587116241, 0.19055140018463135, 0.32470011711120605, 0.32593008875846863, 0.18323402106761932, 0.35207638144493103, 0.21432198584079742, 0.154547780752182, 0.0697820782661438, -0.37228646874427795, 0.33206817507743835, 0.27541595697402954, -0.035506296902894974, 0.07435721158981323, 0.19579482078552246, 0.11622874438762665, 0.02826070412993431, 0.33844301104545593, 0.6329283714294434, 0.019273607060313225, -0.4312087297439575, 0.14128021895885468, -0.0639328882098198, 0.05024300515651703, 0.24558734893798828, 0.11792890727519989, -0.0415324829518795, 0.30994510650634766, 0.5371086001396179, 0.3909839689731598, 0.4865926504135132, 0.2837529480457306, 0.3068098723888397, 0.2646629810333252, 0.38570767641067505, 0.31404241919517517, -0.052851565182209015, -0.03505215421319008, 0.11599564552307129, 0.11633004248142242, 0.1989041566848755, -0.2597263753414154, -0.6870587468147278, -0.371444433927536, -0.06423910707235336, 0.4056262969970703, 0.42086082696914673, 0.005291510373353958, 0.06137700378894806, -0.38769230246543884, -0.3666342496871948, 0.07009382545948029, 0.17226484417915344, 0.644993782043457, 0.4103742241859436, 0.31679585576057434, 0.5569146871566772, 0.5824681520462036, 0.48477408289909363, -0.020231598988175392, -0.029849523678421974, 0.11545457690954208, 0.23296797275543213, 0.3562880754470825, 0.1806682050228119, 0.11632512509822845, 0.30493858456611633, 0.5584286451339722, 0.020893774926662445, 0.2944330871105194, -0.009663118980824947, 0.41618233919143677, 0.08330532163381577, -0.4005034267902374, 0.27971118688583374, 0.0710664838552475, -0.0198736060410738, 0.24017994105815887, 0.5515969395637512, 0.3173946440219879, 0.16138415038585663, 0.13348357379436493, 0.26363325119018555, 0.24901676177978516, 0.22782160341739655, -0.12393079698085785, -0.3975549340248108, -0.37152260541915894, -0.6516247391700745, -0.4209613800048828, 0.22144125401973724, -0.13494433462619781, -0.25103244185447693, 0.09655675292015076, 0.48955491185188293, 0.6507563591003418, 0.8177502155303955, 0.4655624330043793, 0.33976027369499207, 0.04483650252223015, -0.43919071555137634, -0.2974424362182617, -0.29340487718582153, 0.7422206997871399, 0.007299379911273718, 0.5465376973152161, 0.3813837170600891, -0.05778365582227707, 0.29007384181022644, -0.06578651070594788, -0.060626719146966934, 0.16151845455169678, -0.2562757134437561, -0.22127026319503784, -0.34193795919418335, -0.7367609739303589, -0.4651066064834595, -0.44997304677963257, -0.20277658104896545, -0.16548262536525726, -0.02397608943283558, 0.5241847038269043, 0.6407567858695984, 0.6376622319221497, 0.9087344408035278, 0.7066603899002075, 0.1516811102628708, -0.12682580947875977, 0.38846755027770996, -0.22708840668201447, 0.10428670048713684, 0.08309587091207504, -0.3132106363773346, 0.29844871163368225, 0.08445717394351959, -0.042480286210775375, 0.2297644317150116, -0.29236721992492676, -0.18852877616882324, -0.06958604604005814, -0.20182253420352936, -0.10097819566726685, -0.34261658787727356, -0.8729127049446106, -0.5384015440940857, -0.48267266154289246, -0.383700430393219, -0.21666118502616882, -0.038606978952884674, 0.8163885474205017, 0.6630167365074158, 0.5425305962562561, 0.675017774105072, 0.45920467376708984, -0.10964139550924301, -0.08058386296033859, -0.31429409980773926, 0.2920967936515808, -0.23221908509731293, 0.19715917110443115, -0.2649886906147003, -0.06630060076713562, -0.256095826625824, 0.17211921513080597, -0.04362967982888222, -0.40261539816856384, -0.15063969790935516, -0.31750184297561646, -0.10106310993432999, -0.10697907954454422, -0.5638390183448792, -1.1051323413848877, -0.7353156208992004, -0.3482353985309601, 0.1277165561914444, 0.1776544153690338, 0.3905637264251709, 0.5625650882720947, 0.35227447748184204, 0.337665319442749, 0.16782909631729126, 0.24272489547729492, -0.23030860722064972, -0.37883150577545166, 0.6011622548103333, 0.01599227637052536, 0.015756716951727867, 0.29767265915870667, 0.12258237600326538, -0.2297150045633316, 0.08005552738904953, -0.5177033543586731, -0.6334515810012817, -0.37265145778656006, -0.17855902016162872, 0.06016608700156212, -0.041250284761190414, -0.4998132586479187, -0.9863399267196655, -1.0365500450134277, -0.6106768250465393, -0.11333674937486649, 0.14445839822292328, 0.16125819087028503, 0.08919881284236908, 0.10306312888860703, -0.05855604633688927, -0.06935108453035355, -0.13422498106956482, -0.40204960107803345, -0.12921233475208282, 0.14604343473911285, 0.42711228132247925, 0.07642859220504761, 0.053946755826473236, 0.28937655687332153, -0.6005812287330627, -0.20049040019512177, -0.27735355496406555, -0.4134858250617981, -0.07670903205871582, 0.08044417947530746, -0.09768717736005783, 0.1290719360113144, -0.2996452748775482, -1.013007402420044, -1.1142237186431885, -0.5272821187973022, -0.4860871136188507, 0.0655772015452385, 0.11790531873703003, 0.22298629581928253, -0.04947658255696297, -0.4661567807197571, -0.17534451186656952, -0.09247056394815445, 0.010176079347729683, -0.921454668045044, -0.4405740797519684, 0.48887109756469727, 0.20008838176727295, -0.13669970631599426, 0.6112781167030334, 0.6717196702957153, -0.4253075420856476, -0.5865841507911682, -0.4883256256580353, -0.09061122685670853, -0.15014155209064484, -0.06149333342909813, -0.22674766182899475, -0.3210790753364563, -0.38326296210289, -0.5107616782188416, -0.27311423420906067, 0.009875108487904072, 0.1215188056230545, 0.16945305466651917, -0.11367183923721313, -0.2367796003818512, -0.2619905471801758, -0.5164835453033447, -0.4066274166107178, -0.5319778919219971, -0.6285229325294495, -0.4627833664417267, -0.6191388368606567, -0.5233559012413025, 0.005314503330737352, -0.06766697764396667, 0.44400277733802795, 0.45243263244628906, -0.2515241801738739, -0.1859554499387741, 0.09062611311674118, -0.22159375250339508, -0.060859087854623795, -0.0016766339540481567, -0.025646068155765533, -0.28584933280944824, 0.011635417118668556, 0.29390230774879456, 0.3371620774269104, 0.7586261630058289, 0.6489925384521484, 0.21276192367076874, 0.004472038708627224, -0.24596722424030304, -0.6096228957176208, -0.38533294200897217, -0.4993245303630829, -0.3733392357826233, -0.8006619215011597, -0.07837019860744476, -0.7121356129646301, -0.16009798645973206, -0.18607190251350403, -0.05622987821698189, -0.14773069322109222, -0.10885950177907944, 0.02900419570505619, -0.03971249982714653, 0.28173109889030457, 0.3126956820487976, 0.24818208813667297, -0.13271404802799225, -0.19469426572322845, 0.011915786191821098, 0.21611949801445007, 0.28035303950309753, 0.3022502660751343, 0.5210690498352051, 0.4504006505012512, 0.1470637023448944, -0.25644952058792114, -0.1909116953611374, -0.09559261798858643, 0.06205262988805771, -0.4732632637023926, -0.7127691507339478, -0.6305021047592163, 0.43189188838005066, -0.23868303000926971, 0.40125608444213867, 0.2684469521045685, 0.015039282850921154, 0.025518370792269707, -0.043437857180833817, -0.02064220793545246, -0.7975611686706543, -0.2803485095500946, 0.02358679287135601, -0.10708123445510864, -0.22250480949878693, 0.004267896991223097, 0.041261594742536545, 0.3143182694911957, 0.32347798347473145, 0.456309974193573, 0.5780935883522034, 0.2741242051124573, 0.37686410546302795, -0.06320112943649292, 0.12020979821681976, 0.11248032003641129, 0.04758497700095177, -0.8707115650177002, -0.3930566608905792, -0.38740983605384827, -0.20807521045207977, -0.3910388946533203, 0.18944118916988373, 0.3191892206668854, -0.01803341507911682, -0.02868087962269783, -0.3415640890598297, -0.2933359742164612, -0.7991235256195068, -0.2987039089202881, -0.26298677921295166, -0.26864564418792725, -0.29870569705963135, -0.02140769734978676, 0.28513243794441223, 0.4438721537590027, 0.3610805571079254, 0.2549628019332886, 0.31710150837898254, 0.28180986642837524, 0.14335978031158447, 0.2005307972431183, 0.057638660073280334, -0.3076050579547882, -0.18663844466209412, -0.15640616416931152, -0.03788948059082031, -0.5792124271392822, -0.422471284866333, -0.5653966069221497, 0.182377889752388, -0.07743535190820694, 0.043453000485897064, -0.04344284534454346, 0.35604727268218994, -0.4096861481666565, 0.2099376916885376, -0.3198310434818268, -0.7862746119499207, -0.5653547644615173, -0.36831575632095337, -0.23833900690078735, 0.053621675819158554, -0.11120710521936417, -0.35382962226867676, -0.09224413335323334, 0.025352375581860542, 0.3330744206905365, 0.05786051228642464, 0.48709672689437866, 0.35826537013053894, 0.2039991021156311, 0.34682661294937134, 0.5008410215377808, -0.5769866704940796, -0.7431457042694092, -0.6413609981536865, -0.49441128969192505, 0.39387112855911255, -0.023951135575771332, 0.08497142046689987, -0.0641276091337204, -0.6480915546417236, -0.4741097092628479, -0.3630724549293518, -0.6962640285491943, -1.0305908918380737, -0.37591809034347534, -0.367750346660614, -0.3085135221481323, -0.6342372894287109, 0.03727258741855621, 0.11551867425441742, -0.10399855673313141, -0.17968496680259705, 0.20350322127342224, 0.4119814336299896, -0.04337383806705475, -0.13006533682346344, -0.00781113700941205, 0.3784862458705902, 0.00873049907386303, -0.20181892812252045, -0.2881004214286804, 0.7359029650688171, 0.357536643743515, -0.06962065398693085, -0.03882993757724762, 0.06978442519903183, 0.058140598237514496, 0.04961790889501572, -0.09236475080251694, -0.542097806930542, -0.5642897486686707, -0.41103166341781616, 0.1417863667011261, -0.426624596118927, -0.22731290757656097, 0.03317669779062271, -0.10289981216192245, -0.387783408164978, -0.5867247581481934, -0.4979487359523773, 0.4364233613014221, 0.14523588120937347, -0.3901059627532959, 0.049378201365470886, 0.24801111221313477, 0.16592296957969666, -0.8506929278373718, -0.016841091215610504, 0.44009721279144287, -0.32967445254325867, 0.12874196469783783, 0.011411011219024658, -0.006030775606632233, 0.05789906531572342, 0.08134380728006363, -0.03487352654337883, -0.07337124645709991, 0.44812723994255066, 0.7919401526451111, -0.15033133327960968, 0.15625575184822083, 0.1636347472667694, -0.0037385299801826477, -0.10534170269966125, -0.6756243705749512, -0.5183349847793579, 0.16717593371868134, -0.12305476516485214, -0.366892546415329, 0.32297229766845703, 0.8306217789649963, 0.356987863779068, -0.22148431837558746, -0.1438184529542923, -0.08522743731737137, 0.07248985767364502, 0.15269431471824646, -0.03183196857571602, 0.03548520803451538, -0.010468259453773499, -0.020885363221168518], [0.08412513881921768, 0.05735354870557785, -0.005645953118801117, 0.026877447962760925, -0.07718214392662048, -0.043335605412721634, 0.004209212958812714, 0.04907258599996567, 0.0025705769658088684, 0.06136491149663925, 0.08454512804746628, 0.054661594331264496, 0.07592559605836868, -0.02519996650516987, 0.04160305857658386, 0.019599303603172302, 0.036260321736335754, -0.015746623277664185, -0.03200777992606163, 0.06253253668546677, -0.013884954154491425, 0.05169714242219925, 0.026888281106948853, -0.06926622986793518, -0.05888000875711441, -0.028613023459911346, 0.07170910388231277, 0.04503884166479111, 0.05995943397283554, -0.03757578507065773, -0.006367474794387817, 0.06003653258085251, 0.004516496788710356, -0.24894529581069946, -0.5414522290229797, -0.49730628728866577, -0.4816969037055969, -0.4978214204311371, -0.3620637357234955, -0.47599804401397705, -0.6665278077125549, -0.24956023693084717, 0.04562573507428169, -0.9449604153633118, -1.1344536542892456, -0.7913931012153625, -0.1487218141555786, -0.4731600284576416, -0.7346212267875671, -0.6021758913993835, -0.3252981901168823, -0.28898707032203674, 0.06608019024133682, 0.043155767023563385, 0.007822759449481964, 0.019523821771144867, -0.025426462292671204, 0.04005742818117142, -0.13282257318496704, -0.5620460510253906, -0.42863088846206665, -0.12165530771017075, -0.5265699028968811, -0.798595130443573, -0.8540855646133423, -1.4662437438964844, -0.9119381904602051, -0.5823962688446045, -0.707169771194458, -0.49039125442504883, -0.6638993620872498, -1.5021440982818604, -1.7982174158096313, -0.8790258765220642, -0.41424739360809326, 0.04600688815116882, 0.11686746031045914, -1.1727790832519531, -0.6220178008079529, -0.5151416659355164, -0.5612744688987732, -0.28500497341156006, -0.05666043981909752, -0.059307657182216644, -0.041188884526491165, 0.005485124886035919, -0.1523449718952179, -0.63742995262146, -0.4581667482852936, -0.22709864377975464, -0.8911007046699524, -1.062947392463684, -0.896973192691803, -0.9654828906059265, -0.6127918362617493, -0.09424231201410294, -0.8878007531166077, -1.492075800895691, -0.5527241826057434, -0.6312554478645325, -1.437888503074646, -1.2579432725906372, -0.7500590085983276, 0.006585914175957441, 0.20380207896232605, -0.5614737868309021, -0.6822418570518494, -0.5811382532119751, -0.19790950417518616, -0.7669832110404968, -0.5584510564804077, -0.016610488295555115, -0.02813975140452385, 0.20478485524654388, 0.17463929951190948, 0.2631084620952606, 0.18564677238464355, 0.6424906253814697, 0.2495754212141037, -0.3770650625228882, -0.6599698662757874, -0.7215561866760254, -0.9149990677833557, -0.552162230014801, -0.6841232180595398, -0.5347491502761841, -0.49470317363739014, -0.6224294900894165, -1.2637454271316528, -0.449466735124588, -0.33361107110977173, -0.07573376595973969, -0.2696559727191925, 0.0590362586081028, -0.0006597975734621286, -0.09365822374820709, -0.09888330847024918, -0.16529281437397003, -0.2525484561920166, -0.3785047233104706, 0.0319976881146431, -0.06010565161705017, -0.10080819576978683, -0.6543853282928467, -0.3813949227333069, -0.41961538791656494, -0.534014880657196, -0.24161772429943085, 0.042553916573524475, 0.04800302907824516, 0.3488618731498718, 0.1695375293493271, 0.2670207619667053, -0.36079052090644836, -0.06057792156934738, -0.3533385992050171, 0.03269176185131073, 0.350759893655777, 0.19998130202293396, -0.33390676975250244, -0.2557230591773987, -0.06581748276948929, -0.5411847233772278, -0.2534552812576294, -0.07047590613365173, 0.24077099561691284, -0.7198158502578735, 0.041551340371370316, 0.03989327698945999, -0.3294771611690521, 0.23616670072078705, -0.6214820146560669, -0.22696997225284576, -0.23032189905643463, -0.7370577454566956, -0.10366752743721008, 0.06700629740953445, 0.0069432673044502735, -0.058119840919971466, 0.1757298856973648, 0.21014130115509033, -0.10656816512346268, -0.23024658858776093, -0.6071745753288269, -0.28382399678230286, 0.10886568576097488, -0.305886834859848, -0.3258783221244812, -0.3236514627933502, 0.08113306760787964, -0.2540989816188812, 0.21818995475769043, 0.0966852605342865, -0.23263968527317047, 0.1836869716644287, -0.45154353976249695, -0.036054328083992004, -0.2317032516002655, 0.32532334327697754, -0.5339003801345825, 0.40207639336586, -0.0429496131837368, -0.3619024455547333, -0.06337365508079529, 0.2040165662765503, -0.02303781360387802, -0.08869509398937225, -0.09921130537986755, -0.251725971698761, 0.13834010064601898, -0.4115809202194214, -0.551562488079071, -0.4727955162525177, -0.367850661277771, -0.38751471042633057, -0.16401638090610504, 0.010931355878710747, -0.4582575261592865, -0.1979256123304367, -0.11438122391700745, 0.42312246561050415, -0.058662645518779755, 0.17421594262123108, -0.36691874265670776, -0.3299643099308014, -0.551316499710083, 0.38876187801361084, -0.4546336531639099, 0.42879655957221985, 0.014179420657455921, 0.11016538739204407, -0.10064341872930527, -0.2763541340827942, -0.23494172096252441, -0.45514488220214844, -0.22975575923919678, -0.36042192578315735, -0.2292943298816681, -0.06540107727050781, 0.17138588428497314, -0.329874724149704, -0.3678882420063019, -0.2072422206401825, -0.13841849565505981, -0.46947503089904785, 0.061183881014585495, -0.10764668136835098, -0.32526668906211853, 0.15159505605697632, 0.17761196196079254, 0.08762269467115402, -0.25250211358070374, -0.29859980940818787, -0.4962725043296814, 0.21536964178085327, -0.6339367628097534, -0.20949241518974304, -0.13667082786560059, -0.1363651156425476, -0.3896714448928833, -0.17838095128536224, -0.434976726770401, -0.2494448572397232, -0.09280602633953094, -0.04593852534890175, -0.17404575645923615, -0.10833404213190079, 0.17418935894966125, -0.016349900513887405, -0.2558373510837555, -0.12202722579240799, -0.4979700744152069, -0.22047491371631622, -0.17519935965538025, -0.29530882835388184, -0.24427424371242523, -0.8598997592926025, -0.7723972201347351, -0.1060185357928276, 0.5131616592407227, -0.24010156095027924, -0.6683359742164612, -0.1257876753807068, -0.662660539150238, 0.5785033702850342, 0.17000409960746765, -0.16205735504627228, -0.2826644778251648, 0.014116212725639343, -0.03527555614709854, -0.1993589848279953, -0.09713039547204971, -0.3334290087223053, -1.10053551197052, -0.760235607624054, -0.24164313077926636, -0.0751439779996872, 0.022443320602178574, 0.0049077835865318775, -0.27969807386398315, -0.23508316278457642, -0.29241088032722473, -0.162937194108963, -0.16523002088069916, -0.4249073266983032, -0.08323167264461517, -0.4276027977466583, 0.049893803894519806, 0.1223854273557663, -0.3806461691856384, -0.017515063285827637, -0.8278176784515381, -0.40129777789115906, 0.4411958158016205, -0.042887937277555466, -0.18882614374160767, 0.3175073266029358, 0.15100932121276855, 0.18133269250392914, 0.2153054028749466, -0.3551975190639496, -1.1269657611846924, -1.0965880155563354, -0.2655370831489563, 0.2699073851108551, 0.22728577256202698, 0.13423825800418854, 0.04500499367713928, 0.22175750136375427, 0.0770682841539383, -0.22445377707481384, -0.4100680947303772, -0.4368835389614105, -0.09029113501310349, -0.31122103333473206, -0.4413650631904602, 0.1710043102502823, 0.2684011161327362, -0.20001579821109772, 0.21639803051948547, -0.00692730164155364, 0.06751181185245514, 0.26598089933395386, -0.09659714996814728, 0.33737704157829285, 0.09459946304559708, 0.4653591811656952, 0.5632448196411133, 0.34255608916282654, -0.15385833382606506, -0.46845847368240356, 0.25843188166618347, 0.3744952380657196, 0.020353907719254494, 0.05626196786761284, 0.15774206817150116, 0.20092365145683289, -0.07275320589542389, -0.36732155084609985, -0.06460700184106827, 0.00448678620159626, -0.40400704741477966, -0.25549739599227905, -0.4548181891441345, -0.21774746477603912, 0.28545036911964417, -0.25925061106681824, 0.22781254351139069, 0.6961568593978882, -0.18646776676177979, 0.20368029177188873, 0.2560948431491852, 0.17344996333122253, 0.09454334527254105, 0.4771868586540222, 0.6192956566810608, 0.5764608383178711, 0.40058842301368713, 0.20592142641544342, 0.6273232698440552, 0.2734382748603821, 0.20473282039165497, 0.5663551092147827, 0.05198099836707115, 0.30012813210487366, 0.23526868224143982, 0.11823146790266037, -0.32293006777763367, -0.3322058320045471, 0.24226640164852142, -0.06215648725628853, -0.3487284481525421, 0.13476260006427765, 0.436271607875824, -0.49064844846725464, 0.1761661171913147, 0.6285498142242432, 0.14505620300769806, -0.31551018357276917, 0.10087025910615921, 0.2978857457637787, 0.09717319160699844, 0.13732190430164337, 0.33912989497184753, 0.7844123840332031, 0.23331452906131744, -0.11802753806114197, 0.09941575676202774, 0.3024353086948395, 0.46831148862838745, 0.4063866436481476, 0.828864574432373, 0.4600452482700348, -0.04223278537392616, 0.014849300496280193, -0.0985189899802208, -0.36292487382888794, 0.1697043627500534, -0.2733961343765259, -0.6001074314117432, 0.25807276368141174, 0.1735081523656845, -0.307327538728714, 0.19967015087604523, 0.3222399950027466, -0.4533305764198303, -0.2631393373012543, -0.011320860125124454, -0.13733717799186707, 0.23254655301570892, 0.17278531193733215, 0.4735890030860901, 0.5557920932769775, 0.25571906566619873, 0.18644633889198303, 0.34308359026908875, 0.4838588237762451, 0.5519976019859314, 0.6185064315795898, 0.3872929811477661, -0.15371625125408173, -0.04101835563778877, 0.2635292410850525, -0.05842752754688263, -0.37799662351608276, 0.007502003572881222, -0.18927675485610962, 0.05389053374528885, 0.10274357348680496, -0.525686502456665, -0.2897568941116333, -0.3184671401977539, 0.01894293539226055, 0.15111495554447174, -0.023043714463710785, 0.18006066977977753, 0.038289379328489304, 0.014274866320192814, 0.10930638760328293, 0.3163761496543884, 0.5039828419685364, 0.5607014298439026, 0.6699389219284058, 0.5852538347244263, 0.41469988226890564, 0.25705623626708984, 0.14716027677059174, -0.29221513867378235, -0.003864355618134141, 0.10781412571668625, 0.03014932945370674, -0.07813523709774017, -0.20267778635025024, -0.1931876838207245, -0.15403634309768677, 0.12802991271018982, -0.07967786490917206, -0.36246779561042786, 0.4444001019001007, -0.44014933705329895, -0.14692378044128418, -0.2574057877063751, -0.054538775235414505, 0.03161089867353439, 0.034239254891872406, -0.09922290593385696, 0.23791012167930603, 0.19433927536010742, 0.2589532434940338, 0.5526434779167175, 0.49171245098114014, 0.09795855730772018, 0.07123851031064987, -0.1556253880262375, -0.12499257922172546, -0.5465877652168274, -0.3295429050922394, 0.01308599952608347, -0.0022862243931740522, 0.25293880701065063, -0.3268899619579315, 0.8481554985046387, 0.3673902153968811, -0.23697078227996826, -0.20698484778404236, 0.49798884987831116, 0.19829148054122925, -0.036124829202890396, -0.23297907412052155, -0.46260905265808105, -0.0758732259273529, -0.6155741214752197, -0.7632302641868591, -0.9295439720153809, -0.6573185324668884, -0.43050509691238403, -0.4086260199546814, -0.0025433364789932966, -0.0011322032660245895, -0.09150299429893494, 0.07370741665363312, -0.416810005903244, -0.6345447301864624, -0.7321180105209351, -0.6001400947570801, -0.42660948634147644, -0.4989084303379059, -0.6827106475830078, -0.5588766932487488, 0.10154316574335098, 0.5619612336158752, -0.12216652929782867, -0.2132827341556549, -0.47272273898124695, -0.07118035852909088, 0.6370134949684143, 0.002726842649281025, -0.6453756093978882, -0.34381622076034546, -0.9088684916496277, -1.1137436628341675, -1.5388367176055908, -1.5687700510025024, -1.2112432718276978, -1.1489973068237305, -0.921612560749054, -0.3546714782714844, -0.27509841322898865, -0.10146486759185791, -0.12064125388860703, -0.3585548400878906, -0.37702611088752747, -0.007420696318149567, -0.34369418025016785, -0.8248579502105713, -0.8855270147323608, -0.923382043838501, -0.03631849214434624, 0.04564179480075836, -0.16342921555042267, -0.02528076246380806, 0.22176113724708557, 0.37200728058815, 0.12278841435909271, -0.11847707629203796, -0.04791082814335823, -0.2616780400276184, 0.3024536967277527, -0.31757381558418274, -0.6454179883003235, -0.944543182849884, -0.6419907808303833, -0.734984278678894, -0.8291095495223999, -0.7392639517784119, -0.27742213010787964, 0.39918816089630127, 0.527201771736145, -0.001616084948182106, 0.02038150653243065, 0.08716133236885071, -0.17754137516021729, 0.04624984413385391, 0.011179733090102673, -0.19450756907463074, 0.6047720909118652, -0.08436501771211624, 0.020792506635189056, -0.23912456631660461, 0.6139769554138184, 0.2691958248615265, -0.04209635779261589, 0.29848676919937134, 0.21846075356006622, 0.33022770285606384, 0.24132874608039856, 0.40907660126686096, 0.3304745852947235, 0.17127448320388794, 0.006667220965027809, -0.02755310945212841, -0.5225922465324402, -0.6801344752311707, -0.35113388299942017, -0.11153608560562134, -0.2267797738313675, -0.43262815475463867, -0.12579119205474854, -0.193473219871521, -0.15493720769882202, -0.07392892241477966, 0.25341442227363586, -0.20438136160373688, 0.3715536296367645, -0.4327714145183563, 0.08139939606189728, -0.2775952219963074, -0.040780454874038696, 0.01904679648578167, 0.14741718769073486, 0.5963862538337708, -0.09891948848962784, 0.33516907691955566, 0.2359335571527481, 0.43278172612190247, 0.0927995964884758, 0.39341646432876587, 0.2425926923751831, 0.12296908348798752, -0.2061142474412918, -0.5371567606925964, -0.4421832859516144, -0.27432921528816223, -0.3174748420715332, -0.3398379385471344, 0.08086414635181427, -0.2878003716468811, -0.07318076491355896, 0.4611387550830841, 0.10395786911249161, -0.28894373774528503, -0.03037605807185173, 0.31707748770713806, 0.11718523502349854, -0.022518284618854523, -0.041642528027296066, 0.3572838604450226, -0.05797962844371796, 0.32019275426864624, -0.348534494638443, 0.1403820812702179, 0.1550721973180771, 0.5727829337120056, 0.6750956773757935, 0.31705594062805176, 0.24996443092823029, 0.0852738469839096, -0.47590577602386475, -0.44070133566856384, -0.5066385269165039, -0.2749691605567932, -0.013858664780855179, -0.641455352306366, 0.04455304145812988, -0.3244023621082306, -0.24315442144870758, 0.1858288198709488, -0.19154441356658936, -0.13626796007156372, 0.3353562355041504, 0.3679294288158417, -0.05308635160326958, -0.04872800409793854, -0.030524469912052155, 0.23316814005374908, -0.04150703176856041, 0.06638848036527634, 0.5955994129180908, 0.14885523915290833, 0.5153303146362305, 0.10515441745519638, 0.4119401276111603, -0.04224945604801178, -0.09726854413747787, -0.16905543208122253, -0.3935737907886505, -0.3900107145309448, -0.5049033761024475, -0.33722972869873047, -0.06271377205848694, -0.4231480658054352, -0.03951219469308853, -0.008545263670384884, 0.30803149938583374, 0.35150817036628723, 0.11750350892543793, -0.6967408657073975, 0.19846192002296448, -0.4314962923526764, 0.020272672176361084, -0.039441704750061035, 0.008629269897937775, 0.3343307673931122, 0.19031435251235962, -0.17359980940818787, -0.3208690881729126, 0.08512108772993088, 0.1807725876569748, 0.15690186619758606, -0.03357647731900215, -0.17023314535617828, -0.2314300388097763, -0.4468954801559448, -0.13977095484733582, -0.08072143793106079, -0.17698359489440918, -0.32088392972946167, 0.21028418838977814, -0.23376454412937164, -0.2912665903568268, -0.15714271366596222, 0.4260863661766052, 0.6361509561538696, 0.013349689543247223, -0.46095651388168335, -0.3373417556285858, -0.4061800241470337, 0.08452556282281876, 0.08487089723348618, 0.018674448132514954, 0.011687658727169037, -0.3121437728404999, 0.7100759148597717, 0.3729167878627777, 0.44823259115219116, 0.08391444385051727, -0.015700409188866615, -0.013751291669905186, -0.3422204852104187, 0.025680143386125565, 0.33998292684555054, 0.14677998423576355, -0.09808820486068726, 0.06001277267932892, 0.2771208584308624, 0.4188861846923828, -0.08982867747545242, -0.023516297340393066, -0.40581297874450684, 0.06130135431885719, -0.11860662698745728, -0.5203148722648621, -0.030218658968806267, -0.19216756522655487, -0.07634572684764862, 0.05700799077749252, -0.0060139670968055725, -0.027939748018980026, 0.08393872529268265, -0.044995054602622986, -0.4050726592540741, -0.4422406852245331, -0.053095944225788116, -0.16309894621372223, 0.08556275814771652, 0.054606273770332336, -0.6475151181221008, -0.11367512494325638, 0.20473483204841614, -0.458798348903656, -0.4950156807899475, 0.3008139133453369, -0.15735706686973572, -0.360711932182312, -0.34333980083465576, -0.2805881202220917, 0.6986327767372131, 0.40168946981430054, 0.24160900712013245, -0.07513706386089325, -0.0507810153067112, -0.08019223809242249, -0.08389696478843689, -0.08099690824747086], [-0.010008908808231354, -0.022643983364105225, -0.06968394666910172, -0.04065629467368126, -0.0475865937769413, -0.012323126196861267, 0.0147380530834198, 0.021492935717105865, 0.02900802344083786, 0.011080987751483917, -0.011397890746593475, 0.04638465493917465, -0.02547314390540123, -0.06558060646057129, -0.019868746399879456, 0.07002896070480347, -0.069629967212677, 0.024749070405960083, -0.054688386619091034, -0.019599132239818573, 0.01574549823999405, 0.032603174448013306, -0.0780724361538887, -0.0001035928726196289, -0.016311801970005035, 0.059539832174777985, 0.036081813275814056, -0.07647089660167694, -0.019065923988819122, -0.04003281891345978, -0.001536533236503601, -0.04975380375981331, 0.035559866577386856, -0.012186185456812382, 0.1870092898607254, 0.1875542253255844, 0.305927038192749, 0.43802008032798767, 0.4661243259906769, 0.5419247150421143, 0.6910028457641602, 0.39607304334640503, -0.532949686050415, -0.7217880487442017, -0.6357142925262451, -0.20304280519485474, 0.1989351212978363, 0.22059541940689087, 0.43508583307266235, 0.306404709815979, 0.2177867740392685, 0.1523076295852661, 0.05042984336614609, -0.04538476839661598, -0.007658965885639191, -0.005592077970504761, 0.006963297724723816, 0.0559023842215538, -0.07156718522310257, 0.03387591242790222, 0.19090630114078522, -0.03049652837216854, -0.22267043590545654, -0.09656209498643875, 0.7242603898048401, 0.5315729379653931, 0.21148088574409485, 0.3942624628543854, 0.5843647122383118, -0.4775104522705078, -0.6114695072174072, -0.5868170261383057, -0.5580401420593262, 0.37858259677886963, 0.1826043576002121, 0.42700979113578796, 0.11473553627729416, 0.9659509658813477, 0.31842076778411865, 0.557990550994873, 0.27326449751853943, -0.13686257600784302, 0.023836039006710052, 0.08216945081949234, 0.03881897032260895, -0.0033791586756706238, -0.42365729808807373, -0.2162056565284729, 0.04014863073825836, 0.5880166888237, 0.8623196482658386, -0.11321693658828735, 0.3885365426540375, 0.07952826470136642, 0.48881450295448303, 0.44259965419769287, 0.06648425757884979, 0.05202578753232956, 0.25751370191574097, 0.22021599113941193, 0.10333956032991409, 0.3292887210845947, -0.2805565297603607, 0.24374926090240479, 0.10907531529664993, 0.12298208475112915, 0.15749113261699677, -0.1327764242887497, -0.06798359006643295, -0.153318852186203, 0.26164981722831726, -0.03352854773402214, -0.08480623364448547, 0.03800816088914871, -0.38761040568351746, -0.14529947936534882, 0.2034146636724472, 0.7188206911087036, 0.9002710580825806, 0.30184322595596313, -0.33584412932395935, -0.14932356774806976, -0.05130137875676155, 0.36474254727363586, 0.7344003915786743, 0.36685672402381897, 0.14024963974952698, -0.18531781435012817, -0.20966976881027222, -0.14200463891029358, -0.31248000264167786, -0.3745163381099701, -0.4456779956817627, -0.4527958333492279, -0.2823985517024994, -0.4608556628227234, 0.31094086170196533, 0.8106299042701721, 0.4369290769100189, 0.5232931971549988, -0.004454165697097778, 0.030642248690128326, -0.019428705796599388, 0.07503007352352142, 0.47414693236351013, 0.6921544075012207, 0.6581034064292908, 0.8081451058387756, 0.7149787545204163, 0.9705843329429626, 1.1715387105941772, 1.128880262374878, 1.072705626487732, 0.5345922708511353, 0.4042430520057678, 0.12043794244527817, 0.5206559300422668, 0.00040270353201776743, 0.5023872256278992, 0.18240654468536377, 0.0060944100841879845, 0.09614688903093338, -0.2521127462387085, 0.19259630143642426, 0.5396512746810913, 0.4792396128177643, 0.5079604983329773, 0.5860623121261597, 0.045332618057727814, 0.225321426987648, 0.42683684825897217, 0.5918949842453003, 0.0878114402294159, 0.6772186160087585, 0.6361367106437683, 0.4267288148403168, 0.7841803431510925, 0.6245370507240295, 0.7386645674705505, 0.178593710064888, 0.010020668618381023, -0.12660732865333557, -0.4342229962348938, -0.24632073938846588, -0.1133563220500946, -0.19499506056308746, 0.3640466332435608, 0.19445478916168213, 0.27821052074432373, -0.33089664578437805, 0.2450239360332489, 0.0732940211892128, 0.4307945668697357, 0.1933443546295166, 0.16773560643196106, 0.19224920868873596, -0.10029328614473343, -0.08116142451763153, 0.49065732955932617, 0.1478360891342163, -0.09218829870223999, 0.6088353395462036, 0.69535231590271, 0.5331322550773621, 0.6240316033363342, 0.17420539259910583, -0.0841275304555893, -0.3009326457977295, -0.5197340846061707, -0.5981152653694153, -0.5169149041175842, -0.27921417355537415, -0.33210769295692444, 0.1433582901954651, 0.4919893443584442, -0.1876593828201294, -0.06415651738643646, 0.30964162945747375, 0.47918713092803955, -0.032363537698984146, 0.383396178483963, -0.06334877014160156, 0.3526003062725067, 0.5763328075408936, 0.39828917384147644, -0.25373443961143494, 0.13598661124706268, -0.5966834425926208, -0.3603787422180176, 0.699374794960022, 0.5002672076225281, 0.010992494411766529, 0.27774739265441895, 0.08104480057954788, -0.29980021715164185, -0.5251774787902832, -0.6426321268081665, -0.28952524065971375, -0.2874140739440918, -0.20240002870559692, 0.26670512557029724, 0.09086406230926514, 0.04194866120815277, 0.09182365983724594, 0.03909950703382492, 0.4661654531955719, 0.3906194269657135, 0.21949467062950134, 0.997494637966156, 0.5399268269538879, 0.1439254879951477, 0.33465951681137085, 0.21568375825881958, -0.46964767575263977, 0.2457762509584427, -0.48464030027389526, 0.44351476430892944, 0.42861995100975037, 0.9431223273277283, 0.3440854549407959, 0.5688672065734863, 0.2078544944524765, -0.3096681237220764, -0.1354052573442459, -0.37187862396240234, -0.33989205956459045, -0.7034753561019897, -0.7167112827301025, 0.1470208317041397, 0.3540118932723999, 0.4196677803993225, 0.04400409013032913, 0.08890372514724731, 0.058706291019916534, -0.5245999097824097, -0.1296539157629013, 0.5951487421989441, 0.36225268244743347, -0.04964892938733101, -0.6588829159736633, 0.2583189010620117, -0.09546053409576416, -0.21084646880626678, -0.00014245923375710845, 0.3633316159248352, 0.41526952385902405, 0.9272105097770691, 0.14048488438129425, 0.6083365678787231, 0.15756142139434814, 0.1120709776878357, 0.026990676298737526, -0.15743622183799744, -0.5848201513290405, -1.1955474615097046, -1.0652318000793457, -0.5389836430549622, 0.2660262882709503, 0.271867573261261, 0.3278118669986725, 0.48940572142601013, 0.2130744755268097, -0.3665434718132019, 0.29867684841156006, 0.8003960251808167, 0.0165820624679327, 0.20199456810951233, -0.9174450635910034, -0.32310351729393005, 0.4287272095680237, -0.5246511697769165, -0.4936016798019409, -0.007104129530489445, 0.21207605302333832, 0.6566693782806396, 0.571063220500946, 0.3956962525844574, 0.01584177277982235, -0.14884883165359497, -0.15354253351688385, -0.5452905893325806, -0.8255888223648071, -0.9823657870292664, -1.2583420276641846, -0.6797996759414673, -0.12270894646644592, -0.1748887002468109, 0.26874595880508423, 0.3014298677444458, 0.46251341700553894, -0.4012966454029083, 0.10566320270299911, 0.8405571579933167, 0.7066484689712524, -0.06689433753490448, -0.9354283213615417, -0.14891020953655243, -0.3486632704734802, -0.5561376810073853, 0.07134626060724258, -0.10648815333843231, 0.08984345197677612, 0.37577372789382935, 0.25077685713768005, -0.014172344468533993, 0.13389448821544647, 0.22346873581409454, 0.1563362330198288, -0.08891605585813522, -0.15655019879341125, -0.7014144659042358, -0.9501680135726929, -0.6107882857322693, -0.10551895946264267, -0.17848247289657593, 0.841282844543457, 0.6846811175346375, 0.4573971927165985, -0.009037081152200699, 0.006572485901415348, 0.2510896921157837, 0.433983713388443, 0.23053014278411865, -0.5410647988319397, 0.11338425427675247, 0.2551979422569275, -0.6405977606773376, 0.2823992073535919, 0.48315927386283875, 0.35783150792121887, 0.23696014285087585, -0.22767029702663422, 0.09321393817663193, 0.24015043675899506, 0.3837033212184906, 0.3816221058368683, 0.21561522781848907, -0.42208099365234375, -0.8031295537948608, -0.5564447045326233, -0.27592942118644714, -0.12352636456489563, 0.3890940248966217, 1.3959901332855225, 0.5360993146896362, -0.10003165155649185, -0.31217247247695923, -0.23560954630374908, -0.023436859250068665, -0.06073248013854027, 0.6719815135002136, 0.6439909338951111, 0.09873082488775253, 0.2771575152873993, -0.2488436996936798, -0.011861144565045834, -0.01291283592581749, 0.2951459288597107, 0.16448535025119781, 0.04083612188696861, 0.06112241744995117, -0.027712715789675713, 0.26782533526420593, 0.704095721244812, 0.2555302381515503, -0.37345457077026367, -0.5499190092086792, -0.4257396459579468, -0.1236601248383522, -0.011350738815963268, 0.22398187220096588, 1.1661739349365234, 0.45886844396591187, -0.10070454329252243, -0.0772152990102768, -0.12763674557209015, -0.09402474015951157, 0.003156297607347369, -0.14859598875045776, 0.3401150405406952, -0.1199001744389534, 0.054336026310920715, 0.599264919757843, -0.3815670609474182, 0.43749886751174927, 0.7566200494766235, 0.6514254808425903, 0.6836084723472595, -0.10412773489952087, 0.5781500935554504, 0.24202175438404083, 0.05776701122522354, 0.3806983232498169, -0.17702773213386536, -0.30999991297721863, -0.3727659583091736, -0.19601573050022125, 0.0660918727517128, 0.4271807372570038, 1.659824252128601, 1.4276175498962402, 0.26268959045410156, -0.11512672156095505, 0.5674474239349365, 0.674576461315155, -0.000712256645783782, -0.3797791302204132, 0.6068832874298096, -0.48638230562210083, -0.10119111090898514, 0.5845544934272766, -0.1589929610490799, 0.35735952854156494, 0.7188445925712585, 0.6172455549240112, 0.3959161043167114, 0.17167024314403534, 0.40353089570999146, 0.016803517937660217, 0.1419237107038498, 0.505969762802124, 0.06840907782316208, -0.32535016536712646, -0.13425451517105103, -0.2653932273387909, 0.8533849120140076, 1.082624077796936, 0.8457450270652771, 0.7577350735664368, -0.13040059804916382, 0.2795115113258362, 0.6199634075164795, 0.2687284052371979, 0.8866231441497803, 0.9729511737823486, 0.8879090547561646, -0.06514595448970795, -0.38177672028541565, -0.5636711120605469, 0.17870301008224487, 0.1389884352684021, 0.3630041182041168, 0.540956974029541, 0.6135808825492859, 0.4626215398311615, 0.37421268224716187, 0.3255586326122284, 0.8169125914573669, 0.40706777572631836, -0.17329739034175873, -0.18929165601730347, -0.08356384187936783, 0.35212990641593933, 0.6581516265869141, 0.8340756297111511, 0.5748012661933899, 0.3491232693195343, -0.10355955362319946, 0.1820557564496994, 0.3158431947231293, 0.06993119418621063, -0.048332057893276215, 0.6094141602516174, 0.8649291396141052, -0.34001192450523376, -0.2827935218811035, -0.7086758017539978, 0.5973618626594543, 1.6634867191314697, 1.3543879985809326, 1.2303823232650757, 1.269901156425476, 0.15698030591011047, -0.14049528539180756, 0.2509267330169678, 0.5862841010093689, 0.3710792660713196, -0.07141963392496109, -0.06099804863333702, 0.412649005651474, 0.5853409171104431, -0.2650001645088196, 0.003985881339758635, -0.07684805989265442, -0.19587187469005585, -0.00451558968052268, 0.4726138710975647, 0.2816877067089081, 0.5587133765220642, -0.5165356397628784, -0.06912670284509659, 0.02247040718793869, -0.04253459721803665, -0.43019863963127136, -0.5879717469215393, 0.5318747758865356, 0.6510935425758362, 1.5368404388427734, 0.4164842665195465, 0.04014258086681366, 0.11235298216342926, 0.018960682675242424, 0.13934257626533508, 0.1425861269235611, 0.07294654846191406, 0.014427771791815758, 0.2016216665506363, 0.6179863214492798, 0.02694253996014595, -0.12062173336744308, 0.5646507143974304, 0.19467605650424957, 0.14614684879779816, 0.2123694121837616, 0.14093860983848572, 0.36182549595832825, 0.04440995678305626, -0.5667972564697266, 0.42990508675575256, -0.22682689130306244, 0.06106353551149368, -0.22658438980579376, -0.06750665605068207, 0.22841984033584595, 0.41982606053352356, 0.4073413610458374, 0.10158418118953705, -0.05567433685064316, -0.16548050940036774, -0.2293829321861267, 0.0668972060084343, -0.07335548102855682, -0.004123495426028967, 0.2500377297401428, 0.15545280277729034, 0.5189387202262878, -0.28287389874458313, -0.5138553380966187, -0.06587666273117065, 0.3295659124851227, 0.42851561307907104, -0.06481421738862991, -0.5321430563926697, 0.5323808193206787, -0.20126891136169434, -0.38220059871673584, 0.04235231131315231, -0.37591394782066345, -0.06145988777279854, -0.6076145768165588, -0.4004772901535034, -0.09784533083438873, -0.09652348607778549, 0.03356288745999336, -0.03893487527966499, 0.2939826250076294, -0.14476428925991058, -0.1376078724861145, -0.22764351963996887, 0.046935293823480606, 0.33795884251594543, 0.4962455630302429, 0.23306512832641602, 0.0361875481903553, -0.33228519558906555, -0.301312118768692, -0.05940260365605354, -0.14088742434978485, 0.050208915024995804, -0.060579005628824234, -0.15014253556728363, 0.646640956401825, -0.4683947265148163, -0.7410173416137695, 0.20767828822135925, 0.01036854088306427, -0.1300281137228012, -0.1966845840215683, 0.3784586191177368, 0.35454607009887695, -0.28036269545555115, -0.14065806567668915, 0.373578816652298, 0.37835049629211426, 0.29032275080680847, -0.059690073132514954, 0.24329346418380737, 0.7043320536613464, 0.7497914433479309, 0.5429810285568237, -0.1922786384820938, 0.08897765725851059, -0.016077259555459023, -0.1555563062429428, -0.20047466456890106, -0.014867806807160378, -0.2165529429912567, 0.30548468232154846, 0.26601317524909973, -0.02214009501039982, -0.542792558670044, 0.18519684672355652, -0.3278227150440216, -0.052610959857702255, -0.05431559681892395, -0.08244108408689499, 0.685894787311554, 0.551178514957428, 0.2712213397026062, -0.26021113991737366, -0.052964985370635986, 0.07662737369537354, 0.3694065809249878, 0.06452584266662598, 0.5068378448486328, 0.6388298869132996, 0.21958042681217194, 0.39433035254478455, 0.3830932080745697, 0.2571517825126648, -0.2111058235168457, -0.14628969132900238, 0.4211544990539551, 0.3308755159378052, 0.3217330873012543, 0.5305736660957336, 0.0958302691578865, 0.2633199989795685, 0.06424477696418762, 0.6954839825630188, -0.4036578834056854, -0.025178905576467514, 0.0502900555729866, -0.06010499596595764, 0.4916849136352539, 0.7132871150970459, -0.25025656819343567, -0.15334849059581757, -0.31655701994895935, 0.024377034977078438, 0.35842713713645935, 0.4164644777774811, 0.1793586015701294, 0.452108770608902, 0.9254693984985352, 0.7044522166252136, 0.9090878963470459, 0.8809615969657898, 0.7729072570800781, 0.42872196435928345, 0.06429306417703629, 0.04176294803619385, 0.21038582921028137, 0.2708280384540558, 0.22986899316310883, -0.20076967775821686, -0.09798628836870193, 0.6935819983482361, -0.28507745265960693, 0.07546157389879227, 0.012947320938110352, 0.06125634163618088, 0.20037180185317993, -0.45925530791282654, -0.9557722806930542, -0.5135949850082397, 0.004061310552060604, -0.4413703978061676, 0.09399876743555069, 0.3619644343852997, 0.4912027418613434, 0.2851046919822693, 0.6802228689193726, 0.6073864102363586, 0.36663874983787537, 0.7754074335098267, 0.3911898136138916, 0.319286048412323, 0.11064662784337997, -0.10455171763896942, 0.05486477538943291, 0.015648942440748215, -0.1821611076593399, 0.35200703144073486, 0.28968366980552673, 0.045408155769109726, 0.2701565623283386, -0.06941471248865128, -0.05557489022612572, -0.026047155261039734, -0.05209432542324066, -0.4147002398967743, -0.21469935774803162, -0.8896713256835938, -0.8330032229423523, -0.19581849873065948, -0.5298722982406616, -1.2031347751617432, -0.41561639308929443, -0.2666686773300171, -1.1340745687484741, -0.49374428391456604, -0.45126110315322876, -0.25759705901145935, 0.4270215332508087, 0.6022871136665344, 0.2023017257452011, 0.24621787667274475, 0.03775852173566818, -0.09592245519161224, -0.46530091762542725, -0.4361512362957001, -0.050982024520635605, 0.3693115711212158, 0.08581653982400894, -0.016754411160945892, 0.02932550013065338, 0.03836798667907715, -0.03166690468788147, 0.03799998760223389, 0.5928773880004883, 0.6401675343513489, 0.3450224995613098, 0.5576549172401428, 0.6782187819480896, 0.11783146113157272, -0.8077928423881531, -0.5117022395133972, -0.22995586693286896, -0.7559009790420532, -0.8272589445114136, -0.789190948009491, -1.2717734575271606, -1.5299912691116333, -0.9323323965072632, -0.4317488670349121, -0.008028882555663586, -0.2947956621646881, -0.1541091501712799, 0.07232052832841873, 0.04566594213247299, -0.005470529198646545, 0.07990504056215286, -0.0739220529794693], [-0.08013564348220825, 0.02182144671678543, -0.07608910650014877, 0.029044248163700104, -0.038563694804906845, -0.042484428733587265, -0.04194407910108566, 0.04595058411359787, -0.029430672526359558, 0.07704318314790726, -0.00492192804813385, -0.0428670234978199, -0.055049821734428406, 0.05662166327238083, -0.07823590934276581, -0.04067453742027283, 0.056689582765102386, -0.0549454391002655, 0.04911702126264572, -0.01792909950017929, -0.04407661408185959, -0.035326819866895676, -0.08528988063335419, 0.06674265116453171, 