{"weights": [[[0.037428177893161774, -0.015461772680282593, 0.016870036721229553, -0.06973110884428024, -0.0536368153989315, 0.056598372757434845, -0.07897400856018066, 0.0365050733089447, -0.03611515462398529, 0.0312001034617424, -0.062496367841959, -0.04634680598974228, 0.09703225642442703, -0.0052801440469920635, -0.06583220511674881, -0.012094621546566486, 0.021987557411193848, -0.08312113583087921, 0.055054716765880585, -0.073837049305439, -0.01567898690700531, 0.010542377829551697, -0.003514602780342102, -0.03563696891069412, -0.00413127988576889, -0.021064266562461853, -0.03923363611102104, -0.0011692717671394348, 0.02039939910173416, -0.048642441630363464, -0.020237140357494354, 0.05449845641851425, 0.2462068647146225, 0.06029072776436806, -0.011895175091922283, -0.3748438060283661, 0.1371069997549057, -0.03262735903263092, 0.351669579744339, -0.27069997787475586, -0.10789560526609421, -0.04125655069947243, -0.32284000515937805, 0.41086316108703613, -0.24984881281852722, -0.07584851235151291, 0.09273490309715271, 0.39641574025154114, 0.5564616918563843, 0.3663254976272583, 0.37528568506240845, 0.10212212055921555, 0.025886692106723785, -0.02935297042131424, -0.033598512411117554, 0.08381416648626328, 0.03942481428384781, 0.014813914895057678, 0.1096772849559784, -0.44099387526512146, -0.5204516053199768, 0.029969200491905212, 0.13001364469528198, 0.4742088317871094, 0.7117329239845276, 0.9877248406410217, 0.8896918296813965, 0.47269654273986816, -0.3409235179424286, -0.356706440448761, -0.19895364344120026, -0.1894117295742035, 0.23183830082416534, 0.37291231751441956, 0.4441255033016205, 0.22406506538391113, 0.030971316620707512, 0.40720078349113464, -0.25898152589797974, 0.0001166879155789502, 0.7664627432823181, 0.3897160291671753, -0.03907344117760658, 0.054912395775318146, -0.023775100708007812, 0.007814861834049225, 0.17114204168319702, -0.32273387908935547, -0.40064623951911926, -0.04253872111439705, 0.5146546959877014, 0.23410145938396454, -0.23926958441734314, 0.15139266848564148, -0.1255837231874466, -0.34361228346824646, -0.12806057929992676, -0.10421008616685867, -0.28998422622680664, -0.03077474795281887, -0.5121444463729858, -0.3603760004043579, -0.047363072633743286, 0.3447900414466858, 0.20233893394470215, 0.015592783689498901, 0.5873730778694153, 0.13890308141708374, 0.05751417204737663, 0.4273779094219208, -0.45512643456459045, 0.07954087108373642, -0.019603468477725983, -0.0413510836660862, 0.3724949359893799, -0.3363228142261505, 0.7656586766242981, 0.5804301500320435, 0.5406213998794556, 0.28778308629989624, 0.009291078895330429, -0.06801757216453552, 0.32033631205558777, -0.19473065435886383, -0.16340765357017517, -0.1338377743959427, -0.44187575578689575, -1.0357369184494019, -1.0501768589019775, -0.4288073778152466, -0.1670815497636795, 0.38725146651268005, 0.06620737910270691, 0.060622792690992355, -0.08256477862596512, 0.4906255602836609, 0.46278777718544006, -0.19601459801197052, -0.6816570162773132, -0.007258625701069832, 0.07673699408769608, -0.03379948064684868, 0.6094812154769897, -0.40051352977752686, 0.6317881941795349, 0.07914281636476517, 0.13760444521903992, 0.5119304656982422, 0.5011162757873535, 0.18217164278030396, 0.3437974750995636, 0.3433689475059509, 0.17342238128185272, 0.08343376219272614, -0.1742619425058365, -0.33991724252700806, -0.3391641080379486, -0.5352674126625061, -0.4310431182384491, -0.35262778401374817, -0.5353133678436279, -0.00486566498875618, -0.4532400667667389, -0.35391178727149963, -0.1377674788236618, -0.05850119888782501, -0.0333462655544281, -0.3257964253425598, 0.03936661034822464, -0.03385046124458313, -0.4318273961544037, 0.08578363060951233, 0.02710382454097271, 0.0523713119328022, 0.25479716062545776, 0.08898662030696869, 0.031120220199227333, 0.2071792632341385, 0.26305723190307617, -0.03893200308084488, 0.08584152907133102, -0.13900965452194214, -0.36522576212882996, -0.2560880482196808, -0.30219975113868713, -0.3015674948692322, -0.314085990190506, -0.5024368762969971, -0.24293074011802673, 0.2795707881450653, -0.17960332334041595, -0.9751048684120178, -0.011386358179152012, -0.3625781536102295, -0.4475865364074707, -0.3967030644416809, -0.021389516070485115, 0.3378189206123352, 0.09058208763599396, 0.02106771059334278, 0.13295668363571167, -0.11514371633529663, 0.21643468737602234, 0.312907874584198, 0.21101123094558716, 0.033965226262807846, -0.09638320654630661, -0.015696028247475624, 0.1452227681875229, -0.06994175165891647, -0.25841549038887024, -0.15120577812194824, -0.2977988123893738, -0.42967045307159424, -0.2493201047182083, 0.03286096081137657, -0.3481878936290741, -0.00871935673058033, -0.3033503592014313, -0.3961500823497772, -0.6967841982841492, -0.5974159240722656, -0.6086359620094299, -0.2272452414035797, -0.18283262848854065, 0.7752894759178162, 0.20742478966712952, 0.3212777376174927, 0.36735478043556213, -0.4625384211540222, 0.2688826024532318, 0.049188487231731415, 0.23202502727508545, 0.15531803667545319, 0.10875699669122696, -0.0008398491190746427, 0.012682514265179634, 0.04268225282430649, -0.09040940552949905, -0.03128696605563164, -0.2671993672847748, -0.6255069375038147, -0.12326844036579132, 0.03497646003961563, 0.25605374574661255, -0.18253269791603088, -0.28185608983039856, -0.03798559680581093, -0.06401452422142029, -0.29969915747642517, -0.9315041303634644, 0.04814137518405914, 0.12570512294769287, 0.6474432349205017, -0.1626466065645218, 0.08526203036308289, 0.26549288630485535, 0.1494164615869522, -0.07261375337839127, -0.24473732709884644, 0.016403134912252426, -0.07121992111206055, -0.19203417003154755, 0.004402603954076767, 0.08392606675624847, 0.1532096266746521, 0.4418116509914398, -0.16513925790786743, -0.3960310220718384, -0.3528858721256256, 0.03115580417215824, -0.05630401149392128, -0.04177289456129074, 0.061372820287942886, 0.27821415662765503, -0.07745629549026489, 0.4024672210216522, -0.22648295760154724, -0.4738903343677521, -1.0499935150146484, 0.08982599526643753, 0.15491993725299835, 0.09054391086101532, -0.07890263199806213, -0.1251945048570633, 0.010665863752365112, -0.0334930419921875, 0.02132195420563221, -0.2146897166967392, -0.08490955084562302, 0.05255180969834328, 0.29204869270324707, 0.23198935389518738, 0.4972103238105774, 0.19926974177360535, -0.29901018738746643, -0.627718448638916, -0.3056561052799225, 0.008423881605267525, -0.0455731637775898, -0.1478346288204193, 0.05830950289964676, -0.16956107318401337, 0.34713563323020935, -0.6275270581245422, -0.2572959065437317, -0.30271387100219727, -0.5104733109474182, -0.27218711376190186, -0.0036467332392930984, 0.3890407383441925, -0.0024421822745352983, 0.15114536881446838, -0.20100216567516327, -0.5991167426109314, -0.25545600056648254, -0.2893054187297821, -0.007012573070824146, 0.13856469094753265, 0.2562964856624603, 0.19193536043167114, 0.28030160069465637, -0.06926418840885162, -0.6076295971870422, -0.5122544169425964, -0.3449341058731079, -0.02854224108159542, 0.05529433861374855, 0.11213508248329163, -0.24860091507434845, -0.009218190796673298, -0.22434066236019135, -0.752972424030304, -0.599091112613678, 0.19994503259658813, 0.09675828367471695, -0.19335415959358215, 0.5458733439445496, 0.0855642631649971, 0.2629951536655426, 0.17712430655956268, -0.01578577235341072, -0.45440828800201416, 0.036610741168260574, 0.013800919987261295, -0.14609937369823456, -0.19259876012802124, 0.13474856317043304, -0.14111149311065674, -0.4125880300998688, -0.4423752725124359, -0.7514316439628601, -0.13151150941848755, 0.0019743742886930704, 0.08022033423185349, -0.06711240112781525, -0.3790523111820221, -0.458819717168808, -0.12489867210388184, -0.7008334994316101, -0.42998212575912476, 0.3758358955383301, 0.7596346735954285, 0.6666175723075867, -0.22452764213085175, 0.15560279786586761, 0.25144752860069275, 0.2491261512041092, 0.022820372134447098, 0.10615089535713196, 0.178043931722641, 0.1020267903804779, -0.08021126687526703, 0.0640641450881958, 0.4672122001647949, 0.18298527598381042, -0.44352808594703674, -0.9343451261520386, -1.0461552143096924, -0.9375556707382202, -0.24952200055122375, -0.1268797069787979, 0.2057318240404129, -0.10855388641357422, 0.013301190920174122, 0.24726822972297668, 0.45717954635620117, 0.1213098093867302, 0.4209096431732178, 0.6346116662025452, 0.7308333516120911, 0.5748603940010071, -0.4736689627170563, 0.10889563709497452, 0.770285427570343, 0.1299896389245987, -0.3511276841163635, 0.047517113387584686, -0.03860839083790779, -0.29186737537384033, 0.10131465643644333, 0.38976576924324036, 0.6120226383209229, -0.06393270939588547, -0.9310314655303955, -1.1565775871276855, -0.9031051397323608, -0.4857993423938751, -0.2521887421607971, -0.009338825941085815, 0.19318173825740814, 0.08503801375627518, 0.08906640112400055, 0.0739690512418747, 0.38922423124313354, 0.7843486070632935, 0.27603983879089355, 0.40316444635391235, 0.6937349438667297, 0.5419705510139465, -0.23359467089176178, -0.20408190786838531, 0.3308563530445099, 0.3842187523841858, -0.14792582392692566, -0.22579701244831085, 0.03526337444782257, 0.27508869767189026, 0.28437936305999756, 0.457735151052475, 0.2442319542169571, -0.6492412090301514, -1.5895142555236816, -1.3078511953353882, -0.3648216128349304, 0.08982106298208237, 0.10834533721208572, 0.4058535099029541, 0.4348278045654297, 0.36110466718673706, 0.5679856538772583, 0.3242379426956177, 0.4230240285396576, 0.2807193994522095, -0.1822270303964615, 0.21221502125263214, -0.42922940850257874, -0.3066810369491577, 0.32685697078704834, 0.2967887818813324, 0.30384939908981323, 0.31825149059295654, 0.09100787341594696, 0.030496202409267426, 0.6073060035705566, 0.6728549599647522, 0.35633283853530884, 0.2897520661354065, -0.1693480908870697, -1.3861024379730225, -1.9673612117767334, -0.8515908122062683, 0.3953598737716675, 0.2574564516544342, 0.3717876076698303, 0.3044201135635376, 0.21489238739013672, 0.3411302864551544, 0.4577804505825043, 0.33963143825531006, -0.004615839570760727, -0.0015862477011978626, -0.18274441361427307, -0.013058560900390148, 0.17670516669750214, -0.4110291600227356, -0.0022919103503227234, 0.268994003534317, -0.16158315539360046, 0.24451889097690582, 0.45724979043006897, 0.2885993719100952, 0.04561298340559006, 0.03254755213856697, -0.2633522152900696, -0.31807437539100647, -0.8498916625976562, -1.307168960571289, -1.2407199144363403, -0.27974027395248413, 0.43802526593208313, 0.43742626905441284, 0.20353654026985168, -0.041496336460113525, 0.13685330748558044, 0.20420332252979279, 0.535579264163971, 0.3308052718639374, 0.19316159188747406, 0.3052656650543213, -0.18468734622001648, 0.7179885506629944, -0.16097867488861084, -0.3522564172744751, 0.18531785905361176, -0.0996876135468483, 0.24417263269424438, -0.03829322010278702, 0.34873637557029724, 0.41630691289901733, -0.11896439641714096, -0.3974021077156067, -0.36589446663856506, -1.1568875312805176, -1.4984462261199951, -1.3787025213241577, -0.6123018264770508, 0.1408286839723587, 0.30610162019729614, 0.1055724173784256, 0.28433266282081604, 0.16866478323936462, 0.3698776662349701, 0.3852730989456177, -0.05172009766101837, 0.04085920751094818, -0.5835692882537842, -0.4569820761680603, 0.10998960584402084, 0.24482673406600952, 0.001841218676418066, -0.31363505125045776, 0.08635517954826355, 0.48441800475120544, 0.5089926719665527, -0.5604487657546997, 0.1415083259344101, -0.09452523291110992, -0.24485141038894653, -0.508001983165741, -0.7628352046012878, -0.9131816625595093, -1.153668999671936, -0.6651066541671753, -0.2874127924442291, -0.14350919425487518, 0.21386262774467468, 0.12195391952991486, 0.1427171677350998, 0.24254634976387024, -0.17084164917469025, 0.1495833396911621, -0.2460189163684845, -0.2559741139411926, -0.3898181915283203, -0.7344608902931213, -0.390607088804245, -0.6888056397438049, 0.367409884929657, 0.028024790808558464, -0.007580652832984924, -0.12819045782089233, 0.07740438729524612, -0.7846761345863342, -0.30392271280288696, -0.2509053647518158, -0.7188544273376465, -0.34469282627105713, -0.7044329643249512, -0.5321851372718811, -0.17206032574176788, -0.468876451253891, -0.15320944786071777, -0.06010971590876579, 0.366578608751297, 0.31816691160202026, 0.2687133550643921, 0.17327283322811127, -0.1358150839805603, -0.12900018692016602, -0.20469261705875397, -0.09237338602542877, -0.5489253401756287, -0.9016336798667908, -0.6017142534255981, -0.6397882699966431, -0.16867604851722717, -0.10783641785383224, -0.02714296244084835, -0.23120029270648956, 0.24715524911880493, -1.1399329900741577, -0.7600582242012024, -0.2848120629787445, -0.3062085807323456, -0.8379172086715698, -0.1488521695137024, -0.07521956413984299, 0.13117626309394836, -0.14506562054157257, -0.14754021167755127, -0.008796440437436104, 0.12116406112909317, 0.286866158246994, 0.43104323744773865, 0.48794782161712646, 0.02041030488908291, 0.10773245990276337, -0.21837814152240753, 0.21849243342876434, -0.4165555536746979, 0.10485345125198364, 0.2814815044403076, 0.36230385303497314, -0.2732884883880615, -0.06254291534423828, 0.056431643664836884, 0.022191789001226425, 0.8257609009742737, -0.5802132487297058, 0.027798864990472794, -0.506754994392395, -0.5549044013023376, -0.5522604584693909, -0.022100109606981277, -0.11899124085903168, -0.3837280869483948, -0.1446412205696106, -0.06194891035556793, -0.08049935847520828, 0.11228316277265549, 0.270516037940979, 0.23557649552822113, 0.12982791662216187, 0.338034063577652, 0.19547562301158905, 0.15023088455200195, 0.18053166568279266, -0.8253454566001892, -0.10049699246883392, 0.1067272201180458, 0.3434099853038788, -0.5278547406196594, 0.026467541232705116, -0.025121796876192093, 0.03442928194999695, 0.12356270104646683, -0.20895138382911682, 0.08079467713832855, -0.07663627713918686, -0.0006417606491595507, -0.0503646656870842, -0.43725043535232544, 0.2551429271697998, -0.2579823434352875, -0.17413318157196045, -0.19763727486133575, -0.19217471778392792, -0.23631687462329865, 0.005860315170139074, 0.12052740901708603, 0.12209229916334152, 0.643882691860199, 0.025261664763092995, 0.04216544330120087, 0.037550702691078186, -0.17169474065303802, 0.2188662886619568, -0.010188575834035873, 0.08147000521421432, 0.12458928674459457, -0.06867460161447525, -0.030401509255170822, -0.08276814222335815, 0.4378313422203064, 0.43108615279197693, 0.0901866927742958, -0.4143083095550537, 0.07247917354106903, 0.044533807784318924, 0.1882433146238327, 0.13373534381389618, -0.037535931915044785, 0.12390413880348206, -0.21937322616577148, -0.0013568354770541191, -0.10696952044963837, 0.013289730064570904, -0.0622868686914444, -0.02351723425090313, 0.4494955837726593, 0.257778137922287, -0.07578317821025848, 0.025649165734648705, -0.07643930613994598, -0.2349565327167511, 0.1910254955291748, 0.7214935421943665, 0.4417237341403961, 0.04488011449575424, -0.07178282737731934, 0.04460214823484421, -0.2797872722148895, -0.28356701135635376, -0.05483342334628105, 0.24311494827270508, -0.05770432949066162, 0.26213085651397705, 0.08088216185569763, 0.19200877845287323, -0.04328346997499466, 0.13863743841648102, 0.15432992577552795, -0.3064764738082886, -0.06791770458221436, 0.0918458104133606, 0.37095770239830017, -0.2100003957748413, 0.061467330902814865, 0.3556215167045593, 0.16608814895153046, 0.04344835504889488, -0.16487956047058105, 0.011051011271774769, 0.01357098575681448, -0.4031405746936798, 0.0281990896910429, -0.013770654797554016, 0.02969544380903244, -0.01946558803319931, 0.06999466568231583, -0.20181375741958618, -0.22566474974155426, -0.239587664604187, -0.17156344652175903, 0.20776380598545074, 0.22325998544692993, 0.08839336782693863, 0.15270084142684937, 0.16654282808303833, -0.219768688082695, 0.0740664154291153, 0.18194106221199036, 0.2587891221046448, 0.4927772581577301, 0.39013639092445374, 0.6672686338424683, 0.6798200607299805, 0.06620141863822937, -0.07384198158979416, 0.164884552359581, 0.27149778604507446, -0.3610709309577942, 0.39284825325012207, 0.06329206377267838, 0.03961613029241562, -0.047815725207328796, 0.0377235934138298, 0.055414579808712006, 0.06124424189329147, 0.7211243510246277, 0.906500518321991, -0.24061891436576843, 0.1714382916688919, 0.23544809222221375, 0.4942680597305298, 0.4746887981891632, -0.13359808921813965, 0.06709559261798859, 0.7764558792114258, 0.3879636526107788, -0.06462772935628891, 0.0795288160443306, 0.6935890913009644, 0.4423574209213257, 0.16454192996025085, -0.2310793697834015, 0.061351265758275986, 0.20541520416736603, 0.6557876467704773, 0.06324969977140427, 0.06006930023431778, 0.0318601131439209, 0.02066132426261902], [-0.03980327770113945, 0.08584324270486832, 0.06666932255029678, 0.05892772227525711, 0.0490206703543663, 0.078943632543087, 0.03386252373456955, 0.048567526042461395, -0.0034115388989448547, 0.0038353800773620605, 0.05165184289216995, 0.057325758039951324, 0.08750849962234497, -0.1827896386384964, -0.43953078985214233, -0.2220420390367508, 0.009916916489601135, 0.0036469176411628723, 0.06564543396234512, -0.06692691147327423, -0.05770126357674599, 0.03220708668231964, -0.02300436794757843, 0.0016677603125572205, -0.0031257495284080505, -0.07241213321685791, -0.07714032381772995, 0.0495171919465065, -0.07155901938676834, -0.0301048681139946, -0.06509187817573547, -0.07467692345380783, 0.14604665338993073, 0.16710615158081055, 0.1959594488143921, 0.28094959259033203, -0.09302730113267899, 0.12182183563709259, 0.41702327132225037, 0.6618950366973877, 1.2036347389221191, 0.5761173367500305, -0.195742666721344, 0.30567383766174316, -0.04278375953435898, 0.18672503530979156, 0.6546919345855713, 1.2709619998931885, 1.0305098295211792, 0.6446676254272461, 0.29260993003845215, 0.06497442722320557, 0.0018834620714187622, -0.03339606896042824, -0.04611857607960701, 0.07634305208921432, -0.002581000328063965, -0.043422456830739975, 0.1615423858165741, 0.0940394252538681, 0.3945423364639282, 0.03032015822827816, -0.004972752649337053, 0.43621569871902466, 0.268242210149765, 0.315415620803833, 0.5276830196380615, 0.13190710544586182, -0.29187193512916565, 0.046071361750364304, -0.1956987828016281, -0.657812237739563, -0.8900790214538574, -0.7177959680557251, -0.7754035592079163, -0.11186674237251282, -0.42373085021972656, 0.4907766580581665, 0.24110756814479828, 0.055661026388406754, 0.5596064329147339, -0.15212057530879974, 0.027908653020858765, 0.02665175497531891, 0.05299048870801926, 0.08506319671869278, -0.04573703929781914, -0.4839630722999573, -0.4262644350528717, 0.3795277178287506, 1.4216959476470947, 0.10683020204305649, -0.2540997862815857, 0.27852675318717957, 0.11707379668951035, -0.6082940697669983, -0.9362306594848633, -1.523535966873169, -1.3840636014938354, -1.213095784187317, -0.6084429621696472, -0.5152359008789062, -0.8700788617134094, -0.5824423432350159, -0.422482430934906, 0.17772309482097626, 0.3476962447166443, 0.1349637359380722, 0.3788512945175171, 0.13186776638031006, 0.04193652793765068, 0.07540800422430038, 0.0749717429280281, -0.24090857803821564, -0.526321291923523, -0.5440908670425415, 0.2418411821126938, 1.020544409751892, 1.1096001863479614, 0.14701376855373383, -0.20942892134189606, 0.18404728174209595, -0.16462023556232452, -0.11325981467962265, 0.14208625257015228, 0.014304433017969131, -0.2567346394062042, -0.3978947103023529, -0.3687153160572052, -0.019947599619627, -0.42327404022216797, -0.22301922738552094, -0.06251294910907745, -0.036407094448804855, 0.21269622445106506, 1.0115280151367188, 0.3210093677043915, 0.11973349004983902, -0.4107852876186371, 0.2809218168258667, 0.08169610053300858, -0.06087581068277359, -0.25781482458114624, -0.641482412815094, 0.20484554767608643, 0.6601027846336365, 0.1362161487340927, -0.07307955622673035, 0.3474639654159546, 0.07612767070531845, 0.42857182025909424, 0.8483426570892334, 0.7031245231628418, 0.7927898168563843, 0.4916614592075348, 0.09199490398168564, -0.06670239567756653, 0.09537984430789948, -0.038533203303813934, 0.015428866259753704, 0.15581247210502625, -0.020949050784111023, 0.0238583292812109, 0.5103358626365662, 0.6351876854896545, 0.18660761415958405, -0.41068801283836365, 0.31537166237831116, -0.006653636693954468, -0.39808881282806396, -0.008641473017632961, 0.14514833688735962, 0.8462013602256775, 0.5791054964065552, 0.27209895849227905, 0.1863090693950653, 0.13793189823627472, 0.035917580127716064, 0.17303182184696198, 0.31892552971839905, 0.4031548798084259, 0.4650665521621704, 0.5750381946563721, 0.18891601264476776, -0.05412778630852699, 0.16121627390384674, -0.16740290820598602, -0.20205377042293549, 0.129133939743042, -0.08289282023906708, -0.10163914412260056, -0.4038114845752716, -0.6063950657844543, -0.13977546989917755, 0.09272369742393494, 0.36468538641929626, 0.15794293582439423, -0.29378652572631836, 0.2836247384548187, 0.7100658416748047, 0.52601158618927, 0.5616751313209534, 0.2096908539533615, -0.04427983984351158, 0.022498564794659615, -0.04591669514775276, 0.10640010237693787, 0.106867216527462, 0.11171234399080276, 0.1915430724620819, 0.06673235446214676, -0.08696697652339935, -0.16190467774868011, -0.014486575499176979, -0.10644345730543137, -0.1746940314769745, 0.12843057513237, -0.10460380464792252, -0.2235862761735916, 0.044806815683841705, -0.3540109395980835, -0.48130932450294495, -0.027339929714798927, 0.30650806427001953, 0.47277307510375977, -0.3737656772136688, 0.6043918132781982, 0.022209523245692253, -0.13525202870368958, 0.39826682209968567, 0.13936088979244232, 0.10459162294864655, 0.5640546679496765, 0.12187378853559494, -0.14040687680244446, 0.09703973680734634, 0.11157950758934021, 0.05174292251467705, 0.10676801204681396, -0.17303895950317383, -0.14505372941493988, -0.05580933392047882, -0.12442809343338013, -0.1612457036972046, -0.19010098278522491, -0.01956946961581707, -0.30566972494125366, -0.5709706544876099, -0.11612942814826965, -0.2679232954978943, -0.35109034180641174, -0.2055768519639969, 0.18251602351665497, -0.21564732491970062, -0.39520663022994995, -0.5082063674926758, 0.05875133350491524, -0.019773287698626518, 0.09349570423364639, 0.05643390119075775, 0.0936206802725792, -0.29492688179016113, -0.00771593302488327, -0.18816126883029938, 0.20219187438488007, 0.576215386390686, 0.6763423681259155, 0.26309457421302795, 0.085386723279953, -0.07421274483203888, -0.049571964889764786, -0.07332854717969894, -0.3831159174442291, -0.2067621797323227, 0.10051777958869934, -0.3244113624095917, -0.16339994966983795, -0.8414328694343567, 0.07448650896549225, 0.4145372807979584, 0.16079983115196228, -0.358760803937912, -0.3300282061100006, -0.29747992753982544, 0.5820981860160828, 0.5214360356330872, 0.3309943377971649, -0.20079033076763153, -0.5360004305839539, -0.04254123196005821, -0.28456559777259827, 0.06791681051254272, 0.4930607080459595, 1.0330430269241333, 1.1364601850509644, 0.7499593496322632, 0.07674000412225723, -0.13207542896270752, -0.364653617143631, -0.1884119212627411, -0.3464919626712799, -0.04649710655212402, -0.6040340662002563, -0.4472542107105255, 0.27615630626678467, -0.256674200296402, 0.47240811586380005, -0.36024460196495056, 0.5315547585487366, -0.392998605966568, -0.23252592980861664, -0.2630906105041504, 0.1992529183626175, 0.20309101045131683, -0.12579138576984406, -0.27587538957595825, -0.07573386281728745, 0.13230156898498535, 0.24029698967933655, 0.5971314907073975, 1.4117600917816162, 1.0815825462341309, 0.3383895456790924, -0.1396491527557373, -0.16541939973831177, -0.1967444270849228, -0.6520882248878479, -0.44257766008377075, -0.3549267649650574, -0.4483931064605713, -0.5484215617179871, 0.441538542509079, 0.3584804832935333, 0.13913708925247192, 0.4150165915489197, 0.016540374606847763, 0.5313511490821838, 0.2544954717159271, 0.4799182713031769, 0.20915067195892334, -0.060786839574575424, 0.5826606154441833, 0.1651955544948578, 0.09430057555437088, 0.44760018587112427, 0.3243527412414551, 0.45774585008621216, 0.9107977747917175, 0.9595178365707397, 0.4396372139453888, -0.4448905885219574, -0.07772424817085266, -0.11530160158872604, -0.35002845525741577, -0.6101500988006592, -0.400264173746109, -0.0788310319185257, -0.3281048834323883, 0.3676387369632721, 0.9643402695655823, 1.392494797706604, 0.8197239637374878, 0.23055556416511536, 0.07125066965818405, -0.3700173497200012, 0.55898118019104, 0.31824028491973877, -0.2346879541873932, 0.3943803906440735, 0.26275503635406494, 0.9254642724990845, 0.8404972553253174, 0.2643970251083374, 0.20733626186847687, 0.7781179547309875, 0.5964092016220093, 0.40155407786369324, -0.02198076993227005, -0.21002556383609772, 0.20429380238056183, 0.23423704504966736, -0.10563566535711288, -0.15160337090492249, 0.13145965337753296, 0.8119614720344543, 1.3440616130828857, 2.241868495941162, 2.1891212463378906, 2.9968321323394775, 1.739150047302246, 0.43380600214004517, 0.16500549018383026, 0.14844141900539398, 0.22946622967720032, -0.48246580362319946, -0.5210434794425964, -0.5395287275314331, 0.14783427119255066, 0.16523705422878265, 0.5649543404579163, 0.3395112156867981, 0.3498491942882538, 0.5011682510375977, 0.0357964001595974, -0.4657488763332367, -0.49022310972213745, -0.44550105929374695, -0.16568949818611145, -0.14957915246486664, 0.01765323244035244, 0.32887765765190125, 1.1579517126083374, 1.5814566612243652, 1.6285572052001953, 1.7404428720474243, 2.047344207763672, 1.9214625358581543, 1.2656441926956177, 0.2996160686016083, 0.149525985121727, 0.12409492582082748, -0.13007722795009613, -0.4844905734062195, -0.4902247488498688, -0.9649010896682739, -0.9040570855140686, -0.3476286232471466, 0.02468213625252247, 0.18315859138965607, 0.03827047720551491, -0.06879813969135284, -0.17225295305252075, -0.21717709302902222, -0.6858058571815491, -0.567489743232727, -0.022511407732963562, 0.179590106010437, 0.9954366087913513, 0.905390739440918, 0.9361832141876221, 1.104016900062561, 1.0915708541870117, 0.8204194903373718, 0.9370518922805786, 1.0895981788635254, 0.7472022771835327, 0.1076793298125267, -0.17958642542362213, 0.02088754065334797, -0.7355560660362244, -0.22544558346271515, -1.020310640335083, -0.8760256767272949, -0.6749140024185181, -0.481288880109787, -0.24223211407661438, -0.20021449029445648, -0.37982213497161865, -0.26695865392684937, -0.06937070190906525, -0.03816864266991615, -0.5505509972572327, -0.18930508196353912, 0.17453046143054962, 0.7516262531280518, 0.6795988082885742, 0.5098690986633301, 0.17226138710975647, 0.49733099341392517, 0.5309564471244812, 0.18442682921886444, 0.43089255690574646, 0.12196877598762512, 0.48540830612182617, 0.2517580986022949, -0.39259716868400574, -0.02860405668616295, -0.3841526210308075, 0.1431475430727005, -0.13823263347148895, -0.44942745566368103, -0.8455621600151062, -0.5076606273651123, -0.18079495429992676, -0.4913445711135864, -0.551589846611023, -0.056766778230667114, -0.013219781219959259, -0.09267840534448624, -0.2778841555118561, -0.350683331489563, 0.37882333993911743, 0.41131463646888733, -0.1141585186123848, -0.13020355999469757, -0.3677595853805542, 0.18436771631240845, 0.7120944857597351, 0.3042297959327698, 0.14252516627311707, 0.42935770750045776, -0.18091261386871338, 0.16751882433891296, -0.47698384523391724, 0.2749396562576294, -0.11026106774806976, 0.10674133896827698, -0.41070908308029175, -0.540502667427063, -0.5564635396003723, -0.48717552423477173, -0.6633002161979675, -0.3076389729976654, -0.23523381352424622, 0.07988423854112625, 0.02982013300061226, -0.07057931274175644, -0.21419547498226166, -0.20684513449668884, -0.2189139425754547, -0.2506644129753113, -0.4110300540924072, -0.4619992971420288, -0.5054315328598022, -0.7136778235435486, 0.2512941062450409, 0.1026119813323021, 0.06173350661993027, -0.17178750038146973, -0.25121942162513733, 0.43790203332901, -0.5047998428344727, -0.32044517993927, 0.12571004033088684, -0.24525712430477142, -0.6473754644393921, -0.700752317905426, -0.22491656243801117, -0.2566525936126709, -0.3921012878417969, -0.16724079847335815, 0.024774879217147827, 0.21659022569656372, 0.13606911897659302, 0.32169339060783386, -0.370252788066864, -0.11153285950422287, -0.571361780166626, -0.3449408710002899, -0.6392599940299988, -0.4197818636894226, -0.44974491000175476, -0.07412590086460114, 0.5874530076980591, 0.8010516166687012, 0.5261725187301636, 0.19241183996200562, 0.11824300140142441, 0.22969207167625427, -0.4880006015300751, 0.07571952790021896, -0.0009971137624233961, 0.4663001298904419, -0.4617992639541626, -0.5186812281608582, 0.003235794138163328, -0.058268092572689056, 0.07374364882707596, -0.0513552650809288, 0.1615266054868698, 0.5958480834960938, 0.26619279384613037, 0.4495334327220917, 0.12183038890361786, -0.1057114526629448, -0.3326943814754486, -0.2932194769382477, -0.34672319889068604, -0.12823325395584106, -0.22804847359657288, -0.24743777513504028, 0.258038729429245, 0.25382277369499207, 0.25523895025253296, 0.5454260110855103, 0.5177233815193176, -0.16133108735084534, 0.2444911003112793, -0.1775357574224472, -0.3023841083049774, -0.33900320529937744, -0.35415753722190857, -0.3393935263156891, -0.07678421586751938, -0.02118968591094017, -0.15613162517547607, 0.08330477774143219, 0.07699684053659439, 0.25860774517059326, 0.42148441076278687, 0.5862233638763428, 0.29136618971824646, 0.03978351503610611, -0.10542090982198715, 0.28975173830986023, 0.20548029243946075, -0.29019904136657715, -0.3719477951526642, -0.07757266610860825, -0.13477005064487457, -0.2444499284029007, 0.027364831417798996, 0.4245908856391907, 0.43137872219085693, -0.215970978140831, 0.08000796288251877, -0.15463732182979584, -0.3348442614078522, -0.015423071570694447, -0.08301752805709839, -0.6324301958084106, -0.3366658389568329, -0.004989460576325655, 0.03441998362541199, -0.14742806553840637, -0.11868606507778168, 0.2704533338546753, 0.4114644527435303, 0.5786048769950867, 0.33301714062690735, 0.1838216334581375, 0.14481252431869507, 0.5021942853927612, -0.03634313493967056, -0.10236029326915741, -0.13609987497329712, -0.05496842786669731, 0.10721654444932938, -0.0884379893541336, -0.1250883936882019, 0.6526882648468018, 0.6347226500511169, -0.4970989227294922, 0.03041154146194458, -0.006110072135925293, 0.08020152896642685, -0.6575146913528442, -0.34921619296073914, -0.2311212569475174, -0.4833679795265198, 0.12508524954319, -0.05720920488238335, -0.03907608985900879, 0.21056602895259857, 0.1486641764640808, 0.19437074661254883, 0.12344960868358612, -0.16223980486392975, -0.016872050240635872, -0.021730368956923485, -0.11161467432975769, -0.2517346739768982, 0.02995733916759491, 0.1266484409570694, -0.3159090280532837, 0.06963586807250977, -0.13922592997550964, -0.1574414223432541, 0.44811633229255676, 0.3279817998409271, -0.8925867676734924, 0.07621634751558304, -0.062348250299692154, 0.06544039398431778, -0.47298476099967957, -1.0898042917251587, 0.4884486794471741, 0.1280823051929474, 0.11244606226682663, -0.07536210119724274, -0.14076416194438934, -0.1621750146150589, 0.03198697790503502, -0.18069732189178467, -0.18883542716503143, -0.4297581613063812, -0.5097286105155945, -0.011885765939950943, -0.15160219371318817, -0.729630172252655, -0.29678311944007874, -0.3964051306247711, -0.6938087344169617, 0.060484379529953, 0.0816686600446701, 0.3993833363056183, 0.8642812967300415, 0.2298416793346405, 0.06384727358818054, -0.07513508945703506, 0.01735518127679825, 0.016209475696086884, 0.47203969955444336, 0.6694846749305725, 0.07813258469104767, 0.17767255008220673, 0.01933307759463787, 0.04449620842933655, -0.12733465433120728, -0.32563066482543945, 0.13189437985420227, 0.5919767022132874, -0.12128099054098129, -0.12463778257369995, -0.1623505800962448, -0.1155797690153122, -0.04151444509625435, -0.26471030712127686, -0.19104602932929993, -0.22211909294128418, 0.03916556388139725, 0.7454026937484741, 0.311361163854599, -0.23886992037296295, 0.5886609554290771, 0.3146000802516937, -0.08132760226726532, 0.04026348143815994, -0.04498348757624626, 0.00784679502248764, -0.06952664256095886, 0.12232374399900436, 0.7415872812271118, 0.2974187731742859, 0.7243568301200867, 0.26163816452026367, 0.25551551580429077, 0.7082614302635193, 0.09933912009000778, 0.513190746307373, 0.17671330273151398, 0.5579316020011902, 0.8437052369117737, 0.5705461502075195, 0.21593448519706726, -0.17057891190052032, -0.2885436415672302, 0.04767234995961189, 0.7505937218666077, 1.0673941373825073, 0.7569109797477722, 0.2722287178039551, 0.0041535538621246815, -0.1923580914735794, -0.057846106588840485, 0.013317815959453583, 0.02215994894504547, 0.029462769627571106, -0.06410601735115051, 0.07129571586847305, -0.1655268520116806, -0.1686045229434967, 0.06543790549039841, -0.2088102400302887, 0.31380462646484375, 0.47809478640556335, 0.30479124188423157, 0.4303625524044037, 0.3878542184829712, 1.1900079250335693, 1.82931649684906, 1.2445213794708252, 0.6632434129714966, 1.3372085094451904, 1.0901106595993042, 0.7768800854682922, 0.8078441023826599, 1.0411241054534912, 0.6194410920143127, -0.24605269730091095, -0.00831255316734314, -0.05477697402238846, -0.019365616142749786, 0.04014322906732559], [-0.07067128270864487, -0.01950077712535858, 0.02671126276254654, 0.017870843410491943, -0.07933881133794785, -0.026238109916448593, -0.04368792474269867, -0.014450974762439728, -0.05415274202823639, -0.06146661937236786, -0.05098740756511688, -0.05187242105603218, 0.019945135340094566, 0.24377460777759552, 0.30090638995170593, 0.07632531225681305, 0.07232605665922165, -0.009976521134376526, 0.05628388375043869, -0.004065230488777161, 0.03457483649253845, 0.03971792012453079, -0.022311381995677948, 0.0777735486626625, 0.02308502048254013, 0.0022020936012268066, -0.07597451657056808, -0.04279192164540291, -0.05635444447398186, 0.078517846763134, 0.0242718905210495, -0.04375927895307541, 0.2262869030237198, 0.21872475743293762, 0.5155658721923828, 0.3854350745677948, 0.3862684965133667, 0.5305269956588745, 0.5132641196250916, 0.46955606341362, 0.31349948048591614, -0.027300413697957993, -0.32848942279815674, 0.5614327192306519, 0.6846292614936829, 0.6570018529891968, 0.6270132064819336, 0.6219308376312256, 0.5905226469039917, 0.22999878227710724, 0.34239891171455383, 0.49050554633140564, -0.04636780917644501, -0.02562110498547554, -0.05323974788188934, -0.04395169019699097, -0.045067861676216125, 0.013900451362133026, 0.13793066143989563, 0.035413842648267746, 0.09839239716529846, 0.19700311124324799, 0.25627750158309937, 0.8761511445045471, 1.0299994945526123, 1.330681324005127, 1.2140647172927856, 1.4774785041809082, 1.0144368410110474, 0.3063119649887085, 0.1065705195069313, 0.6400596499443054, 0.9268957376480103, 0.28361833095550537, 0.3065587282180786, 0.09079324454069138, 0.0934205949306488, 1.1823433637619019, 0.7730555534362793, 0.6846221685409546, 0.8599268794059753, 0.4236568212509155, 0.06077788025140762, -0.013308785855770111, -0.06344567239284515, -0.005909472703933716, 0.2744213044643402, 0.1579328030347824, 0.2133035510778427, -0.10094661265611649, 0.6190509796142578, 0.9007505774497986, 1.2124652862548828, 1.5817170143127441, 0.7799397706985474, -0.034601978957653046, 0.20389629900455475, 0.04044725000858307, 0.022866511717438698, 0.8924176096916199, 0.6706247329711914, 0.13777421414852142, -0.33462029695510864, -0.367138534784317, -0.04370823875069618, -0.010659702122211456, 0.3970497250556946, 1.0364996194839478, 1.262630581855774, 0.48231950402259827, -0.017789768055081367, 0.0796237662434578, -0.04800443351268768, -0.18078824877738953, -0.1215628832578659, -0.1818258911371231, -0.564885675907135, -1.0693190097808838, -0.24103529751300812, 0.24634641408920288, 0.3215442895889282, 0.6034809947013855, 0.31389352679252625, -0.2450874000787735, -0.11594345420598984, -0.010240216739475727, 0.4135746657848358, 0.7469240427017212, 0.7157214283943176, 1.065631628036499, 0.8723026514053345, 0.8667011857032776, 0.6774086356163025, 0.20176567137241364, 0.3781445026397705, 0.18731917440891266, 0.3398248255252838, 0.4826669692993164, 0.12002144008874893, 0.6978104710578918, -0.018711932003498077, 0.04475273936986923, 0.6226825714111328, 0.0022334058303385973, -0.006226023193448782, -0.2388736605644226, 0.46226534247398376, 0.9024680852890015, 0.29923921823501587, -0.4098455011844635, -0.3061597943305969, -0.46220213174819946, -0.23603582382202148, 0.07176169753074646, 0.14472316205501556, 0.6535035371780396, 0.4067847728729248, 0.3325653672218323, 0.37465861439704895, 0.31371575593948364, -0.5041143894195557, -0.04627025127410889, -0.055923834443092346, 0.2081718146800995, 0.7011638879776001, 0.15200737118721008, 0.3074518144130707, 0.5464557409286499, -0.05528549477458, 0.11249800026416779, -0.19194798171520233, 0.09664043039083481, 0.2765195369720459, 0.5663123726844788, 0.9335043430328369, 0.40568962693214417, 0.03770006075501442, -0.39135947823524475, 0.011413929052650928, -0.04252537712454796, 0.09952514618635178, 0.2313692718744278, 0.3626765012741089, 0.8116180896759033, 0.5046115517616272, 0.2855246067047119, -0.1903846710920334, -0.3164006769657135, -0.2752438187599182, -0.6248499155044556, -0.38004159927368164, -0.3394983112812042, -0.20593617856502533, -0.3141196370124817, -0.10567913949489594, 0.05092810094356537, -0.09302064031362534, 0.6784906387329102, 0.15300056338310242, -0.3104306757450104, 0.44134020805358887, -0.17716309428215027, 0.687169075012207, -0.323235422372818, -0.25008851289749146, -0.17208346724510193, -0.2647857069969177, 0.20493724942207336, 0.2687374949455261, 0.4223262369632721, 0.681954562664032, 0.6754884719848633, 0.48439693450927734, -0.06917513161897659, -0.1911858767271042, -0.16457253694534302, -0.13945268094539642, -0.5422471165657043, -0.3685469627380371, -0.07960455864667892, 0.08797360211610794, -0.1727515310049057, -0.1673775017261505, 0.07326659560203552, 0.05638139322400093, 0.721572756767273, -0.04095457121729851, -0.06297924369573593, -0.14397427439689636, -0.42586809396743774, 0.1034163162112236, 0.14047175645828247, 0.049310214817523956, -0.022263318300247192, 0.1784915328025818, 0.20517657697200775, 0.47310152649879456, 0.552081823348999, 0.41268816590309143, 0.18816496431827545, -0.034707244485616684, -0.27698278427124023, -0.18061520159244537, -0.38161998987197876, 0.06684514135122299, -0.4569427967071533, -0.3757525384426117, -0.42891553044319153, -0.5805023908615112, -0.6905338168144226, 0.04732732102274895, 0.2739291787147522, -0.017739340662956238, -0.07808014750480652, -0.11867896467447281, 0.7853962779045105, 0.5502278804779053, 0.5608639121055603, 0.19465209543704987, 0.6199769377708435, 0.47333571314811707, 0.329799085855484, 0.05258199945092201, -0.19134609401226044, 0.022971492260694504, 0.30160003900527954, 0.6740885376930237, 0.35018765926361084, -0.10435618460178375, -0.3358270227909088, -0.07424227148294449, -0.007496608421206474, -0.17750459909439087, -0.18071459233760834, -0.14595119655132294, -0.21130450069904327, -0.7063053846359253, -1.1666302680969238, 0.03773528337478638, -0.5013747811317444, 0.05843985080718994, -0.2513621151447296, -0.04985875263810158, -0.5834591388702393, -0.3421419858932495, 0.6868407130241394, 0.22038865089416504, 0.3085537552833557, -0.03446992486715317, -0.1695692092180252, -0.3713461458683014, -0.3129537105560303, 0.19140680134296417, 0.6049134135246277, 0.9907919764518738, 0.48821964859962463, 0.1295064240694046, 0.06932833790779114, -0.046012744307518005, -0.05940396338701248, 0.14655062556266785, -0.05158132687211037, -0.12988552451133728, 0.6434352993965149, 0.004251724109053612, -0.32014262676239014, -0.7678137421607971, -0.556877076625824, 0.014853253960609436, 0.1630474328994751, 0.03688620775938034, -0.25450462102890015, 0.12197080999612808, 0.478415310382843, 0.3619600534439087, 0.1725618988275528, -0.02896716631948948, -0.05827277898788452, -0.4307098686695099, -0.4281022250652313, 0.06641969829797745, 1.284793734550476, 1.5651769638061523, 0.9071421027183533, 0.6473290920257568, 0.6026476621627808, 0.5956211090087891, 0.6008453369140625, 1.1589733362197876, 1.2987786531448364, 1.2577193975448608, 1.4867496490478516, 1.4666355848312378, 0.4900467097759247, -0.22117561101913452, -0.5022129416465759, -0.07620196044445038, 0.014251223765313625, -0.34146955609321594, -0.0692955031991005, 0.13342685997486115, 0.2947489321231842, 0.13703997433185577, 0.20412254333496094, 0.1584572196006775, 0.1185673251748085, -0.5484018325805664, -0.4391493499279022, 0.0944291353225708, 0.7017484307289124, 1.1360853910446167, 0.9761307835578918, 0.6684960722923279, 0.8273442387580872, 1.0832881927490234, 1.4266607761383057, 0.9276754260063171, 1.3236565589904785, 1.2837677001953125, 0.8511143326759338, 0.43164879083633423, 0.9843493103981018, 1.3184717893600464, 0.42506930232048035, -0.01765337958931923, -0.03930322453379631, -0.3114217221736908, -0.34341657161712646, -0.08929393440485, -0.13860002160072327, 0.264800488948822, -0.12356530874967575, 0.014147688634693623, 0.12030952423810959, -0.6192696690559387, -0.6392120122909546, -0.4299004077911377, 0.5182543992996216, 0.6968299746513367, 0.5451170206069946, 0.336039274930954, 0.3781405985355377, 0.7725083231925964, 0.9125111103057861, 0.29823973774909973, 0.14267969131469727, 0.27159327268600464, -0.43854957818984985, 0.25762319564819336, 0.7729693055152893, 1.3455413579940796, 0.6846140027046204, -0.4941959083080292, -0.29801875352859497, -0.048390280455350876, -0.36459994316101074, -0.2889370620250702, -0.6672631502151489, -0.19114133715629578, -0.3718531131744385, -0.03151095658540726, -0.31180456280708313, -0.8097163438796997, -0.5381919741630554, -0.37625154852867126, 0.13915875554084778, 0.5074325799942017, 0.38263818621635437, 0.024196913465857506, -0.1009102314710617, 0.27122727036476135, 0.11550741642713547, -0.12829524278640747, -0.18147020041942596, -0.5466549396514893, -0.40114250779151917, -0.1576673835515976, 0.22106434404850006, 1.2352927923202515, 0.5829625725746155, -0.38079553842544556, -0.3574797213077545, -0.1918705403804779, -0.2088201493024826, -0.22909331321716309, -0.04134020954370499, -0.2563815414905548, -0.29533684253692627, -0.22471275925636292, -0.5068842172622681, -0.7063800692558289, -0.4822392761707306, -0.22724811732769012, 0.18583287298679352, 0.37362998723983765, 0.5059272646903992, -0.05694996193051338, -0.1830175668001175, 0.09612521529197693, 0.02196090668439865, 0.03054364211857319, -0.24703039228916168, -0.7467750906944275, -0.45871949195861816, -0.22552935779094696, -0.06654729694128036, 0.12621550261974335, 0.37774747610092163, 0.24461966753005981, 0.021111849695444107, 0.1300947368144989, 0.41673901677131653, 0.07994454354047775, -0.06926228851079941, -0.12126345187425613, -0.09943988174200058, -0.2711479663848877, -0.5644912719726562, -0.3471122682094574, -0.3033490777015686, -0.05378227308392525, 0.17457424104213715, 0.44118770956993103, 0.24182060360908508, 0.0815853402018547, -0.3517147898674011, -0.4168461561203003, -0.306317538022995, -0.44338491559028625, -0.3680654764175415, -0.48868751525878906, -0.08106679469347, -0.15765006840229034, 0.16364695131778717, 0.2656472325325012, 0.23248474299907684, 0.06097259372472763, -0.19586677849292755, -0.1428758054971695, 0.31406864523887634, 0.0880856066942215, 0.287794828414917, 0.09219594299793243, 0.10639922320842743, 0.2138817310333252, -0.16242294013500214, -0.39580684900283813, -0.33337852358818054, -0.11855390667915344, 0.11008516699075699, 0.20571979880332947, -0.08273375034332275, -0.2865486145019531, -0.2953994870185852, -0.49262377619743347, -0.21160301566123962, 0.1974671185016632, 0.11496354639530182, 0.1552787721157074, -0.05339333042502403, 0.1447562426328659, 0.4451603591442108, 0.011913968250155449, 0.4863910675048828, 0.1294536292552948, -0.25202953815460205, -0.19362014532089233, 0.1785949319601059, -0.04172990843653679, 0.5190907120704651, 0.2068176567554474, 0.2474190592765808, 0.8680944442749023, 0.2926785945892334, 0.13083520531654358, -0.0858067125082016, -0.29973843693733215, -0.22879678010940552, -0.044047191739082336, -0.12484844028949738, -0.29499107599258423, 0.05859844386577606, -0.08165224641561508, -0.251165509223938, 0.07077308744192123, -0.1129487156867981, 0.42170122265815735, 0.4121055603027344, 0.4006430506706238, 0.4415590167045593, -0.45503467321395874, 0.08448011428117752, -0.11559204757213593, 0.4905183017253876, -0.20649626851081848, -0.4007929563522339, -0.23815539479255676, -0.272527813911438, -0.3323593735694885, 0.37604621052742004, -0.03186701238155365, 0.1199454590678215, 0.1685018390417099, 0.38799652457237244, 0.41822320222854614, 0.04016464948654175, 0.18418478965759277, 0.10104944556951523, -0.037405677139759064, 0.15732342004776, 0.11666672676801682, 0.047181226313114166, -0.11318837851285934, -0.02981053851544857, 0.3154071569442749, -0.23371697962284088, -0.01776747778058052, 0.2259661853313446, 0.4479692876338959, 0.3261033296585083, 0.02368161827325821, -0.1377914696931839, 0.5253926515579224, 0.018677862361073494, -0.05530402436852455, 0.14244461059570312, -0.20119395852088928, 0.1392369568347931, -0.173703134059906, -0.0037328547332435846, 0.13909120857715607, -0.0009711526217870414, 0.12987540662288666, 0.1334567368030548, 0.42194125056266785, 0.06526187807321548, -0.15941958129405975, -0.09626413881778717, -0.14978672564029694, -0.18840454518795013, -0.08517071604728699, -0.11037368327379227, -0.21374253928661346, -0.43196845054626465, -0.2518223822116852, -0.2870156466960907, 0.5352039933204651, -0.3329872786998749, -0.008980180136859417, -0.002862983848899603, 0.5004734396934509, 0.284074068069458, 0.07291257381439209, 0.5472041368484497, 0.45242735743522644, -0.18180863559246063, -0.5274523496627808, -0.2718021273612976, -0.24262727797031403, -0.2980191707611084, -0.0841296836733818, 0.5315287709236145, 0.18701663613319397, -0.03773888945579529, 0.11377126723527908, -0.08310464769601822, -0.19795964658260345, -0.18419364094734192, -0.060225699096918106, -0.3318072259426117, -0.15504498779773712, -0.33292272686958313, -0.41885578632354736, -0.5334091782569885, 0.5982540845870972, 0.0654304102063179, 0.08637554198503494, 0.035786066204309464, 0.8391440510749817, 0.7328742146492004, 0.14387787878513336, 0.549764096736908, 0.16571207344532013, -0.008630759082734585, -0.02535407617688179, -0.15590587258338928, -0.18940570950508118, -0.15368244051933289, 0.2329695075750351, 0.760991632938385, 0.3131614923477173, 0.08820673823356628, -0.013466211035847664, -0.1265110969543457, -0.21207745373249054, -0.2655789256095886, -0.07780168950557709, 0.05647478625178337, -0.04470151290297508, -0.6122756004333496, 0.2568254768848419, -0.2741549015045166, -0.3360191881656647, 0.04713572934269905, 0.0829397514462471, -0.019791238009929657, -0.2759440243244171, -0.022165365517139435, 0.15991999208927155, 0.1102757528424263, 0.3287161588668823, 0.04082787036895752, -0.11587436497211456, 0.22946342825889587, -0.14406253397464752, -0.18269838392734528, 0.03236469253897667, 0.40505772829055786, 0.0929456576704979, -0.2010699063539505, -0.13092413544654846, -0.12752468883991241, -0.042551010847091675, -0.20107722282409668, -0.019323477521538734, 0.22659510374069214, 0.2543697655200958, -0.6964548826217651, 0.18242737650871277, -0.4239955246448517, -0.40218663215637207, -0.055036261677742004, -0.032888226211071014, 0.03195369988679886, -0.23278126120567322, -0.2967997193336487, -0.09347976744174957, -0.3604056239128113, 0.16145406663417816, 0.36364564299583435, 0.11985524743795395, 0.005793473683297634, 0.7066230773925781, 0.0773349180817604, 0.2573716640472412, 0.24093498289585114, 0.05352211371064186, -0.04412301629781723, 0.007715295068919659, -0.38228839635849, -0.3546687364578247, -0.013019685633480549, 0.07547038048505783, -0.2714887261390686, -0.2782626450061798, -0.8748453259468079, -0.502018928527832, 0.8235491514205933, 0.5315502285957336, -0.0786503255367279, -0.022661730647087097, 0.021350733935832977, -0.11537022143602371, -0.30974307656288147, -0.22864006459712982, 0.4335095286369324, 0.6244548559188843, 0.3382701575756073, 0.39937371015548706, 1.0176539421081543, 0.8112497925758362, 0.3229486644268036, 0.9953135251998901, 0.5600252747535706, 0.41105785965919495, 0.19481779634952545, 0.1809837520122528, -0.18965110182762146, -0.2758291959762573, 0.021435461938381195, 0.06906106323003769, -0.13671435415744781, -0.48067572712898254, -0.45441073179244995, -0.30941110849380493, 0.35798072814941406, 0.3403179943561554, 0.029837973415851593, -0.07958675920963287, 0.08583606034517288, 0.04246700555086136, 0.01625777967274189, -0.045648690313100815, 0.8222852945327759, 0.4035211205482483, 0.3261840045452118, 0.11748109012842178, 0.6603600978851318, 0.6418243646621704, 0.4221910238265991, 0.6899531483650208, 0.6421771049499512, 1.175108551979065, 0.5618790984153748, 0.6048415303230286, 0.8710374236106873, 0.7780855894088745, 0.8601829409599304, -0.10397656261920929, -0.2458411604166031, -0.2614505887031555, 0.18185454607009888, -0.43724945187568665, 0.13565604388713837, -0.08258447051048279, -0.02466815710067749, -0.03800005093216896, 0.07797908037900925, 0.03066413104534149, 0.054061390459537506, -0.007976535707712173, 0.021108577027916908, -0.13947945833206177, -0.06111292168498039, -0.14876636862754822, -0.18631581962108612, -0.022826923057436943, -0.09610351920127869, 0.07644697278738022, 0.8054435849189758, 1.2157286405563354, 0.45373737812042236, 0.5093146562576294, 0.46173396706581116, 0.20189380645751953, 0.19599732756614685, -0.44488340616226196, -0.15614940226078033, 0.06205422803759575, 0.3494184613227844, 0.042772166430950165, 0.07612156122922897, 0.031040340662002563, 0.05862129479646683], [0.06301452964544296, 0.08175279945135117, 0.016810819506645203, 0.08512996882200241, -0.006055504083633423, 0.08137767761945724, -0.0039500892162323, 0.031662747263908386, 0.05163804441690445, 0.05806458741426468, 0.05510524660348892, 0.020570993423461914, 0.07463839650154114, 0.46362483501434326, 0.44179919362068176, 0.24819506704807281, -0.07830321043729782, 0.07713337987661362, -0.023543119430541992, -0.03077564761042595, 0.06956727057695389, -0.0034901052713394165, -0.021361641585826874, -0.01672065258026123, 0.08336805552244186, -0.0732494592666626, 0.016653329133987427, 0.07638701051473618, 0.0314054936170578, -0.004852809011936188, 0.07775498181581497, -0.056427109986543655, 0.2625349164009094, 0.4468102753162384, 0.5078105330467224, -0.01476767286658287, 0.050781089812517166, 0.061215635389089584, 0.2705511152744293, 0.3704380691051483, 0.7974348068237305, 0.894644558429718, 0.10180199891328812, 0.4235917925834656, 0.7083647847175598, 1.359291672706604, 0.35172876715660095, 0.2875674366950989, 0.4767128825187683, 0.471569687128067, 0.7976929545402527, 0.5099055171012878, 0.01901184767484665, -0.010091803967952728, -0.03808823227882385, -0.037414200603961945, 0.004400148987770081, 0.044609434902668, 0.14640986919403076, 0.4336509704589844, 0.5884959697723389, -0.2173302173614502, 0.42396843433380127, 0.8453315496444702, 0.4690151512622833, 0.6689055562019348, 0.5757758617401123, 0.7108866572380066, 1.0788503885269165, 0.3815707564353943, 0.5546958446502686, 0.7780592441558838, 0.7266520857810974, 0.8556918501853943, 1.1871734857559204, 1.2817707061767578, 1.10397469997406, 1.0929913520812988, 0.7011624574661255, 0.42680540680885315, 0.7615218162536621, 0.5779179930686951, -0.0452674999833107, -0.08255237340927124, -0.07969596236944199, 0.028241202235221863, -0.18040192127227783, 0.5029632449150085, -0.012300527654588223, 0.031796615570783615, 0.5634374618530273, 0.08748617023229599, 0.09850023686885834, 0.02954735979437828, 0.07017768919467926, 0.6592819094657898, 1.7134196758270264, 1.3377130031585693, 1.0196101665496826, 1.034454345703125, 1.4202089309692383, 1.2708559036254883, 0.9625844359397888, 0.8236911296844482, 0.9240739941596985, 0.9842039346694946, 0.3642120063304901, 0.9097321033477783, 0.9144793748855591, 0.2101670503616333, 0.0008744593942537904, 0.013197451829910278, 0.004556693136692047, 0.04367139935493469, -0.05729372054338455, 0.20372368395328522, -0.45930805802345276, -0.28162768483161926, 0.05231787636876106, 0.03689980506896973, -0.6524374485015869, 0.2152719646692276, 0.6164189577102661, 0.3942248821258545, 0.36381474137306213, 0.010078000836074352, 0.24111154675483704, 0.1104017049074173, 0.28686559200286865, 0.6652517318725586, 0.7940589785575867, 0.5039846897125244, 0.4002726972103119, 0.9722011089324951, 0.26886850595474243, 0.1721573919057846, -0.08396822214126587, 0.7055471539497375, 0.4965288043022156, 0.1534804403781891, 0.005869172513484955, 0.010368920862674713, 0.3680223822593689, -0.21363142132759094, 0.12168662250041962, -0.4287807047367096, -0.18824519217014313, -0.3059695065021515, -0.08498382568359375, -0.12186917662620544, 0.6797544956207275, 0.5690357685089111, 0.1937858909368515, 0.3964446187019348, 0.183815598487854, -0.04310951009392738, -0.07751975208520889, 0.3076153099536896, 0.5842026472091675, 0.8120158910751343, 0.6822801828384399, 0.7888699173927307, 0.2482859045267105, -0.031243326142430305, -0.03848997503519058, 0.4748013913631439, 0.3857327997684479, 0.1180734634399414, 0.06800525635480881, 0.0581839382648468, 0.2453688085079193, 0.8623709678649902, -0.2704245150089264, -0.5523649454116821, 0.05804174393415451, -0.22939954698085785, 0.11263615638017654, 0.37670162320137024, 0.6437612771987915, 0.43410539627075195, 0.35994088649749756, 0.5410585403442383, 0.7157552242279053, 0.7525694370269775, 0.9575788378715515, 0.665279746055603, 0.6566575765609741, 0.43029966950416565, 0.8113295435905457, 0.3908579647541046, 0.23521456122398376, -0.34439337253570557, 0.20023436844348907, -0.2947790026664734, 0.6722884774208069, 0.36578530073165894, -0.13091686367988586, 0.23070231080055237, 0.03654632717370987, 0.33568617701530457, -0.19720131158828735, -0.630695104598999, 0.032271869480609894, -0.21928580105304718, 0.018071308732032776, 0.2626904547214508, 0.48819857835769653, 0.26873910427093506, 0.5542536377906799, 0.8418106436729431, 0.9219143986701965, 1.112006664276123, 0.9061851501464844, 0.2104426920413971, 0.32858994603157043, -0.0014357998734340072, -0.08806747198104858, 0.047642145305871964, -0.06254690140485764, -0.5560013055801392, -0.460239976644516, -0.534452497959137, 0.6243591904640198, 0.39701583981513977, 0.3386615216732025, 0.3206290304660797, -0.5185676217079163, -0.25029993057250977, -0.2289276123046875, -0.3915557563304901, -0.3358527421951294, 0.03861622139811516, -0.03768189996480942, 0.2971595525741577, 0.45327243208885193, 0.4465186595916748, 0.7823050022125244, 0.5973290801048279, 0.5520318746566772, 0.017366038635373116, -0.056892622262239456, -0.47550034523010254, -0.6286354064941406, -0.4460229277610779, -0.4829922914505005, -0.6772163510322571, -0.44525396823883057, -0.21204283833503723, -0.3344762325286865, -0.39189863204956055, 0.8558740615844727, 0.6039526462554932, 0.009718517772853374, -0.025490546599030495, 0.09412834048271179, 0.34887272119522095, 0.21689897775650024, 0.2932213246822357, -0.13430871069431305, 0.0038960613310337067, 0.2600632309913635, 0.6116682887077332, 0.5000689029693604, 0.1681441217660904, 0.13418322801589966, -0.23280300199985504, -0.46800240874290466, -0.675491213798523, -1.2678675651550293, -1.0673052072525024, -1.0672943592071533, -0.8922654390335083, -0.5289661884307861, -0.38527408242225647, -0.5708212852478027, -0.5163592100143433, 0.024617044255137444, 0.06700673699378967, 0.48377054929733276, -0.22926194965839386, 0.05641520023345947, -0.3689243197441101, 0.3120841979980469, 0.3057764768600464, -0.4230632483959198, 0.03594790771603584, 0.05595998093485832, 0.060397349298000336, 0.260845810174942, 0.35755404829978943, 0.3323504626750946, 0.1358148157596588, -0.2289285957813263, -0.2953781187534332, -0.2992706596851349, -0.9416391253471375, -0.7569169402122498, -0.6185237169265747, -0.27049264311790466, -0.31350836157798767, -0.34748899936676025, -0.25162234902381897, -0.5796480774879456, -0.3622031509876251, -0.1326301097869873, 0.06205363944172859, 0.40457475185394287, -0.2286028265953064, -0.40705499053001404, -0.07177485525608063, -0.27502068877220154, 0.1146077960729599, 0.14591604471206665, 0.0034521010238677263, 0.20558002591133118, 0.16268885135650635, 0.1434105485677719, 0.13541558384895325, 0.10988398641347885, -0.0318777970969677, -0.2302522510290146, 0.03233392536640167, 0.03998827189207077, -0.23341038823127747, -0.05729029327630997, 0.39444902539253235, 0.32258307933807373, 0.13048818707466125, -0.2466098517179489, -0.012257037684321404, -0.34806087613105774, -0.4063068628311157, -0.4826049208641052, -0.09542053937911987, 0.28061774373054504, -0.4383823871612549, -0.2766227722167969, 0.49128779768943787, -0.009281436912715435, -0.1596621572971344, 0.127186581492424, 0.36826643347740173, 0.1445387303829193, 0.052322324365377426, -0.024939624592661858, -0.06348244100809097, -0.06529495120048523, -0.19850780069828033, -0.3207654356956482, -0.06490026414394379, 0.31679216027259827, 0.05409890040755272, 0.32991817593574524, 0.21034814417362213, 0.16875171661376953, 0.05383720621466637, -0.19055862724781036, -0.1881982535123825, -0.5559824705123901, -0.617936909198761, -0.4476408064365387, -0.6108265519142151, -0.13815580308437347, 0.3429965376853943, -0.1831265389919281, 0.4482617974281311, 0.5182306170463562, 0.011605502106249332, -0.4944649934768677, -0.09456052631139755, -0.08652803301811218, -0.16726726293563843, -0.3274340033531189, -0.25207412242889404, -0.17138798534870148, -0.20575781166553497, -0.2414253056049347, -0.019124001264572144, -0.007365723606199026, -0.10576529800891876, -0.16654010117053986, -0.2540349066257477, -0.052500344812870026, 0.432812362909317, -0.1440078765153885, -0.09402565658092499, 0.1268109530210495, 0.005003487225621939, -0.30543211102485657, -0.5158735513687134, -0.04668203741312027, 0.7054232954978943, -0.1881798505783081, -0.231890007853508, 0.587333619594574, -0.1733873337507248, -0.8015778064727783, -0.44408082962036133, 0.20216935873031616, -0.009472228586673737, -0.28818556666374207, -0.19888630509376526, 0.2076328545808792, 0.1997327357530594, -0.25160089135169983, -0.12408056855201721, 0.039622485637664795, -0.23645445704460144, -0.5667049288749695, -0.34247833490371704, -0.176942378282547, 0.013796307146549225, -0.10524726659059525, 0.29773515462875366, -0.15831395983695984, 0.18694959580898285, 0.05875912681221962, -0.15966394543647766, 0.2712503671646118, 0.6109933257102966, -0.08394834399223328, -0.19656310975551605, -0.6901897192001343, -0.09088988602161407, -0.4702022671699524, -0.5060755610466003, -0.06073582172393799, -0.21708834171295166, -0.19475272297859192, -0.0929408073425293, -0.010981185361742973, 0.057613398879766464, -0.060102153569459915, -0.21971090137958527, -0.1846737116575241, -0.25778040289878845, -0.5922430157661438, -0.5363967418670654, 0.0739167183637619, 0.24855957925319672, 0.21919043362140656, 0.0920642614364624, -0.38706719875335693, 0.2652866244316101, 0.8782959580421448, 0.6993215680122375, 0.19739654660224915, 0.24455466866493225, -0.008242773823440075, 0.12827402353286743, -0.05270875617861748, 0.3120913803577423, 0.21778324246406555, -0.34960535168647766, -0.5624114274978638, -0.6130337119102478, -0.681952178478241, 0.11820689588785172, 0.17690275609493256, 0.388347327709198, 0.22713524103164673, -0.12937025725841522, -0.34755805134773254, -0.4794062376022339, -0.41961345076560974, -0.2893182039260864, -0.22916769981384277, 0.0337890088558197, -0.10750505328178406, -0.22976630926132202, 0.024391161277890205, 0.4774349629878998, 0.51822429895401, 0.6136394739151001, 1.0265735387802124, 0.07553759217262268, -0.004502348601818085, -0.6202018857002258, 0.024274708703160286, 0.5955109000205994, 0.46322742104530334, -0.17297156155109406, -0.625198245048523, -0.5573850274085999, -0.45532429218292236, 0.07913067936897278, 0.16477684676647186, 0.3437052071094513, 0.2804732918739319, -0.30769097805023193, -0.4259112477302551, -0.4641730785369873, -0.23169179260730743, -0.2255120873451233, -0.2022172510623932, 0.09363468736410141, -0.010816984809935093, -0.07005276530981064, 0.046841222792863846, -0.035324323922395706, 0.28698819875717163, 0.30952340364456177, 0.5569337010383606, 0.5820385813713074, 0.37941253185272217, -0.5439162254333496, 0.040590085089206696, 0.14459018409252167, 0.1289939433336258, -0.32235610485076904, -0.299669086933136, 0.07376659661531448, -0.020858779549598694, -0.07138369977474213, -0.030554646626114845, -0.08431699126958847, -0.22896572947502136, -0.4180539846420288, -0.5602819323539734, -0.39297541975975037, -0.584128737449646, -0.13363492488861084, -0.3328874707221985, -0.14744099974632263, -0.10231606662273407, -0.21551716327667236, 0.10975676774978638, 0.02395026758313179, 0.3474172353744507, 0.027193916961550713, -0.31388694047927856, -0.20851381123065948, -0.42862558364868164, 0.5815423727035522, -0.28451570868492126, -0.006795714143663645, -0.1252449005842209, -0.6135610342025757, -0.3485586941242218, -0.04239998385310173, -0.24310369789600372, -0.27156171202659607, -0.25724127888679504, -0.43501755595207214, -0.059464048594236374, -0.402005136013031, -0.37884604930877686, -0.44659507274627686, -0.36427292227745056, 0.19314922392368317, -0.03536220267415047, 0.4955901503562927, 0.1421326845884323, -0.18091101944446564, 0.48252660036087036, 0.5226984620094299, 0.6810169816017151, 0.15096692740917206, 0.20331966876983643, -0.5822925567626953, -0.06258074194192886, 0.41127023100852966, 0.6291118860244751, 1.0415855646133423, 0.6872221827507019, 0.09570375829935074, -0.07024295628070831, -0.056654006242752075, 0.10205914825201035, 0.06624281406402588, 0.4011829197406769, 0.07392293214797974, 0.36273497343063354, 0.310452401638031, -0.02938646823167801, 0.1307431161403656, -0.12963682413101196, 0.07025165110826492, 0.08861742168664932, 0.433684766292572, 0.5546249151229858, 0.27476590871810913, 1.009801983833313, 0.3782619833946228, 0.32250893115997314, 0.2809014320373535, 0.1728401780128479, -0.4400370419025421, -0.3599928617477417, 0.23499585688114166, 0.43383434414863586, 0.8170649409294128, 1.4182723760604858, 0.4715912342071533, 0.9461431503295898, 0.9125072956085205, 0.5662201046943665, 0.43873414397239685, 0.7753917574882507, 0.6891289353370667, 0.8372780084609985, 0.6896213889122009, 0.33184030652046204, 0.20743104815483093, 0.3271414339542389, 0.24383021891117096, 0.180194690823555, 0.209300696849823, 0.6656385064125061, 0.19917608797550201, 0.06116080656647682, 0.29866501688957214, 0.22779521346092224, 0.49478086829185486, 0.7374078035354614, -0.04326844960451126, -0.24666476249694824, -0.2573898136615753, 0.11250273883342743, 0.9001445174217224, 1.449886441230774, 1.1081124544143677, 0.737767219543457, 0.7632524967193604, 0.6542931795120239, 0.7933562994003296, 0.6046038269996643, 0.4805542230606079, 0.4763874411582947, 0.3727969527244568, 0.3769519031047821, 0.2655775547027588, 0.2368861585855484, -0.06521663069725037, -0.00030758115462958813, -0.35023459792137146, -0.013917811214923859, -0.06379791349172592, -0.08001534640789032, -0.0689249113202095, -0.0695740282535553, 0.15167836844921112, 0.14702540636062622, -0.03205546736717224, 0.07037975639104843, 0.006578102707862854, 0.10238194465637207, 0.5544564723968506, 0.9101212024688721, 1.142411470413208, 0.42517387866973877, -0.10045286267995834, -0.16635499894618988, 0.09406489878892899, 0.01039724238216877, 0.139398992061615, -0.14596176147460938, -0.022278472781181335, 0.11823652684688568, -0.09471983462572098, -0.10993348062038422, -0.24313457310199738, 0.09681876748800278, -0.30315324664115906, 0.07716801762580872, -0.02135046012699604, 0.09387165307998657, 0.5971348881721497, 0.3808988034725189, 0.347881942987442, -0.5367212891578674, 0.07930495589971542, 0.07665229588747025, 0.060888566076755524, -0.25921130180358887, 0.6378446221351624, 1.2489267587661743, 0.5264643430709839, 0.43430399894714355, 0.05917047709226608, -0.1141330674290657, -0.12135928124189377, 0.07389314472675323, 0.21343885362148285, 0.2065700888633728, 0.10971327871084213, 0.25039786100387573, 0.4127972722053528, 0.3852560818195343, -0.11444021761417389, 0.1563439518213272, 0.04256478324532509, 0.24583962559700012, 0.3997338116168976, 0.37400421500205994, -0.14104023575782776, 0.011403154581785202, -0.3055110573768616, -0.11272461712360382, 0.03934294730424881, -0.009503863751888275, 0.058942295610904694, 0.04664146155118942, 0.28746649622917175, 0.5867329239845276, 0.4207425117492676, 0.227260559797287, 0.04800979793071747, 0.10846102982759476, 0.3092106580734253, 0.4748423099517822, 0.43772363662719727, 0.6914966702461243, 0.4540043771266937, 0.6153244972229004, 0.4112999439239502, 0.5394346714019775, 0.6492361426353455, 0.4722161293029785, 0.3236793875694275, 0.11857601255178452, 0.11539047956466675, -0.10483597218990326, -0.3521052300930023, 0.25915107131004333, 0.04810803011059761, 0.38938841223716736, -0.05941954255104065, -0.06362491846084595, 0.0016285404562950134, 0.04215770214796066, 0.18014633655548096, -0.0831913948059082, 0.0297408327460289, 0.04604506120085716, -0.23893389105796814, -0.031233660876750946, -0.5747736692428589, 0.12897001206874847, 0.5684854984283447, 0.09518859535455704, -0.11188457161188126, 0.26179635524749756, -0.006898551248013973, 0.24995651841163635, 0.5251556634902954, 0.9963688254356384, 0.6228182911872864, 0.5793947577476501, 0.6180562376976013, 0.6379919052124023, 0.437909871339798, 0.18711575865745544, 0.25458666682243347, 0.019443750381469727, -0.022114522755146027, 0.04268357902765274, 0.06509726494550705, 0.042436517775058746, -0.014545641839504242, 0.5576037764549255, 0.5771927237510681, 0.6323159337043762, 0.8238980174064636, 0.350595086812973, 0.18914051353931427, 0.41193145513534546, -0.13015562295913696, -0.025264421477913857, 0.6407314538955688, -0.024178773164749146, -0.9673530459403992, -0.536753237247467, -0.4119165241718292, 0.4759874641895294, 0.6609823703765869, -0.5524574518203735, -0.00040908760274760425, 0.05216018110513687, 0.40078163146972656, 0.06049384921789169, 0.018203675746917725, -0.02738453820347786, -0.009230293333530426], [0.05341806262731552, 0.0629991814494133, 0.047969602048397064, 0.05958808213472366, -0.024245094507932663, -0.009767122566699982, 0.010777220129966736, -0.0055291131138801575, 0.01713978499174118, 0.011265166103839874, -0.04692959040403366, 0.012377925217151642, 0.009857019409537315, 0.1709960401058197, 0.47032976150512695, 0.23515696823596954, -0.06646117568016052, -0.07280776649713516, 0.04183477908372879, -0.08318868279457092, -0.08256009221076965, -0.050305042415857315, 0.046602778136730194, -0.03460155054926872, 0.05484239012002945, 0.04040702432394028, 0.02837492525577545, 0.03890260308980942, 0.03270263224840164, 0.02986855059862137, -0.03824114054441452, -0.05726021155714989, 0.04928228259086609, -0.014849922619760036, -0.10426856577396393, -0.15147735178470612, 0.05563201755285263, 0.011730761267244816, -0.08251140266656876, -0.1800471693277359, -0.3073480427265167, -0.18784497678279877, -0.3930881917476654, 0.1035269945859909, 1.0164395570755005, 0.9255720376968384, -0.07265036553144455, -0.5878446698188782, -0.45893964171409607, -0.2780921161174774, 0.03363441675901413, 0.1564321517944336, -0.029421236366033554, -0.03833670914173126, -0.043259378522634506, 0.01035289466381073, 0.04963671416044235, 0.037383414804935455, 0.06264766305685043, 0.40310949087142944, 0.1496652066707611, -0.32949650287628174, -0.12187255173921585, -0.11138273775577545, 0.5222280025482178, 0.8339776992797852, 0.4865310490131378, 0.1740330010652542, 0.8138282895088196, 0.7381067276000977, 0.6371241211891174, 0.6795516014099121, 0.4132527709007263, 0.2806995213031769, 0.0933276116847992, -0.3583698868751526, 0.19986677169799805, 0.5642926692962646, 0.17456994950771332, -0.01804973930120468, 0.49640002846717834, 0.5383220911026001, -0.029059212654829025, -0.012852504849433899, 0.0044175684452056885, 0.004498198628425598, 0.3381601870059967, 0.2661227285861969, 0.02802889421582222, -0.02767629735171795, -0.07140009105205536, -0.13475368916988373, 0.4307076632976532, 0.6890335083007812, 0.3010498881340027, 0.6433104872703552, 0.6827942728996277, 0.432357519865036, -0.005282215308398008, 0.08378073573112488, 0.209296315908432, 0.10312706977128983, -0.5427295565605164, -0.6937347054481506, -0.4148733615875244, -0.22634616494178772, -0.2346341758966446, -0.2924656569957733, 0.16235533356666565, -0.05148859694600105, -0.15221770107746124, -0.06630150973796844, 0.04064939171075821, -0.1546144038438797, 0.3992041051387787, -0.3592071831226349, -0.020640425384044647, 0.35821306705474854, 0.24350480735301971, -0.2514149248600006, 0.16023826599121094, 0.5430764555931091, 0.3412981927394867, 0.3415530025959015, 0.18396511673927307, -0.05021412670612335, 0.13037684559822083, 0.23439012467861176, 0.06835076212882996, 0.03311138600111008, 0.1515287160873413, -0.1355142593383789, -0.27077651023864746, -0.3543430268764496, 0.023362839594483376, -0.5609945058822632, -0.47303134202957153, -0.7071701288223267, -0.22052495181560516, -0.3448267877101898, 0.0821615532040596, -0.022715911269187927, 0.4205766022205353, -0.16237887740135193, 0.12304872274398804, 0.0565313957631588, -0.0749761238694191, -0.040602024644613266, 0.035730451345443726, 0.023491855710744858, 0.3043384552001953, 0.2268151491880417, 0.18304532766342163, -0.01846405863761902, 0.060188375413417816, 0.19428960978984833, 0.20523791015148163, 0.08866320550441742, -0.008815699256956577, -0.12032732367515564, -0.21201181411743164, 0.15730278193950653, 0.09515603631734848, 0.1457398682832718, -0.40785425901412964, -1.0208921432495117, -0.5278359055519104, -0.38212308287620544, -0.07542847841978073, 0.24182304739952087, 0.1363757699728012, -0.24981553852558136, 0.07059021294116974, -0.3833477795124054, -0.05067283660173416, -0.20889729261398315, -0.0968407541513443, -0.04297623410820961, 0.23038671910762787, 0.36327698826789856, 0.29416337609291077, 0.49680984020233154, 0.32965943217277527, 0.19005437195301056, -0.14424429833889008, -0.13275982439517975, 0.2741706669330597, -0.021495023742318153, 0.04678451642394066, -0.11902253329753876, 0.12099039554595947, 0.03758528083562851, -0.5850472450256348, -0.6236454844474792, -0.6164872050285339, -0.3033283054828644, -0.0021447218023240566, 0.8319359421730042, -0.04087354615330696, -0.2499094009399414, 0.35179364681243896, 0.2541971802711487, 0.09750406444072723, 0.027847150340676308, 0.14924977719783783, 0.2792726159095764, 0.2632687985897064, 0.5033949613571167, 0.30594807863235474, 0.25628039240837097, 0.19627271592617035, -0.16487810015678406, -0.1288146674633026, -0.21633097529411316, -0.013868617825210094, 0.11581521481275558, -0.04284011572599411, 0.12925627827644348, -0.05761200189590454, -0.011935839429497719, -0.0769798755645752, -0.4160417914390564, -0.468794047832489, -0.4138295352458954, 0.15189510583877563, 0.1626710742712021, -0.6828324794769287, -0.09740420430898666, 0.35089701414108276, 0.15571777522563934, -0.07861917465925217, 0.13370823860168457, 0.1225227564573288, 0.45478612184524536, 0.486552894115448, -0.005594517569988966, -0.00922368187457323, -0.20697230100631714, -0.2389838844537735, -0.21327070891857147, -0.01551422942429781, 0.002937085460871458, 0.03665638715028763, -0.07277366518974304, -0.15470872819423676, 0.07385727018117905, 0.3162129521369934, 0.015504131093621254, -0.4644007980823517, -0.6986812353134155, 0.1663769781589508, -0.11978413909673691, 0.14720141887664795, 0.6338503956794739, 0.10005541145801544, -0.1640843003988266, 0.5635075569152832, 0.2229381501674652, -0.04365093633532524, -0.262502521276474, -0.1990535408258438, -0.6256422996520996, -0.8875362277030945, -1.44644296169281, -1.8327875137329102, -1.449509859085083, -1.0735697746276855, -0.15974576771259308, -0.06292673200368881, 0.12484587728977203, 0.16309668123722076, 0.004133952781558037, -0.22625598311424255, 0.11674650013446808, 0.16378985345363617, 0.23348455131053925, -0.8832670450210571, 0.06757991760969162, -0.18221306800842285, -0.1284465342760086, 0.09567098319530487, 0.5094168782234192, 0.09294415265321732, -0.4891439378261566, -0.07223894447088242, -0.55266934633255, -0.9255164861679077, -2.0955004692077637, -2.186798572540283, -3.2232589721679688, -3.377145290374756, -2.8721795082092285, -2.124488115310669, -1.7363743782043457, -0.9305201768875122, -0.39645618200302124, -0.012966034933924675, 0.35683774948120117, 0.12629172205924988, -0.07199302315711975, 0.10043635964393616, 0.03139027580618858, 0.006446758285164833, -0.35622501373291016, -0.7763780355453491, 0.5069124698638916, 0.6650708913803101, 0.31571969389915466, 0.0006538414745591581, 0.6273962259292603, -0.47510674595832825, -0.5083082914352417, -0.9368283748626709, -1.8658696413040161, -2.986992835998535, -3.297774314880371, -2.6778531074523926, -1.7786377668380737, -1.0892070531845093, -0.5524194240570068, -0.37168562412261963, -0.48381510376930237, -0.24994799494743347, 0.029715439304709435, 0.18661540746688843, 0.07864553481340408, -0.1930946409702301, 0.15980833768844604, 0.17316001653671265, -0.13226252794265747, -0.19690264761447906, 0.014661449007689953, -0.16494061052799225, -0.022123103961348534, 0.371099591255188, 0.04828190058469772, 0.08042532205581665, -0.47705337405204773, -0.6273819804191589, -0.33802303671836853, -0.846260666847229, -1.6877548694610596, -2.0854828357696533, -1.4180305004119873, -0.3689262270927429, 0.09298984706401825, 0.569678783416748, 0.641270101070404, 0.36525753140449524, 0.2006807029247284, -0.0627361312508583, -0.19386766850948334, -0.39455729722976685, -0.4458944499492645, -0.1032489463686943, 0.20027843117713928, 0.1690520942211151, -0.14263470470905304, -0.2052071988582611, -0.1314731240272522, 0.23654137551784515, 0.28371816873550415, -0.21324768662452698, -0.14617674052715302, 0.14160864055156708, -0.45427024364471436, 0.24672241508960724, 0.09576700627803802, -0.026722688227891922, -0.1636088490486145, 0.27208662033081055, 0.3179212510585785, 0.5588803291320801, 0.7804432511329651, 0.6113927960395813, 0.49491769075393677, 0.4445290267467499, 0.5737700462341309, 0.17521144449710846, -0.1515526920557022, -0.21528859436511993, 0.06408295780420303, -0.06798407435417175, 0.08079022169113159, -0.049826085567474365, -0.22554947435855865, -0.22269299626350403, -0.2635362446308136, 0.03933181241154671, -0.033274415880441666, -0.3048880398273468, 0.051314666867256165, -0.2533693313598633, -0.5971364378929138, -0.06724057346582413, 0.5321202874183655, 0.6340475678443909, 0.4294193685054779, 0.9210504293441772, 0.640539824962616, 0.4531486928462982, 0.4551069438457489, 0.1660594791173935, 0.03984690085053444, -0.04964067041873932, 0.0017926989821717143, 0.12971124053001404, 0.07118935137987137, -0.08119107782840729, -0.10190512239933014, 0.03810551017522812, 0.11018344014883041, -0.1409633308649063, 0.07563113421201706, -0.102455273270607, -0.36823031306266785, 0.19541190564632416, 0.12332194298505783, 0.4052150845527649, 0.5005967617034912, -0.2986144721508026, -0.27406105399131775, -0.20780222117900848, 0.2183859646320343, 0.270503968000412, 0.44491732120513916, 0.41297292709350586, -0.23590423166751862, 0.012445574626326561, 0.00679393345490098, -0.18564340472221375, -0.1215430200099945, -0.2265806347131729, 0.058987174183130264, 0.027747688814997673, 0.27806800603866577, 0.032527778297662735, -0.11485353857278824, -0.026427119970321655, 0.10198619216680527, -0.12135955691337585, 0.09740625321865082, -0.40649741888046265, -0.09437012672424316, -0.20772285759449005, 0.32782241702079773, 0.2739049792289734, 0.5719999670982361, 0.06962551176548004, 0.33025866746902466, -0.12646105885505676, 0.00774319376796484, 0.2190144807100296, 0.013777264393866062, -0.031290482729673386, -0.2969290316104889, -0.34256264567375183, -0.2515559494495392, -0.2914421856403351, -0.18034814298152924, -0.24487167596817017, -0.13084979355335236, 0.02304413542151451, 0.06581763178110123, -0.04835427552461624, 0.24027790129184723, -0.07898364961147308, -0.016874056309461594, -0.10258152335882187, -0.007361643016338348, -0.10205914825201035, -0.01661340706050396, -0.01995833031833172, 0.02209736779332161, 0.5639204382896423, 0.574080228805542, 0.07534614950418472, 0.10996774584054947, 0.030411241576075554, -0.286577045917511, 0.02543777972459793, 0.007082455791532993, -0.14481106400489807, -0.3036828339099884, -0.103167325258255, -0.09750466048717499, -0.09718190133571625, 0.03118879348039627, -0.15719102323055267, -0.05793978273868561, -0.07832108438014984, -0.16254262626171112, -0.23568758368492126, 0.06294870376586914, -0.1850295215845108, -0.22819805145263672, -0.2835385203361511, -0.07014782726764679, 0.06244276836514473, -0.23234300315380096, 0.08676622807979584, -0.10687047243118286, 0.12416329979896545, 0.5580824017524719, 0.08083665370941162, -0.1168917715549469, -0.14175346493721008, 0.17742407321929932, 0.165338933467865, 0.03401942551136017, -0.08520641177892685, -0.19197840988636017, 0.28420698642730713, 0.38723498582839966, 0.1321117877960205, 0.1263129860162735, 0.03895776346325874, 0.024211129173636436, -0.04712091013789177, -0.10695774108171463, 0.1036536768078804, 0.031231075525283813, -0.03540578857064247, 0.1532398760318756, 0.07299382239580154, 0.17128072679042816, 0.1399218887090683, 0.16675080358982086, 0.07605206966400146, 0.35398560762405396, -0.2134615182876587, 0.5692945718765259, -0.2137097865343094, 0.1637616753578186, -0.04345320910215378, 0.13169753551483154, 0.09436724334955215, -0.0031265083234757185, 0.17107725143432617, 0.07298295199871063, -0.4060518741607666, -0.2849450409412384, -0.07478175312280655, -0.14031091332435608, -0.04298894852399826, 0.24729523062705994, 0.09367597848176956, -0.08311697840690613, 0.0725288838148117, 0.060143228620290756, -0.004065429791808128, -0.07663045823574066, -0.061292558908462524, 0.1524997502565384, 0.33055561780929565, -0.06140237674117088, 0.06414661556482315, 0.0628979504108429, 1.371410608291626, 0.2188769280910492, -0.01303253322839737, 0.08685573190450668, -0.28891658782958984, 0.43422988057136536, 0.21541403234004974, 0.13722743093967438, 0.2266864776611328, -0.16792982816696167, -0.07874966412782669, -0.09319385141134262, 0.17906640470027924, 0.14780539274215698, -0.03646039590239525, 0.060011498630046844, 0.08102282136678696, 0.07959417253732681, -0.18756550550460815, -0.22697484493255615, 0.1455993503332138, 0.10983593016862869, 0.3219706416130066, 0.20656906068325043, 0.5033355951309204, -0.08504077792167664, -0.16740834712982178, 0.3314042091369629, 0.6277825236320496, -0.3421823978424072, -0.09471409022808075, 0.62901771068573, 0.09915730357170105, 0.21171458065509796, 0.29662758111953735, 0.03437002748250961, -0.09565694630146027, 0.0010562099050730467, 0.087961345911026, 0.01743966154754162, 0.09298045188188553, -0.303570419549942, -0.1973779797554016, -0.0906013548374176, 0.009135840460658073, -0.09413345158100128, -0.21866567432880402, -0.0220615416765213, 0.3499205708503723, 0.4062686860561371, 0.28753596544265747, -0.024550627917051315, 0.28194659948349, 0.6106163859367371, 0.169019415974617, -0.015219331718981266, 0.6217394471168518, 0.10514280945062637, -0.07212160527706146, 0.27437061071395874, 0.5967516899108887, 0.011735665611922741, -0.04760434851050377, -0.2751999497413635, -0.011585044674575329, -0.09110133349895477, 0.05729711055755615, 0.025613754987716675, 0.051250092685222626, -0.2375347912311554, -0.2900618314743042, -0.2332163155078888, -0.10221458226442337, 0.09667160362005234, -0.1019110381603241, -0.11333747953176498, 0.019086871296167374, -0.013562451116740704, 0.037450745701789856, 0.17154119908809662, 0.4571681022644043, 0.3967517018318176, 0.5463777184486389, 0.2512052655220032, 0.09005750715732574, 0.10433483123779297, -0.02539430558681488, -0.07976805418729782, 0.6787745356559753, -0.1863686889410019, -0.265785276889801, 0.22082534432411194, 0.008159016259014606, -0.008966476656496525, 0.0016677859239280224, 0.13892124593257904, -0.1631600707769394, 0.03883237764239311, 0.13071109354496002, 0.13914278149604797, -0.006496735382825136, -0.03437783196568489, -0.1974700540304184, -0.10051024705171585, 0.07050545513629913, 0.38989272713661194, 0.33738791942596436, 0.0590130016207695, 0.8366071581840515, 0.380826860666275, 0.248403400182724, 0.19598668813705444, 0.04675215110182762, 0.026927828788757324, -0.05667384713888168, 0.019225381314754486, -0.3416674733161926, -0.5664452314376831, -0.3921864926815033, -0.29770490527153015, -0.0013691284693777561, 0.1392858624458313, 0.5902067422866821, 0.24694323539733887, 0.2145121693611145, -0.04678650572896004, -0.2781098186969757, -0.018473926931619644, 0.2884989082813263, -0.26104050874710083, -0.1213124692440033, 0.39857617020606995, 0.3393504023551941, 0.5289015769958496, 0.5957791209220886, 0.09780780971050262, 0.19709646701812744, -0.391494482755661, -0.24762676656246185, 0.5550816655158997, 0.37373343110084534, 0.07506711035966873, 0.04471167176961899, -0.07739895582199097, 0.08383104205131531, 0.06898333877325058, 0.4613969624042511, -0.2116992026567459, 0.11231153458356857, -0.031443919986486435, -0.18475623428821564, 0.05533461272716522, 0.1055322214961052, -0.12136251479387283, 0.07751764357089996, -0.03492531552910805, -0.3559032082557678, -0.8255037665367126, -0.5802276730537415, 0.1412997841835022, 0.2718179225921631, 0.12537309527397156, 0.28778597712516785, 0.16766402125358582, -0.029182229191064835, -1.242733120918274, -0.48712217807769775, -0.049631159752607346, 0.274923175573349, 0.061397843062877655, -0.07136499136686325, 0.0020978227257728577, -0.003885038197040558, 0.020929165184497833, -0.2866019308567047, 0.1095002070069313, -0.30585595965385437, -0.39740660786628723, 0.08111654222011566, 0.02357025071978569, 0.8556393980979919, -0.0806976780295372, 0.33948883414268494, 0.4026757478713989, -0.1938379406929016, -0.773280143737793, -0.388431191444397, -0.47962120175361633, 0.5792493224143982, 0.24250079691410065, 0.2590253949165344, 0.07067404687404633, -0.17284032702445984, 0.06609687209129333, -0.3774343430995941, -0.038330454379320145, -0.03138045594096184, 0.030673667788505554, -0.010647118091583252, -0.014958411455154419, 0.07016890496015549, 0.07277318090200424, 0.011391865089535713, -0.016408318653702736, -0.22157534956932068, 0.03951563686132431, -0.19734017550945282, -0.4611068367958069, 0.40819671750068665, 0.25919410586357117, 0.40953317284584045, 0.45008862018585205, 0.44337624311447144, -0.1682712584733963, 0.4581794738769531, -0.031233390793204308, -0.47965162992477417, -0.25611522793769836, 0.021170666441321373, 0.04679542034864426, -0.17577029764652252, -0.025961771607398987, -0.027951229363679886, -0.04496961086988449, 0.06778215616941452, 0.06684284657239914], [-0.025373119860887527, 0.04434562474489212, 0.04013451188802719, -0.04904024302959442, -0.05175873264670372, 0.06245977431535721, -0.012350186705589294, -0.005068391561508179, -0.07006360590457916, 0.05716336518526077, -0.044433560222387314, -0.05370047315955162, 0.08299677073955536, 0.17306405305862427, -0.14599889516830444, -0.09230334311723709, 0.018371157348155975, -0.08117742836475372, -0.008407078683376312, -0.08453243225812912, -0.06424809247255325, 0.001622624695301056, 0.03132396191358566, 0.005390554666519165, 0.05458497256040573, 0.04200143367052078, -0.03217433765530586, -0.049637988209724426, 0.06652124971151352, 0.0646153911948204, -0.006767243146896362, 0.028223469853401184, -0.030578967183828354, -0.10200898349285126, -0.20833642780780792, -0.14714094996452332, -0.26974979043006897, -0.5325704216957092, -0.5481231808662415, -0.6106610894203186, -0.4431281089782715, -0.2616983950138092, -0.4708821773529053, -0.9832961559295654, -1.139485478401184, -1.0268231630325317, -0.31000345945358276, 0.08289806544780731, 0.008485247381031513, -0.01883741281926632, -0.29714080691337585, -0.34179553389549255, 0.028609320521354675, 0.0005325675010681152, 0.047991953790187836, 0.07001786679029465, -0.007715150713920593, 0.019900768995285034, -0.07666619122028351, -0.389197438955307, -0.46365320682525635, 0.10696572065353394, -0.32157081365585327, -0.3634766638278961, -0.18073005974292755, -1.0749386548995972, -0.9507193565368652, -0.8406014442443848, -0.6729806065559387, -0.9860133528709412, -1.5156066417694092, -1.827408790588379, -1.8414318561553955, -1.0989052057266235, -0.971165657043457, -0.14604157209396362, -0.7500240206718445, -0.7024181485176086, -0.5410035252571106, 0.21262450516223907, 0.4157978892326355, 0.12671837210655212, 0.0778556540608406, -0.06631717085838318, -0.0672464594244957, 0.010159827768802643, 0.26128527522087097, -0.6728380918502808, -0.3579179644584656, -0.399985671043396, -0.8035535216331482, 0.029381440952420235, -0.8465449810028076, -0.9297320246696472, -1.083721399307251, -0.25738850235939026, -0.9856461882591248, -0.4743918180465698, -0.254726767539978, -1.3623048067092896, -1.5970590114593506, -0.947668194770813, -0.2787718176841736, -0.21548332273960114, -0.4156191945075989, -0.2921580672264099, 0.005711859092116356, 0.2302887737751007, -0.10811031609773636, -0.22762764990329742, 0.029762936756014824, -0.025259267538785934, -0.07176657766103745, 0.10586602985858917, 0.2818529009819031, 0.0647696927189827, 0.6492469310760498, 0.5765154957771301, 0.43722644448280334, 0.17037490010261536, -0.24374757707118988, -0.6268215179443359, -0.562785267829895, -0.02327760122716427, -0.3325904905796051, -0.13648322224617004, -0.6123443245887756, -0.3080165386199951, 0.194548562169075, -0.3905280828475952, -0.3473222255706787, -0.1571456789970398, -0.1736091822385788, -0.19604603946208954, -0.3037325143814087, 0.2409541755914688, -0.6408632397651672, -0.6143654584884644, -0.48208436369895935, -0.0289024505764246, 0.028566189110279083, -0.0711449608206749, 0.21780160069465637, -0.031864333897829056, 0.2419297844171524, 0.22937043011188507, 0.04835743084549904, 0.04107949882745743, 0.00543277757242322, 0.46754205226898193, -0.2973904609680176, -0.20041383802890778, 0.06668929010629654, -0.5997006297111511, -0.04735758528113365, 0.03883707523345947, -0.11135994642972946, 0.08997403085231781, -0.37284889817237854, -0.2849135100841522, -0.31116509437561035, -0.6316509246826172, -0.5490227341651917, -0.4011669456958771, -0.07644186913967133, 0.016778497025370598, -0.5278394222259521, 0.17910800874233246, 0.01692631095647812, -0.3964037597179413, 0.2775878608226776, -0.845819354057312, 0.23224928975105286, 0.3182796835899353, -0.2917027473449707, -0.1503220945596695, 0.05562484636902809, 0.145668163895607, -0.04231487587094307, -0.07885143160820007, -0.18003395199775696, -0.35776248574256897, -0.075978122651577, -0.09926202893257141, -0.10106697678565979, 0.2693682312965393, -0.10031914710998535, -0.0843036025762558, -0.6193508505821228, -0.269273579120636, 0.08198798447847366, -0.14738313853740692, -0.15921178460121155, -0.5754138231277466, 0.15253764390945435, 0.2664419412612915, 0.19073326885700226, -0.7959111332893372, 0.08303367346525192, -0.37147417664527893, 0.1419364959001541, -0.11078833788633347, -0.15119706094264984, -0.5831018090248108, 0.05015663430094719, 0.11690931767225266, -0.07810913026332855, 0.0824892669916153, 0.05895542725920677, -0.06055604666471481, -0.042793985456228256, -0.16112713515758514, -0.04590156674385071, 0.19339750707149506, -0.3612472116947174, -0.14832636713981628, -0.02482784166932106, -0.48247769474983215, -0.4870685935020447, 0.2736743688583374, -0.29663580656051636, -0.2626394033432007, -0.014056282117962837, 0.17020143568515778, -0.2418198585510254, -0.7464846968650818, -0.26487353444099426, -0.4716886579990387, 0.22928835451602936, 0.17709186673164368, -0.0033987159840762615, 0.05868232622742653, 0.25829583406448364, 0.1298842877149582, 0.059984203428030014, -0.07134409248828888, -0.30109551548957825, -0.23116964101791382, -0.1264095902442932, 0.16175547242164612, -0.17956461012363434, 0.10965310037136078, -0.29215389490127563, -0.36992746591567993, -0.4649293124675751, -0.10058008879423141, -0.1533830463886261, -0.17856818437576294, -0.6668738722801208, -0.017904182896018028, -0.4401518404483795, -0.4098004400730133, -0.3497873544692993, -0.6319593787193298, -0.20649601519107819, -0.3844996392726898, 0.382878839969635, -0.1772361397743225, -0.2811931371688843, 0.4218185245990753, 0.2615935802459717, -0.17655326426029205, 0.2946532666683197, 0.05855191498994827, -0.3185268044471741, -0.43559446930885315, 0.02859480120241642, 0.1768239438533783, 0.0969289243221283, -0.14968359470367432, -0.0470639206469059, -0.20113582909107208, -0.1423587203025818, -0.19870208203792572, -0.3305627405643463, -0.30666062235832214, -0.5740552544593811, -0.5459515452384949, -0.07721088826656342, 0.3154034912586212, -0.3677203953266144, -0.2736732065677643, -0.45477622747421265, -0.20816203951835632, 0.6246341466903687, 0.026627540588378906, -0.5270919799804688, 0.05490126460790634, 0.08266904205083847, 0.16879603266716003, 0.08152959495782852, -0.22887173295021057, -0.4814331829547882, -0.32523787021636963, 0.2597596347332001, 0.6352008581161499, 0.3540116548538208, 0.022328274324536324, -0.2389032542705536, 0.12008167058229446, 0.1010107696056366, -0.2107778787612915, -0.26895052194595337, 0.10807725042104721, -0.1912083476781845, -0.009150291793048382, -0.11392272263765335, 0.0955100879073143, -0.275442510843277, -0.2541567385196686, -0.40776288509368896, -0.5292060375213623, -0.4468655288219452, -0.03877231478691101, -0.18281343579292297, -0.0827874168753624, 0.16696850955486298, -0.15085045993328094, -0.10038117319345474, -0.2916630506515503, -0.37400519847869873, -0.017611246556043625, 0.4504275918006897, 0.6520301103591919, 0.5126796364784241, 0.15827810764312744, 0.10144908726215363, 0.3126330077648163, -0.043395984917879105, 0.32876574993133545, 0.14866524934768677, -0.2960650324821472, 0.07950078696012497, -0.16624832153320312, -0.19220471382141113, -0.27061977982521057, 0.1385045200586319, 0.16212406754493713, -0.04114893823862076, -0.8251386880874634, -1.1306039094924927, -0.7877461314201355, -0.1519574075937271, -0.1816592961549759, -0.08270610868930817, -0.06359237432479858, -0.05542626604437828, -0.0400775671005249, 0.05763636529445648, 0.5182003378868103, 0.5944166779518127, 0.5404972434043884, 0.501678466796875, 0.13407713174819946, 0.030786165967583656, 9.851165668806061e-05, -0.13202103972434998, -0.02726815454661846, 0.07052448391914368, -0.050603531301021576, 0.02199351042509079, -0.2214634269475937, -0.19109158217906952, -0.5136775374412537, -0.07326462119817734, 0.384147971868515, -0.5458840727806091, -0.7600007653236389, -1.0716081857681274, -0.4224463701248169, 0.13575874269008636, 0.03655979782342911, 0.166839599609375, 0.05249020829796791, 0.09844531863927841, -0.06837520003318787, -0.09557869285345078, 0.48977136611938477, 0.5097161531448364, 0.45624619722366333, 0.41299372911453247, 0.2576887607574463, -0.012260643765330315, -0.1377319097518921, -0.08370769023895264, -0.29062512516975403, -0.3690621852874756, -0.6699298024177551, -0.6020052433013916, -0.22377556562423706, -0.4737952649593353, -0.5790122151374817, 0.25429341197013855, 0.4446333050727844, -0.3123875856399536, -0.48556628823280334, -0.48704099655151367, -0.09529352933168411, -0.34679991006851196, 0.15675552189350128, 0.24466033279895782, 0.09489253908395767, -0.046559326350688934, -0.011078650131821632, 0.4497486650943756, 0.33352452516555786, 0.2326769381761551, 0.5973026156425476, 0.663979172706604, 0.26919427514076233, 0.09483204782009125, 0.09380735456943512, -0.1656850278377533, -0.25937893986701965, -0.43416276574134827, -0.7785825729370117, -0.7530434131622314, -0.14190396666526794, -0.5131292939186096, -0.3742656409740448, 0.2550114095211029, 0.23714569211006165, 0.18887218832969666, 0.10588377714157104, 0.21391171216964722, -0.5390467047691345, -0.30366748571395874, -0.06752683967351913, -0.09219218790531158, 0.0156870037317276, -0.017135700210928917, 0.06645321100950241, 0.24451316893100739, 0.0072649335488677025, 0.15703412890434265, 0.6044434309005737, 0.46001866459846497, 0.5961076021194458, 0.20728060603141785, -0.2918858528137207, -0.3252057731151581, -0.1592373251914978, -0.08552151918411255, -0.41955846548080444, -0.48120737075805664, -0.672940194606781, 0.09981885552406311, 0.030557403340935707, 0.14378033578395844, -0.3730567991733551, -0.02551676332950592, -0.11832453310489655, 0.07406244426965714, -0.05911114066839218, -0.4624435603618622, -0.1670662760734558, -0.3330540060997009, -0.585870623588562, -0.18347139656543732, -0.08678875118494034, 0.011459254659712315, 0.061088141053915024, 0.12029995769262314, 0.4656745195388794, 0.5497711300849915, 0.297830194234848, -0.11594993621110916, -0.30838918685913086, -0.17879889905452728, -0.19499540328979492, -0.3743842542171478, -0.2803110182285309, 0.15270033478736877, -0.45327886939048767, -0.5637944340705872, 0.17802438139915466, -0.07741519063711166, 0.20214100182056427, -0.5161507725715637, 0.22042784094810486, -0.04246268793940544, -0.010674156248569489, -0.6259863376617432, -0.7602049708366394, -1.0066708326339722, -0.5304089188575745, -0.10569173097610474, -0.10648346692323685, -0.1505323350429535, -0.030902015045285225, 0.27258890867233276, 0.45607975125312805, 0.3043600916862488, -0.28815025091171265, -0.6347250938415527, -1.0010759830474854, -0.6668049097061157, -0.6630010604858398, -0.1632167249917984, 0.2529163360595703, 0.1543564349412918, 0.494733065366745, 0.40922802686691284, -0.13020053505897522, -0.18497462570667267, 0.3576369881629944, -0.8465023040771484, 0.052314404398202896, -0.06351763755083084, -0.08472961187362671, -0.2788388729095459, -0.8600527048110962, -1.0996391773223877, -0.9513911008834839, -0.5312445163726807, -0.23633384704589844, -0.3207300901412964, 0.11940065771341324, 0.3128558397293091, 0.28864943981170654, 0.3096979856491089, -0.6100988984107971, -1.1117817163467407, -1.4431272745132446, -1.123552680015564, -0.39701417088508606, -0.39418068528175354, -0.5712704062461853, -0.3780457675457001, 0.31388506293296814, 0.7748891115188599, 0.42534494400024414, 0.38961347937583923, -0.5611557960510254, -1.005440592765808, -0.22827260196208954, -0.03862685337662697, 0.06424982845783234, -0.21835017204284668, 0.037155456840991974, -0.46779024600982666, -0.7037957310676575, -0.8796032071113586, -0.29886534810066223, -0.5174970626831055, -0.24150997400283813, 0.004327618051320314, -0.21124087274074554, -0.09737029671669006, -0.7512809038162231, -0.854377269744873, -1.0591238737106323, -0.36992278695106506, 0.0004052631848026067, -0.3342091739177704, -0.8475764989852905, -0.5652233958244324, 0.36146441102027893, 0.16867013275623322, 0.40384843945503235, -0.01150897890329361, -0.24200071394443512, -0.5399867296218872, -0.3724137544631958, 0.027907785028219223, 0.32454171776771545, 0.17037521302700043, 0.029214445501565933, -0.23921792209148407, -0.07959844172000885, -0.5362036228179932, -0.6408260464668274, -0.785724401473999, -0.3045443594455719, -0.18926791846752167, -0.4497125744819641, 0.11425042152404785, -0.14898034930229187, -0.28874507546424866, -0.3876631557941437, -0.5002161264419556, 0.011062887497246265, 0.2298271656036377, -0.01160802785307169, -0.3621523082256317, 0.2982901334762573, 0.41783902049064636, 0.31752538681030273, 0.29772594571113586, -0.2822471857070923, 0.4695890247821808, 0.7337349653244019, 0.7523981928825378, 0.6072839498519897, 0.36948686838150024, 0.3600228428840637, 0.25175875425338745, 0.30034685134887695, 0.04197477549314499, -0.4547298848628998, -0.5793275237083435, -0.43192073702812195, -0.5684435367584229, -0.34581565856933594, -0.14156514406204224, -0.4341561794281006, -0.5529536604881287, -0.44875267148017883, -0.37661466002464294, -0.19269952178001404, 0.12252426892518997, -0.021320467814803123, -0.07298111170530319, -0.2066313773393631, -0.2500845491886139, 0.012982535175979137, 0.37328723073005676, 0.13265876471996307, 0.05534646287560463, 0.3752431869506836, 0.7282963395118713, 0.3484726846218109, 0.7401494383811951, 0.29847365617752075, 0.32068324089050293, 0.3014231324195862, 0.3068877160549164, -0.16421423852443695, -0.14464925229549408, -0.6107339859008789, -0.5977681875228882, -0.5309447646141052, -0.5043841004371643, -0.41857901215553284, -0.46095043420791626, -0.06866492331027985, -0.06827715784311295, -0.3557067811489105, -0.09586040675640106, 0.10580641776323318, -0.020231854170560837, -0.3485511243343353, 0.0784623846411705, 0.0022093940060585737, -0.0639546662569046, 0.06949418038129807, -0.7238280773162842, -0.27300435304641724, -0.19810013473033905, -0.020810890942811966, 0.4416578710079193, 0.48927533626556396, 0.4413106143474579, 0.544135570526123, 0.1427495777606964, -0.17631493508815765, -0.15414460003376007, -0.634837806224823, -0.6476198434829712, -0.8267582654953003, -0.312073677778244, 0.03336233273148537, -0.23596210777759552, 0.07560897618532181, -0.08490360528230667, -0.28113752603530884, -0.05491763725876808, 0.25188201665878296, -0.08417706936597824, -0.3786557912826538, 0.6591715812683105, 0.06378357857465744, 0.0661521628499031, 0.003857359290122986, 0.03961346298456192, -0.03823942318558693, -0.09877297282218933, 0.20821577310562134, -0.08094517141580582, 0.323368638753891, 0.08187959343194962, 0.050136059522628784, -0.21593251824378967, -0.6727572679519653, -0.41239413619041443, -0.5463760495185852, -0.307735413312912, -0.5691474676132202, -0.2186354547739029, 0.03230084106326103, -0.17987294495105743, -0.19432850182056427, -0.02059854008257389, -0.09137655049562454, -0.32488536834716797, 0.1677207052707672, -0.17604045569896698, 0.27230313420295715, 0.3450472056865692, -0.03401721268892288, 0.07607436925172806, -0.009806789457798004, 0.006153426598757505, 0.22586919367313385, 0.28636443614959717, -0.16618263721466064, -0.09613433480262756, 0.23645097017288208, 0.0878690853714943, -0.012815716676414013, -0.21400004625320435, -0.44317400455474854, -0.16247804462909698, -0.2321936935186386, 0.020990746095776558, -0.16041603684425354, -0.2753851115703583, 0.21419739723205566, 0.045743510127067566, -0.36103710532188416, 0.051026325672864914, -0.09228897094726562, 0.12726864218711853, 0.48431533575057983, -0.11091434955596924, 0.27437838912010193, -0.3055238723754883, -0.02353106439113617, -0.058870039880275726, 0.06466654688119888, -0.016992054879665375, -0.08454782515764236, 0.6100313663482666, 0.19962972402572632, 0.3892199695110321, -0.1971510350704193, -0.16246862709522247, 0.22174514830112457, 0.008889922872185707, 0.027941390872001648, 0.10563316196203232, -0.11063931882381439, 0.3862580955028534, 0.572809100151062, 0.4126136898994446, 0.0942951887845993, -0.11120595782995224, -0.35778093338012695, -0.640169620513916, -0.9583191275596619, -0.9146456718444824, -0.5175665020942688, 0.3735426068305969, -0.47731757164001465, 0.019372865557670593, 0.03477863222360611, 0.01118200272321701, 0.08189483731985092, 0.015260517597198486, -0.05920160561800003, -0.8565520644187927, -1.0347466468811035, 0.025615114718675613, -0.4515590965747833, -0.4143745005130768, -0.3203312158584595, -0.8593050837516785, -0.235482320189476, -0.16719220578670502, -0.8836486339569092, -0.25025519728660583, 0.6035525798797607, -0.02501009590923786, -0.2922959327697754, -0.16889692842960358, -0.5856638550758362, -0.4008839428424835, -0.42520880699157715, -0.47878211736679077, -0.4413294196128845, 0.06414643675088882, -0.022052377462387085, -0.03230606019496918, -0.013269014656543732], [-0.07100945711135864, 0.06611954420804977, 0.014407701790332794, 0.029332667589187622, 0.04522529989480972, 0.05619218200445175, 0.06830466538667679, 0.040117986500263214, 0.0790264680981636, -0.0564541295170784, -0.006335154175758362, -0.01647782325744629, -0.07686388492584229, 0.011605667881667614, -0.10174594074487686, 0.07481120526790619, 0.008839882910251617, -0.0631408616900444, -0.02242480218410492, 0.02907867729663849, 0.05710258334875107, 0.05812292546033859, 0.04195941239595413, 0.03371788561344147, -0.04214842617511749, 0.04645415395498276, -0.07275000214576721, 0.013222508132457733, 0.05982894450426102, 0.023793190717697144, 